################################################################################
# Neural network connection values (weights and biases).
################################################################################
# Col  Name       Description
################################################################################
# 1    connection Neural network connection value.
# 2    t          Connection type (a = weight, b = bias).
# 3    index      Index enumerating weights.
# 4    l_s        Starting point layer (end point layer for biases).
# 5    n_s        Starting point neuron in starting layer (end point neuron for biases).
# 6    l_e        End point layer.
# 7    n_e        End point neuron in end layer.
################################################################################
#                      1 2         3     4     5     6     7
#             connection t     index   l_s   n_s   l_e   n_e
############################################################
  9.5428343186724862E-01 a         1     0     1     1     1
  2.6119825111822420E-01 a         2     0     1     1     2
  2.1349904882047568E+00 a         3     0     1     1     3
  1.8901098128183693E+00 a         4     0     1     1     4
  1.1422327527695881E+00 a         5     0     1     1     5
  7.9747708417095564E-01 a         6     0     1     1     6
 -4.9517821405068685E-01 a         7     0     1     1     7
  8.5212307643275520E-01 a         8     0     1     1     8
  4.8032127074257797E-01 a         9     0     1     1     9
 -2.0516704985907780E-01 a        10     0     1     1    10
  5.7306685983312655E-01 a        11     0     1     1    11
 -3.3470374519644758E-01 a        12     0     1     1    12
  1.0405450435267691E+00 a        13     0     1     1    13
  7.6632567168986726E-02 a        14     0     1     1    14
  1.3685810578847413E+00 a        15     0     1     1    15
  6.5947723453906218E-02 a        16     0     1     1    16
  8.6793166277655889E-03 a        17     0     1     1    17
 -3.7815860611837387E-01 a        18     0     1     1    18
  6.5965240728038832E-01 a        19     0     1     1    19
 -7.4831267869855722E-01 a        20     0     1     1    20
 -8.1654469771099872E-02 a        21     0     2     1     1
  2.4354734183185736E-01 a        22     0     2     1     2
  3.9814128532637832E-01 a        23     0     2     1     3
 -5.0746129446792942E-01 a        24     0     2     1     4
 -1.8759064410495366E-01 a        25     0     2     1     5
 -3.2575326338004312E-01 a        26     0     2     1     6
  3.6153636773870554E-02 a        27     0     2     1     7
 -2.6763530141540374E-02 a        28     0     2     1     8
  2.8163975610069869E-01 a        29     0     2     1     9
  2.9580780704674176E-01 a        30     0     2     1    10
 -3.6951452929362166E-01 a        31     0     2     1    11
 -1.1891207683508929E+00 a        32     0     2     1    12
 -7.2346134679007945E-01 a        33     0     2     1    13
  2.7265566633176302E-01 a        34     0     2     1    14
 -1.1147504128004797E+00 a        35     0     2     1    15
 -9.8325394468515750E-02 a        36     0     2     1    16
  2.3082536104423956E-01 a        37     0     2     1    17
  2.0711763203366110E-01 a        38     0     2     1    18
 -1.9799473288253416E-01 a        39     0     2     1    19
  5.2540740293596670E-02 a        40     0     2     1    20
 -3.1953425100322519E-01 a        41     0     3     1     1
 -9.5525237827554260E-02 a        42     0     3     1     2
  8.4170189471492911E+00 a        43     0     3     1     3
  8.7997792305951816E-01 a        44     0     3     1     4
 -6.9043858682074104E+00 a        45     0     3     1     5
  1.4655864062317672E+00 a        46     0     3     1     6
 -2.9750544873722427E+00 a        47     0     3     1     7
 -2.4963491600623295E+00 a        48     0     3     1     8
  7.2280099252448871E-01 a        49     0     3     1     9
 -3.4553355793312761E+00 a        50     0     3     1    10
 -6.7190198268739838E+00 a        51     0     3     1    11
 -1.4032065878795169E+01 a        52     0     3     1    12
 -8.6070628664726723E+00 a        53     0     3     1    13
  2.5294321361683960E+00 a        54     0     3     1    14
 -5.4080437644509365E+00 a        55     0     3     1    15
 -4.3937079951933772E-01 a        56     0     3     1    16
  7.3542397505436483E+00 a        57     0     3     1    17
 -2.0262960677210633E+00 a        58     0     3     1    18
  3.0042215784310917E+00 a        59     0     3     1    19
 -3.7095211193898359E-02 a        60     0     3     1    20
 -1.2713370005398503E+00 a        61     0     4     1     1
  3.6396433953138549E+00 a        62     0     4     1     2
  5.8153233290642870E-01 a        63     0     4     1     3
  6.1877211955245688E+00 a        64     0     4     1     4
  2.6225056042922961E+00 a        65     0     4     1     5
  2.2048468371629371E+00 a        66     0     4     1     6
  1.3967884037489013E+00 a        67     0     4     1     7
  1.1770371321667306E+00 a        68     0     4     1     8
  2.0261023896844916E+00 a        69     0     4     1     9
 -8.4994407713871634E-01 a        70     0     4     1    10
 -1.5776327338802718E+00 a        71     0     4     1    11
  8.3891058167430177E-01 a        72     0     4     1    12
 -7.3638413138278063E+00 a        73     0     4     1    13
  3.5394393036838254E+00 a        74     0     4     1    14
 -1.5394213473519982E+00 a        75     0     4     1    15
  2.7076594873217397E-01 a        76     0     4     1    16
  1.3509122828353457E+00 a        77     0     4     1    17
  5.9974495596577055E+00 a        78     0     4     1    18
 -2.7743683974339057E+00 a        79     0     4     1    19
 -4.9624106743666054E+00 a        80     0     4     1    20
  2.2315645148459839E-01 a        81     0     5     1     1
  1.9025171748288638E-01 a        82     0     5     1     2
  1.5118292557132060E-01 a        83     0     5     1     3
  3.2940445822311643E-01 a        84     0     5     1     4
  7.8864729980457821E-02 a        85     0     5     1     5
 -6.6894911047416705E-01 a        86     0     5     1     6
  1.0183118897768639E-01 a        87     0     5     1     7
 -1.7467831595776265E-01 a        88     0     5     1     8
 -2.2322296106524489E-02 a        89     0     5     1     9
  3.2560009753950125E-01 a        90     0     5     1    10
  1.7113800925243400E-01 a        91     0     5     1    11
  1.9006868097878180E-01 a        92     0     5     1    12
 -3.1727763716905427E-01 a        93     0     5     1    13
  1.8600806498033173E-01 a        94     0     5     1    14
 -2.2652756441097019E-01 a        95     0     5     1    15
  2.3421813148970705E-01 a        96     0     5     1    16
 -1.2706593982479270E-01 a        97     0     5     1    17
  3.3092350112440305E-01 a        98     0     5     1    18
  7.4212896188494961E-04 a        99     0     5     1    19
 -7.6205677149168247E-02 a       100     0     5     1    20
  1.9497013303809821E-01 a       101     0     6     1     1
 -2.0003080191851267E-02 a       102     0     6     1     2
  1.4993546225932257E+00 a       103     0     6     1     3
 -1.2490130713333554E-01 a       104     0     6     1     4
  1.6052767347685282E+00 a       105     0     6     1     5
 -1.1900566909730828E+00 a       106     0     6     1     6
  5.9371946721951535E-02 a       107     0     6     1     7
 -2.2283899755872022E-01 a       108     0     6     1     8
  7.8937201490170017E-01 a       109     0     6     1     9
  1.0046210164445568E+00 a       110     0     6     1    10
  9.1756243851429409E-01 a       111     0     6     1    11
 -4.9879707346356450E-01 a       112     0     6     1    12
 -1.0983812254098948E+00 a       113     0     6     1    13
  1.0250862231218891E+00 a       114     0     6     1    14
  3.4161869535392068E-02 a       115     0     6     1    15
  3.1021429887602170E-01 a       116     0     6     1    16
 -7.0604348695475960E-01 a       117     0     6     1    17
  1.0942302118354450E+00 a       118     0     6     1    18
  7.8110154023037826E-01 a       119     0     6     1    19
 -9.3680660617476305E-02 a       120     0     6     1    20
  8.1428669979565527E-01 a       121     0     7     1     1
  4.9844307883453975E-01 a       122     0     7     1     2
  1.4966960742308508E+00 a       123     0     7     1     3
  7.4402641583547768E-01 a       124     0     7     1     4
  7.3917000657284460E-02 a       125     0     7     1     5
 -4.9746599635900057E-01 a       126     0     7     1     6
  5.7642714267306672E-01 a       127     0     7     1     7
 -1.9785892526351193E-01 a       128     0     7     1     8
  1.2211500995303288E+00 a       129     0     7     1     9
  4.2406647746950249E-01 a       130     0     7     1    10
  7.1312959832332268E-01 a       131     0     7     1    11
 -2.4207886814658400E-01 a       132     0     7     1    12
 -7.0192879353424009E-01 a       133     0     7     1    13
  5.1053415342598862E-01 a       134     0     7     1    14
  6.3254442759676691E-02 a       135     0     7     1    15
  7.9781743615724532E-01 a       136     0     7     1    16
  4.0588627761638568E-01 a       137     0     7     1    17
  1.0793122661290986E+00 a       138     0     7     1    18
 -2.1319422468722460E-01 a       139     0     7     1    19
 -8.3591671983501259E-01 a       140     0     7     1    20
  4.5979233755121403E+00 a       141     0     8     1     1
  1.3779653105555201E+00 a       142     0     8     1     2
  3.6730068413926213E+00 a       143     0     8     1     3
 -9.0712622908410812E-02 a       144     0     8     1     4
  2.0590576725042058E+00 a       145     0     8     1     5
  1.3410774612539345E+00 a       146     0     8     1     6
 -2.1649539607143509E+00 a       147     0     8     1     7
  1.9749484862676020E-01 a       148     0     8     1     8
  3.0083019875031081E+00 a       149     0     8     1     9
  2.6806859585800922E+00 a       150     0     8     1    10
  3.3802220684061779E+00 a       151     0     8     1    11
 -3.2542976257683351E+00 a       152     0     8     1    12
 -6.7940810739085178E-01 a       153     0     8     1    13
  2.3807772539885486E+00 a       154     0     8     1    14
  1.8037276901673049E+00 a       155     0     8     1    15
 -8.6623905856170380E-01 a       156     0     8     1    16
 -1.1416254993292296E+00 a       157     0     8     1    17
  6.4268200594114688E-01 a       158     0     8     1    18
  2.4159595280753554E+00 a       159     0     8     1    19
 -8.5304256022026392E-01 a       160     0     8     1    20
  7.6064501297236731E-01 a       161     0     9     1     1
  7.9107164306751021E-01 a       162     0     9     1     2
  2.5017490963264986E+00 a       163     0     9     1     3
  1.0794632993288673E+00 a       164     0     9     1     4
  8.5953765624418854E-01 a       165     0     9     1     5
  4.3173415932099424E-01 a       166     0     9     1     6
 -9.9543047052518277E-02 a       167     0     9     1     7
  9.2556117459255416E-01 a       168     0     9     1     8
  9.8967221627075441E-01 a       169     0     9     1     9
  4.4019238746828554E-01 a       170     0     9     1    10
  2.2008035993874221E-02 a       171     0     9     1    11
 -1.2331956930135120E+00 a       172     0     9     1    12
  1.1268218721652137E+00 a       173     0     9     1    13
  1.2264578494030465E-01 a       174     0     9     1    14
  2.9498480450688186E-01 a       175     0     9     1    15
  1.5092546715736785E-01 a       176     0     9     1    16
  2.5158925916389363E-01 a       177     0     9     1    17
  2.8202707996804022E-01 a       178     0     9     1    18
  3.4462968620051976E-01 a       179     0     9     1    19
 -6.5243371308983322E-01 a       180     0     9     1    20
 -6.1650935700675724E-01 a       181     0    10     1     1
  7.8234389604890583E-02 a       182     0    10     1     2
 -7.6919886339251986E-01 a       183     0    10     1     3
 -1.7248231884039942E+00 a       184     0    10     1     4
 -4.5703250342001500E-01 a       185     0    10     1     5
 -7.8199228099255114E-01 a       186     0    10     1     6
  7.8733274262197273E-01 a       187     0    10     1     7
 -4.2663856847540071E-01 a       188     0    10     1     8
  3.8197317796539176E-02 a       189     0    10     1     9
  5.3485931854005830E-01 a       190     0    10     1    10
 -3.7478685473833634E-01 a       191     0    10     1    11
 -3.8321677127356224E-01 a       192     0    10     1    12
 -9.9520409296285683E-01 a       193     0    10     1    13
  5.2586713451617535E-02 a       194     0    10     1    14
 -1.9677480931408926E+00 a       195     0    10     1    15
  2.5966765152272703E-01 a       196     0    10     1    16
  1.6712897131425236E-02 a       197     0    10     1    17
  7.9484449652345024E-01 a       198     0    10     1    18
 -4.6583842985568813E-01 a       199     0    10     1    19
  5.6616437524030216E-01 a       200     0    10     1    20
  1.6892587690618768E+00 a       201     0    11     1     1
 -4.0216800069200997E-01 a       202     0    11     1     2
 -2.1263416239612907E+00 a       203     0    11     1     3
  1.1190784579459954E+00 a       204     0    11     1     4
  5.4329232228896380E+00 a       205     0    11     1     5
 -5.8114566858986116E-01 a       206     0    11     1     6
  2.5791412390352733E+00 a       207     0    11     1     7
  1.7510422338325411E+00 a       208     0    11     1     8
 -6.6101644887342326E-01 a       209     0    11     1     9
  1.2818420166083191E+00 a       210     0    11     1    10
  4.4028732336661509E+00 a       211     0    11     1    11
  8.5116627774900362E+00 a       212     0    11     1    12
  5.6678169038675943E+00 a       213     0    11     1    13
 -1.4543346463467031E+00 a       214     0    11     1    14
  3.9558265457451216E+00 a       215     0    11     1    15
  9.7286320279228067E-01 a       216     0    11     1    16
 -4.5270793067385320E+00 a       217     0    11     1    17
  1.2674512633317128E+00 a       218     0    11     1    18
 -1.8611066365302248E-01 a       219     0    11     1    19
 -2.9902053395084044E-01 a       220     0    11     1    20
 -3.4908740397144346E-02 a       221     0    12     1     1
 -6.6752741790934067E-01 a       222     0    12     1     2
  5.0248750907995721E-01 a       223     0    12     1     3
 -6.6646978124716239E-01 a       224     0    12     1     4
 -4.3817373292218555E-02 a       225     0    12     1     5
 -3.7212072296314902E-01 a       226     0    12     1     6
  2.7191530719097184E-01 a       227     0    12     1     7
  1.1676297369506299E+00 a       228     0    12     1     8
 -2.9461034197164798E-01 a       229     0    12     1     9
  2.1964934851529591E-01 a       230     0    12     1    10
 -6.6033140665455625E-02 a       231     0    12     1    11
  5.9448489301530705E-01 a       232     0    12     1    12
 -1.0858751097283112E-01 a       233     0    12     1    13
 -3.8048980622697695E-02 a       234     0    12     1    14
 -6.4881858757381272E-01 a       235     0    12     1    15
 -2.2479327012265851E-01 a       236     0    12     1    16
 -8.3665013321884851E-01 a       237     0    12     1    17
 -6.1929319592306753E-01 a       238     0    12     1    18
 -6.8247606241574610E-02 a       239     0    12     1    19
 -7.3811126709094554E-01 a       240     0    12     1    20
  4.7944778065383159E-01 a       241     0    13     1     1
  2.0950570052245354E-01 a       242     0    13     1     2
  8.5826293401975751E-01 a       243     0    13     1     3
  7.8868107458276071E-01 a       244     0    13     1     4
  5.6052249691406397E-01 a       245     0    13     1     5
 -1.6993419110379929E-01 a       246     0    13     1     6
 -1.3154709458667577E-01 a       247     0    13     1     7
 -3.9050515620301857E-01 a       248     0    13     1     8
  7.0667766538881160E-01 a       249     0    13     1     9
 -8.7510767538536066E-02 a       250     0    13     1    10
  3.3375823397560045E-01 a       251     0    13     1    11
 -4.9966531017797683E-01 a       252     0    13     1    12
 -3.9465104710449750E-01 a       253     0    13     1    13
  5.3697985244272706E-01 a       254     0    13     1    14
  7.1889836324121892E-01 a       255     0    13     1    15
  6.7670641468713921E-01 a       256     0    13     1    16
  1.0595094507000820E+00 a       257     0    13     1    17
  9.2727931050364742E-01 a       258     0    13     1    18
  2.4141562163712930E-02 a       259     0    13     1    19
  4.1666127133950620E-01 a       260     0    13     1    20
  2.4858039561677839E-01 a       261     0    14     1     1
 -1.4531224885582059E-01 a       262     0    14     1     2
  1.7149112139817604E+00 a       263     0    14     1     3
  1.1563939933874115E-01 a       264     0    14     1     4
  7.6393783127798665E-01 a       265     0    14     1     5
 -3.7162955337852410E-02 a       266     0    14     1     6
 -7.4804384505724741E-02 a       267     0    14     1     7
  3.9718020475296927E-02 a       268     0    14     1     8
  7.3184924347039526E-01 a       269     0    14     1     9
  1.4692475743140165E-01 a       270     0    14     1    10
  4.2070017713409119E-01 a       271     0    14     1    11
 -6.5752095102477082E-01 a       272     0    14     1    12
 -5.0298450001292827E-01 a       273     0    14     1    13
  7.8376923431233503E-01 a       274     0    14     1    14
  6.7162484968963987E-01 a       275     0    14     1    15
  3.1176540427258914E-01 a       276     0    14     1    16
  3.2004718597761722E-01 a       277     0    14     1    17
  3.8866271764306182E-01 a       278     0    14     1    18
  1.7210839594738805E-01 a       279     0    14     1    19
  1.1867481929213626E-01 a       280     0    14     1    20
 -1.9308977362651075E-01 a       281     0    15     1     1
  1.5965372397056160E-01 a       282     0    15     1     2
  8.0146627407387830E-02 a       283     0    15     1     3
  5.9442882096104199E-01 a       284     0    15     1     4
 -1.2787882322322732E+00 a       285     0    15     1     5
  1.0316426176899913E+00 a       286     0    15     1     6
  2.9386531992854148E-01 a       287     0    15     1     7
  3.8433604442851155E-01 a       288     0    15     1     8
 -1.3060353300281882E-01 a       289     0    15     1     9
 -5.4803418576509166E-01 a       290     0    15     1    10
  3.4430259831453718E-04 a       291     0    15     1    11
  9.5793305127750542E-02 a       292     0    15     1    12
  3.1607745299522427E-01 a       293     0    15     1    13
 -6.9703897143274773E-01 a       294     0    15     1    14
  2.5575841357428325E-01 a       295     0    15     1    15
  3.5614871287494154E-01 a       296     0    15     1    16
  5.0554296295857315E-01 a       297     0    15     1    17
 -1.0713208124108811E+00 a       298     0    15     1    18
 -7.9039125009169198E-01 a       299     0    15     1    19
  1.5362288245542949E-01 a       300     0    15     1    20
  2.2248930671973732E-01 a       301     0    16     1     1
  3.0892054029452143E-01 a       302     0    16     1     2
  2.3159147440467800E-01 a       303     0    16     1     3
  3.3384986414628437E-01 a       304     0    16     1     4
  2.5900600511021349E-01 a       305     0    16     1     5
  1.7823070762059426E-01 a       306     0    16     1     6
 -3.3816893992074010E-01 a       307     0    16     1     7
  2.6924115695723849E-01 a       308     0    16     1     8
  4.4478058156494737E-01 a       309     0    16     1     9
  3.4266575593723841E-02 a       310     0    16     1    10
 -1.1797389613020280E-01 a       311     0    16     1    11
 -1.0227090516975332E-02 a       312     0    16     1    12
  2.1794568756317134E-01 a       313     0    16     1    13
  1.3655261801752142E-01 a       314     0    16     1    14
  4.1907405336118514E-01 a       315     0    16     1    15
 -3.3659793342297306E-01 a       316     0    16     1    16
 -9.7119745298465010E-02 a       317     0    16     1    17
  4.9673168757834596E-01 a       318     0    16     1    18
  1.6103670345576096E-01 a       319     0    16     1    19
 -3.0599385944719035E-02 a       320     0    16     1    20
  6.2605613642383717E-01 a       321     0    17     1     1
  9.1481778888960907E-01 a       322     0    17     1     2
  1.0349288732164137E+00 a       323     0    17     1     3
  1.0003243254638743E+00 a       324     0    17     1     4
  6.7631136728263541E-01 a       325     0    17     1     5
  1.1477400315472371E-01 a       326     0    17     1     6
 -1.9696962556668787E-01 a       327     0    17     1     7
  6.0615922139043121E-01 a       328     0    17     1     8
  8.4308202641115548E-01 a       329     0    17     1     9
  1.5286302771129806E-01 a       330     0    17     1    10
 -1.3290558651704404E-01 a       331     0    17     1    11
 -5.3577298886100255E-01 a       332     0    17     1    12
  8.7769084463918956E-01 a       333     0    17     1    13
  2.0053771501261058E-01 a       334     0    17     1    14
  7.8158534809437830E-01 a       335     0    17     1    15
 -3.3401843303986029E-01 a       336     0    17     1    16
 -9.8159160952040275E-02 a       337     0    17     1    17
  7.8096096851380237E-01 a       338     0    17     1    18
  1.6474092673950466E-01 a       339     0    17     1    19
 -4.2455895262689658E-01 a       340     0    17     1    20
  7.8870948487581671E-01 a       341     0    18     1     1
  1.1271808572904272E+00 a       342     0    18     1     2
  2.0949127698500822E+00 a       343     0    18     1     3
  1.2184701660922326E+00 a       344     0    18     1     4
  8.6476302265460914E-01 a       345     0    18     1     5
  1.7182153884664858E-01 a       346     0    18     1     6
 -1.1836544617272043E-01 a       347     0    18     1     7
  9.2852836087342439E-01 a       348     0    18     1     8
  1.1319722376958299E+00 a       349     0    18     1     9
  4.8756715952101037E-01 a       350     0    18     1    10
 -1.3751669577035686E-01 a       351     0    18     1    11
 -1.1810977785256425E+00 a       352     0    18     1    12
  1.5256315129907900E+00 a       353     0    18     1    13
  3.6619411861808399E-01 a       354     0    18     1    14
  7.5773289511201170E-01 a       355     0    18     1    15
 -1.6770476508054966E-01 a       356     0    18     1    16
  1.2176795454409400E-01 a       357     0    18     1    17
  6.1005105907620616E-01 a       358     0    18     1    18
  2.7593787992256791E-01 a       359     0    18     1    19
 -7.0588685278123098E-01 a       360     0    18     1    20
  1.1859150290384596E-01 a       361     0    19     1     1
  8.8587464534711863E-02 a       362     0    19     1     2
  1.0060799046515867E+00 a       363     0    19     1     3
  1.6068523811934798E-02 a       364     0    19     1     4
  1.2670342577927962E-01 a       365     0    19     1     5
 -1.0981482175312046E-01 a       366     0    19     1     6
  5.1460291641520839E-01 a       367     0    19     1     7
 -1.2291553934646011E-01 a       368     0    19     1     8
 -1.6204848739041564E-01 a       369     0    19     1     9
 -1.5994883076637628E-02 a       370     0    19     1    10
  4.0180676498505112E-03 a       371     0    19     1    11
 -3.5265354671272620E-01 a       372     0    19     1    12
 -1.4084205054552185E-01 a       373     0    19     1    13
 -2.0838256507739003E-01 a       374     0    19     1    14
 -8.2470799140891449E-01 a       375     0    19     1    15
  2.5860001718193909E-01 a       376     0    19     1    16
  1.1615863349042185E-01 a       377     0    19     1    17
 -2.3324576031166611E-02 a       378     0    19     1    18
  1.9751932021075660E-01 a       379     0    19     1    19
 -1.7958348221225520E-01 a       380     0    19     1    20
 -2.3247828827078001E-01 a       381     0    20     1     1
 -1.5349141632709443E-01 a       382     0    20     1     2
  9.8946167670198903E-01 a       383     0    20     1     3
 -4.4157785954452894E-01 a       384     0    20     1     4
 -1.0477958850940178E-01 a       385     0    20     1     5
 -9.8471076965724477E-02 a       386     0    20     1     6
  8.3809599279693692E-01 a       387     0    20     1     7
 -2.3661392052082988E-01 a       388     0    20     1     8
 -3.2693487274618355E-01 a       389     0    20     1     9
  1.3795068664772320E-01 a       390     0    20     1    10
  1.5944818456725260E-01 a       391     0    20     1    11
 -3.0769588638855916E-01 a       392     0    20     1    12
 -4.1913347559157038E-01 a       393     0    20     1    13
 -2.3472360803169462E-01 a       394     0    20     1    14
 -1.1895534824028069E+00 a       395     0    20     1    15
  6.0388310432427805E-01 a       396     0    20     1    16
  1.7956921118103666E-01 a       397     0    20     1    17
 -2.6770291770427690E-01 a       398     0    20     1    18
  1.5094532511644029E-01 a       399     0    20     1    19
  6.5180789776073444E-02 a       400     0    20     1    20
 -5.2809431585112321E-01 a       401     0    21     1     1
 -5.3291302976795540E-01 a       402     0    21     1     2
  1.3274878548287330E-01 a       403     0    21     1     3
 -8.4223047520499006E-01 a       404     0    21     1     4
 -4.3757170314144678E-01 a       405     0    21     1     5
 -4.2100095080048597E-02 a       406     0    21     1     6
  6.7133946346035778E-01 a       407     0    21     1     7
 -5.1589548724999068E-01 a       408     0    21     1     8
 -5.4457864991773419E-01 a       409     0    21     1     9
 -1.6243260384589616E-02 a       410     0    21     1    10
  4.6700377449521928E-02 a       411     0    21     1    11
  1.7256113981168308E-01 a       412     0    21     1    12
 -1.0141672553195422E+00 a       413     0    21     1    13
 -2.4029916047354996E-01 a       414     0    21     1    14
 -1.4266127854783937E+00 a       415     0    21     1    15
  6.8282903218638613E-01 a       416     0    21     1    16
  1.6701738966518478E-01 a       417     0    21     1    17
 -2.5539517828736197E-01 a       418     0    21     1    18
  1.3693603904959184E-02 a       419     0    21     1    19
  4.1229484862266119E-01 a       420     0    21     1    20
 -6.3289298212138956E-01 a       421     0    22     1     1
 -4.9562291079689696E-01 a       422     0    22     1     2
 -8.7252630541058940E-01 a       423     0    22     1     3
 -1.0800858241070921E+00 a       424     0    22     1     4
 -3.4163966735397450E-01 a       425     0    22     1     5
 -3.1100114037058801E-01 a       426     0    22     1     6
  6.1818993137974421E-01 a       427     0    22     1     7
 -6.4100998791820951E-01 a       428     0    22     1     8
 -5.1588712079559795E-01 a       429     0    22     1     9
 -1.4347284756511777E-01 a       430     0    22     1    10
  1.3564172602019825E-01 a       431     0    22     1    11
  5.1680039552673085E-01 a       432     0    22     1    12
 -1.3798313798732122E+00 a       433     0    22     1    13
 -2.1997002962659029E-01 a       434     0    22     1    14
 -1.3275104964756927E+00 a       435     0    22     1    15
  4.2450197415917207E-01 a       436     0    22     1    16
 -1.7229004120975297E-01 a       437     0    22     1    17
  2.1316985450194006E-01 a       438     0    22     1    18
 -1.4438364748608742E-01 a       439     0    22     1    19
  5.1314590631924462E-01 a       440     0    22     1    20
 -2.1614001045916922E-01 a       441     0    23     1     1
  3.0057363286672867E-01 a       442     0    23     1     2
 -3.8573345959985739E-02 a       443     0    23     1     3
  1.6277115146296414E-01 a       444     0    23     1     4
  2.9796762039000925E-02 a       445     0    23     1     5
 -2.8615024104733633E-01 a       446     0    23     1     6
  7.9067743857183337E-01 a       447     0    23     1     7
 -3.7245025019640543E-01 a       448     0    23     1     8
 -1.9065379477227473E-01 a       449     0    23     1     9
 -1.7604755493259966E-01 a       450     0    23     1    10
  4.7363533396371599E-01 a       451     0    23     1    11
 -3.1117979847608040E-01 a       452     0    23     1    12
  9.5853807082710130E-02 a       453     0    23     1    13
  6.5339469438972986E-01 a       454     0    23     1    14
 -2.4132302954090248E-01 a       455     0    23     1    15
 -4.2384602770726637E-01 a       456     0    23     1    16
  3.0173752819218941E-01 a       457     0    23     1    17
 -4.4082136956363227E-01 a       458     0    23     1    18
  4.9073802005390288E-01 a       459     0    23     1    19
 -1.4505606214334973E-01 a       460     0    23     1    20
  5.3147143408763131E-01 a       461     0    24     1     1
 -2.9837200313643841E-01 a       462     0    24     1     2
  3.8425953194094797E-01 a       463     0    24     1     3
 -6.8276415182158356E-01 a       464     0    24     1     4
  5.0064711372426096E-01 a       465     0    24     1     5
 -2.4908034974852075E-01 a       466     0    24     1     6
 -2.0989624940998333E-01 a       467     0    24     1     7
  9.0714334650694639E-01 a       468     0    24     1     8
  1.1015649254829996E-01 a       469     0    24     1     9
  2.1520432662362604E-01 a       470     0    24     1    10
 -4.0976035178194653E-01 a       471     0    24     1    11
  2.2710753504574527E-01 a       472     0    24     1    12
 -1.9675986044777199E-01 a       473     0    24     1    13
 -6.3037209434944508E-01 a       474     0    24     1    14
 -2.1435296104241652E-01 a       475     0    24     1    15
 -6.6691761367951088E-02 a       476     0    24     1    16
 -7.6588652731857165E-01 a       477     0    24     1    17
  4.5064543799195855E-01 a       478     0    24     1    18
 -2.2390362098458086E-01 a       479     0    24     1    19
 -3.9834049096162316E-01 a       480     0    24     1    20
 -1.1320883094348004E+00 a       481     0    25     1     1
  1.6739450307016062E+00 a       482     0    25     1     2
  5.4888312164829998E-02 a       483     0    25     1     3
  1.6946188315100803E+00 a       484     0    25     1     4
  1.2810672792876545E+00 a       485     0    25     1     5
 -5.0081361763971000E-01 a       486     0    25     1     6
  6.4206251886776367E-01 a       487     0    25     1     7
 -2.3021321852351662E+00 a       488     0    25     1     8
 -7.7315454784680471E-01 a       489     0    25     1     9
 -1.0711693754258711E+00 a       490     0    25     1    10
  2.1299323983128935E+00 a       491     0    25     1    11
 -1.0086637176510718E+00 a       492     0    25     1    12
 -3.4253256846877571E-02 a       493     0    25     1    13
  8.4187672956623083E-01 a       494     0    25     1    14
  6.1485417017475885E-01 a       495     0    25     1    15
 -5.8659318826074158E-01 a       496     0    25     1    16
  4.2581670723467013E-01 a       497     0    25     1    17
 -6.7986173576244180E-01 a       498     0    25     1    18
  2.3070367096317139E+00 a       499     0    25     1    19
  8.7662716714794531E-01 a       500     0    25     1    20
 -2.8050646859228895E-01 a       501     0    26     1     1
  1.1312859402182691E+00 a       502     0    26     1     2
  3.3552994078315196E-01 a       503     0    26     1     3
  1.5174842756508993E+00 a       504     0    26     1     4
  1.0002613754934633E+00 a       505     0    26     1     5
 -2.0862606945458959E-01 a       506     0    26     1     6
 -9.4810472014624850E-02 a       507     0    26     1     7
 -2.0081757349489129E+00 a       508     0    26     1     8
 -3.8805800146882524E-01 a       509     0    26     1     9
 -1.1544754799748027E+00 a       510     0    26     1    10
  1.8641226627869543E+00 a       511     0    26     1    11
 -1.0559972181014399E+00 a       512     0    26     1    12
 -4.8226215363459429E-01 a       513     0    26     1    13
  3.3452532923344347E-01 a       514     0    26     1    14
  7.4457277131505784E-01 a       515     0    26     1    15
 -3.8736498355816842E-02 a       516     0    26     1    16
  9.5953308116009095E-01 a       517     0    26     1    17
 -1.6082316638333485E-01 a       518     0    26     1    18
  1.3067492453745004E+00 a       519     0    26     1    19
  1.0495869022072857E+00 a       520     0    26     1    20
  1.9350961639773581E-01 a       521     0    27     1     1
  9.6655517051703416E-02 a       522     0    27     1     2
 -1.8215623776949016E-01 a       523     0    27     1     3
  3.1731591503989598E-01 a       524     0    27     1     4
 -4.6993261349127580E-01 a       525     0    27     1     5
 -1.9054545296860234E-01 a       526     0    27     1     6
  8.2305723491990390E-02 a       527     0    27     1     7
 -7.4685931991629234E-02 a       528     0    27     1     8
  2.0031613545880028E-01 a       529     0    27     1     9
 -1.5479137126749692E-01 a       530     0    27     1    10
  9.9135786252117136E-02 a       531     0    27     1    11
  1.3671557337122395E-01 a       532     0    27     1    12
  5.6359188772257707E-02 a       533     0    27     1    13
  2.6532381882604733E-01 a       534     0    27     1    14
 -1.4089888638063017E-01 a       535     0    27     1    15
 -1.1070239584369795E-02 a       536     0    27     1    16
  3.4728102930356169E-01 a       537     0    27     1    17
  1.8757064765658671E-01 a       538     0    27     1    18
 -2.1652077005346351E-01 a       539     0    27     1    19
 -6.2046540788069338E-01 a       540     0    27     1    20
  3.5271810033576256E-01 a       541     0    28     1     1
  5.5605862862580901E-02 a       542     0    28     1     2
  3.9659259933967456E-01 a       543     0    28     1     3
  1.3042375011482174E-01 a       544     0    28     1     4
  4.0424927479574746E-01 a       545     0    28     1     5
 -3.3231035955743593E-01 a       546     0    28     1     6
 -5.6163590891508008E-01 a       547     0    28     1     7
 -3.5610592742773450E-01 a       548     0    28     1     8
 -3.1607920250024168E-01 a       549     0    28     1     9
 -5.3969527615294255E-01 a       550     0    28     1    10
 -3.7039168480089757E-01 a       551     0    28     1    11
 -2.4249999009194328E-01 a       552     0    28     1    12
 -1.9131655345458881E-01 a       553     0    28     1    13
 -1.1225786753230396E-01 a       554     0    28     1    14
 -8.1573779578061401E-01 a       555     0    28     1    15
 -8.2630518644893597E-02 a       556     0    28     1    16
 -2.5339126856173116E-01 a       557     0    28     1    17
  4.8023820281788787E-01 a       558     0    28     1    18
  2.5952215747499698E-02 a       559     0    28     1    19
 -3.2984067266441058E-01 a       560     0    28     1    20
 -1.9065728693057320E+00 a       561     0    29     1     1
 -6.3808864722679381E-01 a       562     0    29     1     2
  1.0734226699537359E+00 a       563     0    29     1     3
 -8.2494736364720256E-01 a       564     0    29     1     4
 -7.7464898011360761E-01 a       565     0    29     1     5
  1.5558167681647253E+00 a       566     0    29     1     6
  1.8883116418097701E-01 a       567     0    29     1     7
  9.0772597362184904E-01 a       568     0    29     1     8
  7.2317618089600844E-01 a       569     0    29     1     9
  7.2119361694563844E-01 a       570     0    29     1    10
  3.4703655643723521E+00 a       571     0    29     1    11
  1.9331923905649346E+00 a       572     0    29     1    12
 -1.1919528639549541E+00 a       573     0    29     1    13
  1.3764441013214372E+00 a       574     0    29     1    14
  1.1553199098776770E+00 a       575     0    29     1    15
  1.2418235280068564E+00 a       576     0    29     1    16
  1.4839161681326840E-01 a       577     0    29     1    17
 -5.6441549542279901E-01 a       578     0    29     1    18
 -3.5506967925897465E-01 a       579     0    29     1    19
  1.1025431334320717E+00 a       580     0    29     1    20
 -4.9530580264095278E-02 a       581     0    30     1     1
  6.3477184226528971E-01 a       582     0    30     1     2
 -7.1128556902742068E-01 a       583     0    30     1     3
  5.6474117112380573E-01 a       584     0    30     1     4
  1.0763999799700072E-02 a       585     0    30     1     5
  4.2262325362118575E-02 a       586     0    30     1     6
 -1.7178849855759759E+00 a       587     0    30     1     7
 -4.0463559193955040E-01 a       588     0    30     1     8
 -3.0631396454854420E-01 a       589     0    30     1     9
  2.2618297048806371E-01 a       590     0    30     1    10
 -6.1241202845725795E-01 a       591     0    30     1    11
 -1.2530205396338678E+00 a       592     0    30     1    12
  1.1184007072493505E+00 a       593     0    30     1    13
 -4.2304485205625753E-01 a       594     0    30     1    14
 -5.3111444748663728E-01 a       595     0    30     1    15
 -1.4701068628893288E+00 a       596     0    30     1    16
 -8.5088627847016518E-01 a       597     0    30     1    17
  2.8161772871986612E-01 a       598     0    30     1    18
  8.8759718312367203E-02 a       599     0    30     1    19
  6.4344615734033106E-01 a       600     0    30     1    20
  8.1678636955042194E-01 a       601     0    31     1     1
 -3.1066876849803915E-01 a       602     0    31     1     2
 -4.5549521972748103E-01 a       603     0    31     1     3
  1.9375868817981606E-01 a       604     0    31     1     4
  4.1088234540723051E-01 a       605     0    31     1     5
  3.7173816440915525E-01 a       606     0    31     1     6
 -2.5855077288968975E-01 a       607     0    31     1     7
 -5.7278962537542333E-01 a       608     0    31     1     8
 -1.2777552086495128E+00 a       609     0    31     1     9
  2.0505891233468557E-01 a       610     0    31     1    10
  1.2432022300712044E-01 a       611     0    31     1    11
 -7.8985737566959457E-01 a       612     0    31     1    12
  7.8765126186203549E-01 a       613     0    31     1    13
 -7.9690904314505573E-01 a       614     0    31     1    14
 -1.4639955114904118E-01 a       615     0    31     1    15
 -1.1728743695610229E+00 a       616     0    31     1    16
 -4.9525583447092619E-01 a       617     0    31     1    17
  1.1650359162449159E-01 a       618     0    31     1    18
 -3.3184300836828423E-01 a       619     0    31     1    19
  3.9776057144571170E-01 a       620     0    31     1    20
  1.0046872957884603E+00 a       621     0    32     1     1
 -8.9175646342711112E-01 a       622     0    32     1     2
 -5.6609184662363132E-01 a       623     0    32     1     3
  3.8214437599406531E-01 a       624     0    32     1     4
  3.9803374625128046E-01 a       625     0    32     1     5
 -1.1446801950359289E-01 a       626     0    32     1     6
  6.4573443762867311E-01 a       627     0    32     1     7
 -6.8416981208006389E-01 a       628     0    32     1     8
 -1.6791386309678755E+00 a       629     0    32     1     9
 -9.1867085928864320E-02 a       630     0    32     1    10
 -4.2207025395900438E-01 a       631     0    32     1    11
  4.0190805676292013E-01 a       632     0    32     1    12
  4.6192399422756864E-01 a       633     0    32     1    13
  1.0023902692753042E-01 a       634     0    32     1    14
 -8.4306671454810314E-02 a       635     0    32     1    15
 -8.3153284084525714E-01 a       636     0    32     1    16
  8.1392093892186679E-01 a       637     0    32     1    17
  7.7427479383505915E-01 a       638     0    32     1    18
 -2.1380380236098406E-01 a       639     0    32     1    19
 -1.5328038265524677E-01 a       640     0    32     1    20
  3.4113504205101197E-01 a       641     0    33     1     1
 -5.0332676704508184E-01 a       642     0    33     1     2
 -1.1914255543082480E-01 a       643     0    33     1     3
  4.1894651638303038E-01 a       644     0    33     1     4
 -1.8882750862731124E-01 a       645     0    33     1     5
  2.4267780103919917E-01 a       646     0    33     1     6
  4.0946555808009327E-01 a       647     0    33     1     7
 -3.1392223394967905E-01 a       648     0    33     1     8
 -9.7840868127211167E-01 a       649     0    33     1     9
  1.9221978483602986E-01 a       650     0    33     1    10
 -2.7757462982412207E-01 a       651     0    33     1    11
  2.4428141552105195E-01 a       652     0    33     1    12
  6.3713976345845946E-01 a       653     0    33     1    13
 -1.8220068250162319E-01 a       654     0    33     1    14
 -3.9882617362272754E-01 a       655     0    33     1    15
 -5.7446668271823409E-01 a       656     0    33     1    16
  6.6620988564722661E-01 a       657     0    33     1    17
  7.2538101472870842E-01 a       658     0    33     1    18
 -3.8254168966735508E-01 a       659     0    33     1    19
 -3.8326507032542985E-02 a       660     0    33     1    20
  4.2346122341323976E-02 a       661     0    34     1     1
 -3.5713835166398855E-01 a       662     0    34     1     2
 -1.1959770131365352E-01 a       663     0    34     1     3
  1.6964214585455323E-01 a       664     0    34     1     4
  2.2537666634472760E-02 a       665     0    34     1     5
  3.8750712712343161E-01 a       666     0    34     1     6
 -3.9015624634546620E-01 a       667     0    34     1     7
 -3.9526154270034553E-01 a       668     0    34     1     8
 -3.4920379088542941E-01 a       669     0    34     1     9
  3.4762929421286608E-02 a       670     0    34     1    10
 -4.1398395346679745E-01 a       671     0    34     1    11
 -1.8046887198251968E-01 a       672     0    34     1    12
  7.7783086425077336E-02 a       673     0    34     1    13
 -2.7079528535496394E-01 a       674     0    34     1    14
 -5.7877232394941236E-01 a       675     0    34     1    15
 -4.8091015223290573E-01 a       676     0    34     1    16
 -2.3523918126044771E-01 a       677     0    34     1    17
  8.6735442997524292E-01 a       678     0    34     1    18
 -3.8536904384690457E-01 a       679     0    34     1    19
  1.2302490501248714E-01 a       680     0    34     1    20
 -2.8419648520729193E+00 a       681     0    35     1     1
 -7.3183823996689290E-01 a       682     0    35     1     2
 -2.1056258461218631E+00 a       683     0    35     1     3
  3.6475460371409979E-01 a       684     0    35     1     4
 -1.5303224729607945E+00 a       685     0    35     1     5
 -1.1049697986480518E+00 a       686     0    35     1     6
  1.4422524179279550E+00 a       687     0    35     1     7
 -4.5250294077939202E-01 a       688     0    35     1     8
 -1.8282832425404376E+00 a       689     0    35     1     9
 -2.2176562821107999E+00 a       690     0    35     1    10
 -2.3884042265727512E+00 a       691     0    35     1    11
  2.7254027019286138E+00 a       692     0    35     1    12
 -9.7207055408247648E-03 a       693     0    35     1    13
 -1.3349844635637693E+00 a       694     0    35     1    14
 -1.4239399956521945E+00 a       695     0    35     1    15
  8.4087484430616632E-01 a       696     0    35     1    16
  1.0624059935180963E+00 a       697     0    35     1    17
  2.9855194058358396E-02 a       698     0    35     1    18
 -2.0773560807324012E+00 a       699     0    35     1    19
  2.9656572824572658E-01 a       700     0    35     1    20
  3.4041359208651623E-01 a       701     0    36     1     1
 -7.7296671980157161E-02 a       702     0    36     1     2
  4.6500491923022452E-01 a       703     0    36     1     3
  1.5863168068054547E+00 a       704     0    36     1     4
  1.0464975059107942E-01 a       705     0    36     1     5
 -7.0882333390824614E-01 a       706     0    36     1     6
 -6.8335971898950831E-01 a       707     0    36     1     7
 -2.2741910703806242E-01 a       708     0    36     1     8
  2.0653117204774626E-02 a       709     0    36     1     9
 -5.0232134314607157E-01 a       710     0    36     1    10
 -1.7124182941275887E+00 a       711     0    36     1    11
 -4.8404293599227481E-02 a       712     0    36     1    12
  3.1703283410379347E-02 a       713     0    36     1    13
 -6.5552983597967655E-03 a       714     0    36     1    14
 -1.1973603471768197E+00 a       715     0    36     1    15
  9.1048100084476641E-02 a       716     0    36     1    16
 -3.0083512980707394E-01 a       717     0    36     1    17
  1.1197839938818293E+00 a       718     0    36     1    18
  5.4764344027056111E-01 a       719     0    36     1    19
 -3.2615022570230084E-01 a       720     0    36     1    20
 -1.4706782037346514E-01 a       721     0    37     1     1
 -2.4333308670927722E-01 a       722     0    37     1     2
  1.9447575936697055E-02 a       723     0    37     1     3
 -1.0181362373942069E+00 a       724     0    37     1     4
 -5.0026755358540016E-02 a       725     0    37     1     5
  7.8637890105318820E-01 a       726     0    37     1     6
  1.3425958440737231E+00 a       727     0    37     1     7
  3.7566280154094717E-01 a       728     0    37     1     8
 -1.4354747348093122E-04 a       729     0    37     1     9
  4.2298131887760548E-01 a       730     0    37     1    10
  1.9363884748415088E+00 a       731     0    37     1    11
  8.0415671667712463E-01 a       732     0    37     1    12
 -4.1740338810652916E-01 a       733     0    37     1    13
  2.9669159862196659E-01 a       734     0    37     1    14
  1.2238909789032939E+00 a       735     0    37     1    15
  6.6576182986585131E-01 a       736     0    37     1    16
  7.9940503672856722E-01 a       737     0    37     1    17
 -1.1197036322068479E+00 a       738     0    37     1    18
 -5.5938555014513092E-01 a       739     0    37     1    19
 -2.2912786881110891E-01 a       740     0    37     1    20
  2.0024958596077438E+00 a       741     0    38     1     1
  9.9416676315521568E-01 a       742     0    38     1     2
 -1.5960814058887389E+00 a       743     0    38     1     3
  1.5347010034489956E+00 a       744     0    38     1     4
 -1.5543416782441177E-01 a       745     0    38     1     5
 -1.8179611280852943E+00 a       746     0    38     1     6
 -1.2228914128957369E+00 a       747     0    38     1     7
 -1.6954877272863103E+00 a       748     0    38     1     8
 -7.2021064703172333E-01 a       749     0    38     1     9
 -7.2792995927766735E-01 a       750     0    38     1    10
 -5.2301207074520040E+00 a       751     0    38     1    11
 -2.8245391064476033E+00 a       752     0    38     1    12
  2.0211496247594583E+00 a       753     0    38     1    13
 -1.7725138079928446E+00 a       754     0    38     1    14
 -1.8544734945285544E+00 a       755     0    38     1    15
 -1.9719017567484491E+00 a       756     0    38     1    16
 -1.7148358683323527E-05 a       757     0    38     1    17
  1.1390490677793621E+00 a       758     0    38     1    18
  2.8914774765818474E-01 a       759     0    38     1    19
 -6.5198270383252199E-01 a       760     0    38     1    20
  3.0168441538922841E-01 a       761     0    39     1     1
 -4.2268888090494128E-01 a       762     0    39     1     2
  3.3690486673213338E-01 a       763     0    39     1     3
 -5.0627859557293775E-01 a       764     0    39     1     4
  8.8334387502763567E-01 a       765     0    39     1     5
 -5.5966893839433118E-01 a       766     0    39     1     6
  1.9139919978636996E-01 a       767     0    39     1     7
  7.5737427718682782E-01 a       768     0    39     1     8
  1.8286609224182505E-02 a       769     0    39     1     9
 -6.3650914126384339E-01 a       770     0    39     1    10
  6.2476681876661344E-01 a       771     0    39     1    11
  8.6915011492489325E-01 a       772     0    39     1    12
 -8.7735422297502996E-01 a       773     0    39     1    13
  7.4581011140329578E-01 a       774     0    39     1    14
  2.8066108345479013E-01 a       775     0    39     1    15
  5.3129207514792887E-01 a       776     0    39     1    16
 -1.0163901187470990E-01 a       777     0    39     1    17
 -1.6477229002689972E-01 a       778     0    39     1    18
  2.3508505970553187E-01 a       779     0    39     1    19
 -7.5119831083576782E-01 a       780     0    39     1    20
 -4.9973862084064585E-01 a       781     0    40     1     1
 -5.7205194938938575E-01 a       782     0    40     1     2
  6.5847869823353011E-01 a       783     0    40     1     3
 -8.2226651978722065E-01 a       784     0    40     1     4
 -1.0565419223236502E-01 a       785     0    40     1     5
  3.4860283068404063E-01 a       786     0    40     1     6
  1.8383669258689519E+00 a       787     0    40     1     7
  5.6555814885801869E-01 a       788     0    40     1     8
  5.7593546401680906E-01 a       789     0    40     1     9
  4.0396347919362130E-01 a       790     0    40     1    10
 -5.1502782221404220E-01 a       791     0    40     1    11
  7.2949200871051534E-01 a       792     0    40     1    12
 -5.9031910626276018E-01 a       793     0    40     1    13
  5.4052070803355401E-01 a       794     0    40     1    14
  5.3797952468813581E-01 a       795     0    40     1    15
  1.2551196437091825E+00 a       796     0    40     1    16
  3.4859859872354454E-01 a       797     0    40     1    17
 -4.1183128144487696E-01 a       798     0    40     1    18
  2.3330805769479684E-01 a       799     0    40     1    19
 -2.3714398959175287E-01 a       800     0    40     1    20
 -1.1766530848635579E+00 a       801     0    41     1     1
  2.9619035975570829E-01 a       802     0    41     1     2
  6.3845907868992913E-01 a       803     0    41     1     3
  4.8234136213799378E-01 a       804     0    41     1     4
 -7.6677573073916838E-01 a       805     0    41     1     5
  1.9070651218139711E-01 a       806     0    41     1     6
 -4.2486150449093490E-01 a       807     0    41     1     7
  5.6242899613001673E-01 a       808     0    41     1     8
  1.1831764573996073E+00 a       809     0    41     1     9
 -1.9653442178632008E-01 a       810     0    41     1    10
 -7.6667018690054689E-01 a       811     0    41     1    11
  2.4428560330145685E-01 a       812     0    41     1    12
 -5.0596614620849678E-01 a       813     0    41     1    13
  9.3933522299615613E-01 a       814     0    41     1    14
 -4.5747115644978165E-01 a       815     0    41     1    15
  1.0951730079955158E+00 a       816     0    41     1    16
 -3.3692038896890070E-01 a       817     0    41     1    17
 -7.2557177344139923E-01 a       818     0    41     1    18
  2.2022216779640735E-01 a       819     0    41     1    19
 -2.2630812019862451E-01 a       820     0    41     1    20
 -8.2268194961329666E-01 a       821     0    42     1     1
  9.1494044412657194E-01 a       822     0    42     1     2
  7.3346032283250695E-01 a       823     0    42     1     3
 -1.6288809852101480E-01 a       824     0    42     1     4
  3.4487024029772678E-01 a       825     0    42     1     5
  4.6096708553001194E-02 a       826     0    42     1     6
 -6.2391312592261627E-01 a       827     0    42     1     7
  3.3801536135666310E-01 a       828     0    42     1     8
  1.2944108958955562E+00 a       829     0    42     1     9
  3.8479190343703257E-01 a       830     0    42     1    10
 -8.6484763239073198E-02 a       831     0    42     1    11
 -6.4550298179225729E-01 a       832     0    42     1    12
 -4.8267528782937419E-01 a       833     0    42     1    13
  3.3321724681367065E-01 a       834     0    42     1    14
 -3.0535156570214117E-01 a       835     0    42     1    15
  7.6545833408373243E-01 a       836     0    42     1    16
 -1.4627941609282396E+00 a       837     0    42     1    17
 -2.8508849308109652E-01 a       838     0    42     1    18
  4.6292902676090836E-01 a       839     0    42     1    19
  3.6512271113660533E-01 a       840     0    42     1    20
  8.7022125570743092E-01 a       841     0    43     1     1
 -1.8822275018454717E+00 a       842     0    43     1     2
  1.8312993540565420E-01 a       843     0    43     1     3
 -1.5220079096611365E+00 a       844     0    43     1     4
 -8.5011773338447638E-01 a       845     0    43     1     5
  1.1724390903637977E-01 a       846     0    43     1     6
 -1.9149886082979928E-01 a       847     0    43     1     7
  2.9492229153357541E+00 a       848     0    43     1     8
  5.7106906910272337E-01 a       849     0    43     1     9
  1.4541248936740319E+00 a       850     0    43     1    10
 -1.8756753965670612E+00 a       851     0    43     1    11
  1.4807392476435139E+00 a       852     0    43     1    12
 -2.0615447585058896E-02 a       853     0    43     1    13
 -9.1795088224047927E-01 a       854     0    43     1    14
 -1.0223792060796135E+00 a       855     0    43     1    15
  6.1762860812950593E-01 a       856     0    43     1    16
 -9.6608464423156493E-01 a       857     0    43     1    17
  6.4714844919101178E-01 a       858     0    43     1    18
 -1.9295756188053366E+00 a       859     0    43     1    19
 -1.1600430945318818E+00 a       860     0    43     1    20
 -2.7055591999544104E-03 a       861     0    44     1     1
  4.8015504220720900E-01 a       862     0    44     1     2
  5.8625503106830412E-01 a       863     0    44     1     3
 -2.0008728892829231E-01 a       864     0    44     1     4
  5.1393024829053646E-01 a       865     0    44     1     5
 -3.7224438948453664E-01 a       866     0    44     1     6
 -2.6006510860093830E-02 a       867     0    44     1     7
  8.5135583886235183E-02 a       868     0    44     1     8
  4.3634995758740569E-01 a       869     0    44     1     9
  1.1670353293526069E-01 a       870     0    44     1    10
 -1.2746458280242234E-01 a       871     0    44     1    11
 -2.0492635981271409E-01 a       872     0    44     1    12
 -2.3729418071018429E-01 a       873     0    44     1    13
  3.4798866627424485E-01 a       874     0    44     1    14
 -5.6641651106341111E-02 a       875     0    44     1    15
  3.5471906708923701E-01 a       876     0    44     1    16
 -3.1602620288587702E-01 a       877     0    44     1    17
 -3.5417191558236966E-01 a       878     0    44     1    18
  8.1951600784019785E-01 a       879     0    44     1    19
 -1.5798044401925350E-03 a       880     0    44     1    20
 -2.3748012248606704E-01 a       881     0    45     1     1
 -5.4106112240918124E-02 a       882     0    45     1     2
  4.6822795725116489E-01 a       883     0    45     1     3
 -1.9241829597785914E-01 a       884     0    45     1     4
 -1.0194698988852541E-01 a       885     0    45     1     5
  1.8678927459405445E-01 a       886     0    45     1     6
  8.9872173681732470E-01 a       887     0    45     1     7
  2.7463058980025873E-01 a       888     0    45     1     8
  2.1263924364026268E-01 a       889     0    45     1     9
  7.9806834225675305E-01 a       890     0    45     1    10
  3.3067721714029541E-01 a       891     0    45     1    11
 -3.1958858560635219E-02 a       892     0    45     1    12
  1.1314442489207552E-01 a       893     0    45     1    13
  1.4357470337895920E-01 a       894     0    45     1    14
  3.2604763220483363E-01 a       895     0    45     1    15
  2.6089550619112934E-02 a       896     0    45     1    16
  3.8255272286791858E-01 a       897     0    45     1    17
 -6.2742372198052898E-01 a       898     0    45     1    18
  6.1058474342405444E-01 a       899     0    45     1    19
  3.7238142289574716E-01 a       900     0    45     1    20
 -3.5102770676240413E-01 a       901     0    46     1     1
  3.4553231247852439E-01 a       902     0    46     1     2
 -1.8295240192259223E-02 a       903     0    46     1     3
  1.2122569315013626E-01 a       904     0    46     1     4
 -5.4753716137915376E-01 a       905     0    46     1     5
 -5.7167756000702130E-01 a       906     0    46     1     6
  5.7090613343862473E-01 a       907     0    46     1     7
  5.0035940033879489E-01 a       908     0    46     1     8
 -1.2046457609705488E+00 a       909     0    46     1     9
  1.1428395267739025E-01 a       910     0    46     1    10
  5.3898725480387422E-01 a       911     0    46     1    11
  7.0098663257951876E-01 a       912     0    46     1    12
 -2.4964486739050822E-02 a       913     0    46     1    13
 -6.6936008600983310E-01 a       914     0    46     1    14
 -1.1090948554525077E+00 a       915     0    46     1    15
 -2.0882670430090208E-01 a       916     0    46     1    16
 -9.7001254839668127E-01 a       917     0    46     1    17
 -1.3002223605230625E+00 a       918     0    46     1    18
  9.3596237783033762E-02 a       919     0    46     1    19
 -1.0369433536521244E-01 a       920     0    46     1    20
 -1.0039385777641878E-01 a       921     0    47     1     1
 -2.2793331716446593E-02 a       922     0    47     1     2
  4.7545243332655279E-01 a       923     0    47     1     3
 -5.5620503716591720E-03 a       924     0    47     1     4
  7.1809152349593883E-02 a       925     0    47     1     5
  2.8288369206891090E-01 a       926     0    47     1     6
  2.8071123626897537E-01 a       927     0    47     1     7
  1.5038404942573086E-01 a       928     0    47     1     8
  1.7687344124973467E-01 a       929     0    47     1     9
  4.6174758189905185E-01 a       930     0    47     1    10
  1.4820767316395284E-01 a       931     0    47     1    11
 -8.6408783937671749E-02 a       932     0    47     1    12
  2.2844600930341050E-02 a       933     0    47     1    13
 -3.5898222301047604E-02 a       934     0    47     1    14
 -4.3809758944483058E-02 a       935     0    47     1    15
 -1.2404919919739615E-01 a       936     0    47     1    16
  1.1703823186190625E-01 a       937     0    47     1    17
  8.6846942881435449E-02 a       938     0    47     1    18
  3.4977919053026324E-01 a       939     0    47     1    19
  3.0449404956084092E-01 a       940     0    47     1    20
 -2.3238399505720837E+00 a       941     0    48     1     1
 -1.0502563897489070E+00 a       942     0    48     1     2
 -5.4083620324489112E-01 a       943     0    48     1     3
 -8.1631010551556027E-01 a       944     0    48     1     4
  4.7716600643484869E-01 a       945     0    48     1     5
 -6.8461680072199615E-01 a       946     0    48     1     6
  7.4848037029013947E-01 a       947     0    48     1     7
  1.2137517892582095E-01 a       948     0    48     1     8
 -2.1267102959351511E-01 a       949     0    48     1     9
  6.3250126002886778E-02 a       950     0    48     1    10
 -4.7257558803984545E-01 a       951     0    48     1    11
  2.5915745456307665E-01 a       952     0    48     1    12
 -3.7508423513487710E-01 a       953     0    48     1    13
 -8.6338065832204136E-01 a       954     0    48     1    14
 -1.9649432112077841E-01 a       955     0    48     1    15
  7.7755395326759180E-01 a       956     0    48     1    16
 -3.6048672744690080E-01 a       957     0    48     1    17
 -8.3784136038543164E-02 a       958     0    48     1    18
 -4.7434904909072005E-02 a       959     0    48     1    19
  1.1680551440242417E+00 a       960     0    48     1    20
  7.5478776223146393E-01 a       961     0    49     1     1
  2.1622510450290400E-01 a       962     0    49     1     2
  1.4698141059238889E+00 a       963     0    49     1     3
 -2.8583025397333023E-01 a       964     0    49     1     4
  1.4557684030474323E+00 a       965     0    49     1     5
  4.3612707440164371E-02 a       966     0    49     1     6
 -5.6090897147346462E-02 a       967     0    49     1     7
  4.1255770872158004E-01 a       968     0    49     1     8
  1.7021824146170530E+00 a       969     0    49     1     9
  1.6531880097474987E+00 a       970     0    49     1    10
  1.6452486188086912E+00 a       971     0    49     1    11
 -1.5674133334354512E+00 a       972     0    49     1    12
 -5.1648092258340395E-01 a       973     0    49     1    13
  4.3709476181157597E-01 a       974     0    49     1    14
  8.2770379431070296E-01 a       975     0    49     1    15
  4.5662042661641927E-01 a       976     0    49     1    16
 -5.6613397266620213E-01 a       977     0    49     1    17
  1.4954972423635463E-01 a       978     0    49     1    18
  1.4512414090128758E+00 a       979     0    49     1    19
  3.4645347705416835E-01 a       980     0    49     1    20
  2.8220198142256128E+00 a       981     0    50     1     1
 -1.1465604327184766E+00 a       982     0    50     1     2
 -3.5899780223679048E+00 a       983     0    50     1     3
  5.4673098525501613E+00 a       984     0    50     1     4
 -4.8664946152663671E+00 a       985     0    50     1     5
  1.7949437740994132E+00 a       986     0    50     1     6
  3.5878790481544347E+00 a       987     0    50     1     7
  4.2262392205851524E+00 a       988     0    50     1     8
 -9.8248799354159519E+00 a       989     0    50     1     9
 -1.1270038786618897E+00 a       990     0    50     1    10
  2.5653396449731871E+00 a       991     0    50     1    11
 -3.8326702218293089E+00 a       992     0    50     1    12
 -6.6736491966204028E+00 a       993     0    50     1    13
  1.9782780954385764E+00 a       994     0    50     1    14
  8.8114106985349760E-01 a       995     0    50     1    15
 -3.2084206044767307E+00 a       996     0    50     1    16
  3.0599375433428042E+00 a       997     0    50     1    17
 -5.8333400700467752E+00 a       998     0    50     1    18
  2.6362942606116421E-02 a       999     0    50     1    19
  6.7262410820678777E+00 a      1000     0    50     1    20
  1.9700962979635210E+00 a      1001     0    51     1     1
  7.1541262616522105E-02 a      1002     0    51     1     2
  2.7701242335930565E+00 a      1003     0    51     1     3
 -4.8388129103538864E+00 a      1004     0    51     1     4
  4.5076271649057151E+00 a      1005     0    51     1     5
 -5.0980437219416785E+00 a      1006     0    51     1     6
 -1.5005588826833505E+00 a      1007     0    51     1     7
 -4.7130371523427090E+00 a      1008     0    51     1     8
  1.0950154926309382E+01 a      1009     0    51     1     9
 -1.0172259693686709E+00 a      1010     0    51     1    10
 -3.0640307427645879E+00 a      1011     0    51     1    11
  1.0164715857475313E+01 a      1012     0    51     1    12
  4.4193858273129196E+00 a      1013     0    51     1    13
 -4.6380294686555485E+00 a      1014     0    51     1    14
 -2.7984743805368684E+00 a      1015     0    51     1    15
 -7.7868358253377967E-01 a      1016     0    51     1    16
 -3.5320302449213692E+00 a      1017     0    51     1    17
 -2.2309116600894026E+00 a      1018     0    51     1    18
 -2.4663858593602401E+00 a      1019     0    51     1    19
 -2.2048730880574587E+00 a      1020     0    51     1    20
 -4.4804126532260122E+00 a      1021     0    52     1     1
  1.1285999595215295E+00 a      1022     0    52     1     2
 -4.9500159859616248E+00 a      1023     0    52     1     3
  2.4112141919329870E+00 a      1024     0    52     1     4
 -3.8500741556844944E+00 a      1025     0    52     1     5
  2.9541577204570513E+00 a      1026     0    52     1     6
 -2.2342907975054813E+00 a      1027     0    52     1     7
  1.9525405056813019E+00 a      1028     0    52     1     8
 -8.9632186849837474E+00 a      1029     0    52     1     9
  2.4865695186425172E+00 a      1030     0    52     1    10
  1.1563179182258410E+00 a      1031     0    52     1    11
 -8.8261082811547578E+00 a      1032     0    52     1    12
  6.3253060174832543E-01 a      1033     0    52     1    13
  4.2633772644636965E+00 a      1034     0    52     1    14
  3.2981182927959130E+00 a      1035     0    52     1    15
  4.6297428950334725E+00 a      1036     0    52     1    16
  2.2999473535367909E+00 a      1037     0    52     1    17
  8.8138777893793190E+00 a      1038     0    52     1    18
  1.7187626381082566E+00 a      1039     0    52     1    19
 -4.1960289488091309E+00 a      1040     0    52     1    20
 -2.7076075760156622E+00 a      1041     0    53     1     1
 -2.8244945146222351E+00 a      1042     0    53     1     2
 -6.1134112969248742E+00 a      1043     0    53     1     3
 -5.5357767922236985E+00 a      1044     0    53     1     4
  6.6254492819028687E+00 a      1045     0    53     1     5
 -1.4938777167532322E+00 a      1046     0    53     1     6
 -1.0769943673039579E+00 a      1047     0    53     1     7
 -4.8997402703641040E+00 a      1048     0    53     1     8
  7.9278387334754896E-01 a      1049     0    53     1     9
  1.1875527475677405E+00 a      1050     0    53     1    10
 -2.3231915628501372E+00 a      1051     0    53     1    11
 -1.9542074465487980E+00 a      1052     0    53     1    12
 -3.7276976014863505E-01 a      1053     0    53     1    13
 -4.3013925717055974E+00 a      1054     0    53     1    14
 -8.4026683288156878E+00 a      1055     0    53     1    15
  1.5250302648993972E+00 a      1056     0    53     1    16
 -1.2144996797235862E-02 a      1057     0    53     1    17
  1.4746591312149637E+00 a      1058     0    53     1    18
 -3.1835447543930435E+00 a      1059     0    53     1    19
 -2.6336347889384717E+00 a      1060     0    53     1    20
 -2.1443856160533606E-01 a      1061     0    54     1     1
  2.0635667282439782E+00 a      1062     0    54     1     2
 -2.1253781415481110E+00 a      1063     0    54     1     3
 -9.0245435821562459E-01 a      1064     0    54     1     4
 -5.3751540727927027E-01 a      1065     0    54     1     5
 -6.1418897069868228E+00 a      1066     0    54     1     6
  1.0932981575855230E+00 a      1067     0    54     1     7
 -3.1119497132656448E-01 a      1068     0    54     1     8
 -5.3207066373302314E-01 a      1069     0    54     1     9
  5.5729179790083549E-01 a      1070     0    54     1    10
  3.3047040502238906E-01 a      1071     0    54     1    11
  2.3814932525102313E+00 a      1072     0    54     1    12
  2.3478912156596756E+00 a      1073     0    54     1    13
  9.4124049311380042E-01 a      1074     0    54     1    14
 -1.9403561577399853E+00 a      1075     0    54     1    15
  2.9826597385649287E+00 a      1076     0    54     1    16
 -1.0325497387132575E-01 a      1077     0    54     1    17
 -9.3281156644445762E-01 a      1078     0    54     1    18
 -3.1445723715118197E+00 a      1079     0    54     1    19
 -2.1714672364989040E-02 a      1080     0    54     1    20
 -1.9005093655864708E-01 a      1081     0    55     1     1
 -2.2097510741647741E-01 a      1082     0    55     1     2
 -1.2139321800513624E-01 a      1083     0    55     1     3
 -4.4640755187698178E-01 a      1084     0    55     1     4
  3.5135069441296554E+00 a      1085     0    55     1     5
  1.3531933848410926E+00 a      1086     0    55     1     6
 -1.7802588510391439E+00 a      1087     0    55     1     7
 -1.1105598030382982E+00 a      1088     0    55     1     8
 -2.0405040271785224E-01 a      1089     0    55     1     9
  3.5487688426496153E+00 a      1090     0    55     1    10
  1.2070177007956762E+00 a      1091     0    55     1    11
 -2.1987672401948752E+00 a      1092     0    55     1    12
  2.9725965020689817E+00 a      1093     0    55     1    13
 -6.8272318435181334E-01 a      1094     0    55     1    14
 -3.7101529841185465E-01 a      1095     0    55     1    15
  4.6048596824220116E+00 a      1096     0    55     1    16
 -3.2841590041045032E+00 a      1097     0    55     1    17
  2.7125643348589499E+00 a      1098     0    55     1    18
  2.4130871544676062E+00 a      1099     0    55     1    19
 -4.0388016618650644E+00 a      1100     0    55     1    20
  6.7811927483045711E+00 a      1101     0    56     1     1
  1.4780639875002488E+00 a      1102     0    56     1     2
 -5.1556044626715725E+00 a      1103     0    56     1     3
  3.5391372319939673E+00 a      1104     0    56     1     4
 -1.0612711992544254E+01 a      1105     0    56     1     5
 -9.2946819167772166E-01 a      1106     0    56     1     6
  2.3181391957231789E+00 a      1107     0    56     1     7
  1.0684895397200354E+01 a      1108     0    56     1     8
 -6.2170872777703012E+00 a      1109     0    56     1     9
 -5.7937778154098840E+00 a      1110     0    56     1    10
  6.5216810677400279E+00 a      1111     0    56     1    11
 -3.0614465359299867E+00 a      1112     0    56     1    12
  3.3419647435991258E+00 a      1113     0    56     1    13
  2.7934426234092173E+00 a      1114     0    56     1    14
  1.2981201075983280E+00 a      1115     0    56     1    15
  5.0915880580079538E+00 a      1116     0    56     1    16
 -1.1487333883327968E+00 a      1117     0    56     1    17
 -1.0507997535555205E+00 a      1118     0    56     1    18
  5.0795754882484712E+00 a      1119     0    56     1    19
  3.7345743179065982E+00 a      1120     0    56     1    20
  3.1286317789321596E+00 a      1121     0    57     1     1
  2.1507085392706400E+00 a      1122     0    57     1     2
  6.5619770862603302E+00 a      1123     0    57     1     3
  2.8730028867442323E+00 a      1124     0    57     1     4
 -4.8495151863618133E+00 a      1125     0    57     1     5
  1.7825728574447501E+00 a      1126     0    57     1     6
  2.2820052957089794E+00 a      1127     0    57     1     7
  2.7562816468159029E-01 a      1128     0    57     1     8
  6.5756417866223362E+00 a      1129     0    57     1     9
 -3.6303919717044462E+00 a      1130     0    57     1    10
 -1.2552452283451800E+00 a      1131     0    57     1    11
 -5.2198810448019561E-01 a      1132     0    57     1    12
 -2.2705622426383814E+00 a      1133     0    57     1    13
  3.0235888554217025E+00 a      1134     0    57     1    14
  2.6717711649364970E+00 a      1135     0    57     1    15
 -3.8540311137327556E+00 a      1136     0    57     1    16
  2.0159782097999530E+00 a      1137     0    57     1    17
 -2.4560584851429494E+00 a      1138     0    57     1    18
  1.6055792943331788E+00 a      1139     0    57     1    19
  7.2341471328887810E+00 a      1140     0    57     1    20
  1.4362650208848082E+00 a      1141     0    58     1     1
 -2.4194425043463660E-01 a      1142     0    58     1     2
 -3.5859024886385407E+00 a      1143     0    58     1     3
  1.3801033734083612E+00 a      1144     0    58     1     4
 -2.7115989467612001E+00 a      1145     0    58     1     5
  2.3676861165607921E+00 a      1146     0    58     1     6
  1.1161988578624376E+00 a      1147     0    58     1     7
  2.5681505507593232E+00 a      1148     0    58     1     8
  1.6261040843603076E+00 a      1149     0    58     1     9
  4.2967918763400070E-01 a      1150     0    58     1    10
  7.6545390497661070E-01 a      1151     0    58     1    11
 -4.9881563121265255E+00 a      1152     0    58     1    12
 -6.9198675466478166E-01 a      1153     0    58     1    13
  6.5419808562061188E-01 a      1154     0    58     1    14
  2.0689190241546886E+00 a      1155     0    58     1    15
 -1.2696136536183626E+00 a      1156     0    58     1    16
  2.9995587394650864E+00 a      1157     0    58     1    17
  1.1218286629535861E+00 a      1158     0    58     1    18
  2.6219174733751754E-01 a      1159     0    58     1    19
  1.2427991391143756E+00 a      1160     0    58     1    20
 -4.3113408015617238E-01 a      1161     0    59     1     1
  2.2812704718218644E+00 a      1162     0    59     1     2
  4.2596810950881139E+00 a      1163     0    59     1     3
  2.9574097533218171E+00 a      1164     0    59     1     4
  3.1562604269708600E-01 a      1165     0    59     1     5
  1.3194062005527736E+00 a      1166     0    59     1     6
 -1.0407910639302657E-01 a      1167     0    59     1     7
 -6.8284151527032144E-01 a      1168     0    59     1     8
 -1.8366515933702059E+00 a      1169     0    59     1     9
  1.8715262785940299E+00 a      1170     0    59     1    10
  9.5711951900719827E-01 a      1171     0    59     1    11
  2.8948589469029495E+00 a      1172     0    59     1    12
 -2.6356282394082533E+00 a      1173     0    59     1    13
  2.6094981303255862E+00 a      1174     0    59     1    14
  6.7487667406146725E+00 a      1175     0    59     1    15
 -4.3186257092114868E+00 a      1176     0    59     1    16
  1.0827886459403260E+00 a      1177     0    59     1    17
 -1.7313888629655740E+00 a      1178     0    59     1    18
  5.4307186903478119E-02 a      1179     0    59     1    19
  1.1206620042864412E+00 a      1180     0    59     1    20
 -6.5790114837967018E-01 a      1181     0    60     1     1
 -4.4726405127576365E+00 a      1182     0    60     1     2
  3.5169400425417128E+00 a      1183     0    60     1     3
 -1.6727642262259101E+00 a      1184     0    60     1     4
  2.9458692426596365E+00 a      1185     0    60     1     5
  7.5705569063205118E+00 a      1186     0    60     1     6
 -7.1180005735925045E-01 a      1187     0    60     1     7
 -3.3818958745089094E+00 a      1188     0    60     1     8
  3.9360902571739147E+00 a      1189     0    60     1     9
 -8.6521883304308322E-01 a      1190     0    60     1    10
  5.7409067015061110E-01 a      1191     0    60     1    11
 -8.1353753601498067E+00 a      1192     0    60     1    12
  2.1056132013407458E+00 a      1193     0    60     1    13
  1.4512062957897633E+00 a      1194     0    60     1    14
  6.3280107270505361E+00 a      1195     0    60     1    15
  9.1532773902931752E-01 a      1196     0    60     1    16
  2.6668361998206205E+00 a      1197     0    60     1    17
 -1.3794335569986265E+00 a      1198     0    60     1    18
  1.7174135763816363E+00 a      1199     0    60     1    19
 -3.8965147566715768E+00 a      1200     0    60     1    20
  3.6153745051275030E+00 a      1201     0    61     1     1
 -4.3488117882091648E-01 a      1202     0    61     1     2
  6.9472581621671612E+00 a      1203     0    61     1     3
  3.1677843500683173E-01 a      1204     0    61     1     4
 -4.8581745003317653E+00 a      1205     0    61     1     5
  7.8296370080954303E-01 a      1206     0    61     1     6
 -4.6291402414633573E+00 a      1207     0    61     1     7
  2.4594772285337854E+00 a      1208     0    61     1     8
 -8.5920980204516813E+00 a      1209     0    61     1     9
 -2.2797864830220385E-01 a      1210     0    61     1    10
 -3.1435223607581206E+00 a      1211     0    61     1    11
  3.4261572842596011E+00 a      1212     0    61     1    12
 -6.1124257142040561E-01 a      1213     0    61     1    13
  5.5377582049971146E+00 a      1214     0    61     1    14
  8.4991876951610512E-01 a      1215     0    61     1    15
 -2.6980854739132787E-01 a      1216     0    61     1    16
 -2.8668422936046936E+00 a      1217     0    61     1    17
 -7.8738790359304889E-01 a      1218     0    61     1    18
 -8.8379595456259052E-01 a      1219     0    61     1    19
 -2.1534984427056858E+00 a      1220     0    61     1    20
 -2.2379614753290471E+00 a      1221     0    62     1     1
  9.6397000903552987E-01 a      1222     0    62     1     2
 -9.6312035483438692E+00 a      1223     0    62     1     3
 -1.7484299806940149E+00 a      1224     0    62     1     4
 -1.3177430368213503E+00 a      1225     0    62     1     5
 -1.1861578409029448E+01 a      1226     0    62     1     6
  2.3096989259502951E+00 a      1227     0    62     1     7
 -6.9598513991280642E-01 a      1228     0    62     1     8
 -5.8532853718998501E+00 a      1229     0    62     1     9
 -6.3765836991649536E+00 a      1230     0    62     1    10
  1.4390150349439359E+00 a      1231     0    62     1    11
  3.1722823559970812E+00 a      1232     0    62     1    12
  5.5634947878176755E+00 a      1233     0    62     1    13
 -1.1749665255755799E+00 a      1234     0    62     1    14
 -8.5962424847416035E+00 a      1235     0    62     1    15
  5.7629820490845223E+00 a      1236     0    62     1    16
 -5.4538444669421677E+00 a      1237     0    62     1    17
  4.2601755752929700E+00 a      1238     0    62     1    18
 -4.2736447756241862E+00 a      1239     0    62     1    19
  1.9358149870831198E+00 a      1240     0    62     1    20
  2.1830826764348976E+00 a      1241     0    63     1     1
 -6.9569396593313826E-01 a      1242     0    63     1     2
 -5.3767188689711010E-01 a      1243     0    63     1     3
  1.5965481081944517E+00 a      1244     0    63     1     4
  8.8973552829567970E-01 a      1245     0    63     1     5
  2.7475790896910328E+00 a      1246     0    63     1     6
 -1.4130533274599075E+00 a      1247     0    63     1     7
  2.1309221591016048E+00 a      1248     0    63     1     8
  5.7586293852474546E-01 a      1249     0    63     1     9
  3.5118001130395204E-01 a      1250     0    63     1    10
  5.6998578048320203E-01 a      1251     0    63     1    11
 -2.3561404969267099E+00 a      1252     0    63     1    12
  2.3765732924156258E-01 a      1253     0    63     1    13
 -4.4926600409866818E-01 a      1254     0    63     1    14
  3.9971359054286739E+00 a      1255     0    63     1    15
  2.4872470741205959E+00 a      1256     0    63     1    16
  1.5577145158521442E+00 a      1257     0    63     1    17
  1.2395195139685149E+00 a      1258     0    63     1    18
  2.3447230623515756E+00 a      1259     0    63     1    19
  3.3486876537612913E+00 a      1260     0    63     1    20
 -7.3499350929977307E+00 a      1261     0    64     1     1
 -6.1101626526906996E+00 a      1262     0    64     1     2
  8.1059557512087987E-01 a      1263     0    64     1     3
 -3.1778851263214343E-02 a      1264     0    64     1     4
  6.8348140627230780E+00 a      1265     0    64     1     5
 -5.4409797152024204E+00 a      1266     0    64     1     6
  1.0844660253177245E+00 a      1267     0    64     1     7
 -1.2114240059089903E+01 a      1268     0    64     1     8
  1.0881826729982377E+01 a      1269     0    64     1     9
 -1.8942111455815669E+00 a      1270     0    64     1    10
 -6.7999364682899832E-01 a      1271     0    64     1    11
  7.9113479417612076E-01 a      1272     0    64     1    12
  1.9883249941011305E+00 a      1273     0    64     1    13
 -6.0189521466343061E+00 a      1274     0    64     1    14
 -1.4537462943916879E+00 a      1275     0    64     1    15
 -3.6933497286959849E+00 a      1276     0    64     1    16
  4.4787915692894362E+00 a      1277     0    64     1    17
 -1.5165882693462485E+00 a      1278     0    64     1    18
 -5.0010159340586764E+00 a      1279     0    64     1    19
 -2.5856603165176162E-01 a      1280     0    64     1    20
  9.8483710857228535E-01 a      1281     0    65     1     1
  3.1168415169760016E-01 a      1282     0    65     1     2
  4.9380904926541291E-01 a      1283     0    65     1     3
  3.7399517189181669E-01 a      1284     0    65     1     4
 -3.2527533347847193E-01 a      1285     0    65     1     5
  8.3629891599889250E-01 a      1286     0    65     1     6
  1.3138166301713043E+00 a      1287     0    65     1     7
 -8.6384710469922676E-01 a      1288     0    65     1     8
  8.9072866804803008E-01 a      1289     0    65     1     9
  1.1228644561228427E+00 a      1290     0    65     1    10
 -1.0568944769210309E+00 a      1291     0    65     1    11
 -1.1570058580000135E+00 a      1292     0    65     1    12
 -3.4914554460854502E-01 a      1293     0    65     1    13
  2.1285126024861958E+00 a      1294     0    65     1    14
 -3.4566211832971133E-01 a      1295     0    65     1    15
  6.7902122944315402E-01 a      1296     0    65     1    16
 -3.4093587497052497E-01 a      1297     0    65     1    17
 -1.1079234993433119E-01 a      1298     0    65     1    18
  8.0426187061434007E-02 a      1299     0    65     1    19
  5.7242214518147294E-01 a      1300     0    65     1    20
  8.1134971150868029E-01 a      1301     0    66     1     1
 -9.7374399042475079E-01 a      1302     0    66     1     2
  2.2118937622213297E-01 a      1303     0    66     1     3
  2.9216307110395743E+00 a      1304     0    66     1     4
 -1.2953786994636642E+00 a      1305     0    66     1     5
  2.6987738272801909E-01 a      1306     0    66     1     6
 -6.9741561808958441E-01 a      1307     0    66     1     7
  3.5736954074883149E+00 a      1308     0    66     1     8
 -4.0306181933774221E+00 a      1309     0    66     1     9
 -1.8509751846463391E+00 a      1310     0    66     1    10
  1.5263690564068468E+00 a      1311     0    66     1    11
 -1.0860815078827610E-01 a      1312     0    66     1    12
 -1.9906384735514375E+00 a      1313     0    66     1    13
  1.5807161379731272E+00 a      1314     0    66     1    14
  1.2574623730800358E+00 a      1315     0    66     1    15
 -4.3239376795788848E-01 a      1316     0    66     1    16
  1.1891994269818327E+00 a      1317     0    66     1    17
 -5.5046345393174670E-02 a      1318     0    66     1    18
  2.0466744943207003E+00 a      1319     0    66     1    19
 -1.4285537593869805E-02 a      1320     0    66     1    20
 -5.5855193935861633E+00 a      1321     0    67     1     1
  2.1679026263708550E+00 a      1322     0    67     1     2
  6.2789563842626617E+00 a      1323     0    67     1     3
 -4.2230016750916555E+00 a      1324     0    67     1     4
 -2.8976928442268397E+00 a      1325     0    67     1     5
 -4.6780849865769740E+00 a      1326     0    67     1     6
  1.0500431834280919E+00 a      1327     0    67     1     7
 -4.1163757856617149E+00 a      1328     0    67     1     8
 -3.2881025084642199E+00 a      1329     0    67     1     9
  4.3525911929866608E+00 a      1330     0    67     1    10
 -1.2307618293546967E+00 a      1331     0    67     1    11
  9.0744221938114613E+00 a      1332     0    67     1    12
 -1.3831306916993196E+00 a      1333     0    67     1    13
 -3.7219305080530740E-01 a      1334     0    67     1    14
 -5.9463648618927341E+00 a      1335     0    67     1    15
 -6.4755817332130823E+00 a      1336     0    67     1    16
 -3.1872822717849627E+00 a      1337     0    67     1    17
 -1.6583721770498931E+00 a      1338     0    67     1    18
 -4.2234616322065035E+00 a      1339     0    67     1    19
 -8.1250347058810259E+00 a      1340     0    67     1    20
  5.1665834511012614E+00 a      1341     0    68     1     1
  6.6376413752872674E+00 a      1342     0    68     1     2
 -4.2794232535860246E+00 a      1343     0    68     1     3
 -2.9461554844697706E+00 a      1344     0    68     1     4
 -3.6282247057074994E+00 a      1345     0    68     1     5
  1.5748747252102246E+00 a      1346     0    68     1     6
  3.9248066229588239E+00 a      1347     0    68     1     7
  5.0163627821088532E+00 a      1348     0    68     1     8
  2.2394107418405076E+00 a      1349     0    68     1     9
  4.8957755341488358E+00 a      1350     0    68     1    10
  7.7575097395343920E-02 a      1351     0    68     1    11
 -4.5048190837331665E+00 a      1352     0    68     1    12
 -4.5031443124501358E+00 a      1353     0    68     1    13
  1.4167424016868335E+00 a      1354     0    68     1    14
 -2.2602703315693007E+00 a      1355     0    68     1    15
  3.1661846175106287E+00 a      1356     0    68     1    16
 -2.2771407929468594E+00 a      1357     0    68     1    17
 -9.6700062546658716E-01 a      1358     0    68     1    18
  2.8082422998912500E+00 a      1359     0    68     1    19
  1.9031048627817135E+00 a      1360     0    68     1    20
 -2.9697466629427605E+00 a      1361     0    69     1     1
  7.1028398775995732E-02 a      1362     0    69     1     2
 -3.6786764078262371E+00 a      1363     0    69     1     3
 -2.7149435549276197E+00 a      1364     0    69     1     4
 -7.2814883507630726E-02 a      1365     0    69     1     5
 -3.0981856953030404E+00 a      1366     0    69     1     6
 -1.3732591160660124E+00 a      1367     0    69     1     7
  2.3971602388586772E+00 a      1368     0    69     1     8
 -3.8898984900117650E+00 a      1369     0    69     1     9
 -8.9532908951745360E-01 a      1370     0    69     1    10
  1.1836806259725525E+00 a      1371     0    69     1    11
  3.4475037081779827E+00 a      1372     0    69     1    12
  8.5017045825932380E-01 a      1373     0    69     1    13
 -3.6283239470095516E+00 a      1374     0    69     1    14
 -5.1760614461459110E-02 a      1375     0    69     1    15
 -2.9847909534261867E+00 a      1376     0    69     1    16
  1.3199636450752521E+00 a      1377     0    69     1    17
 -4.1923188961602287E-01 a      1378     0    69     1    18
 -3.0328235965175030E+00 a      1379     0    69     1    19
 -1.7442115958552535E+00 a      1380     0    69     1    20
  5.9875866003452860E-01 a      1381     0    70     1     1
  2.9169305488581512E-02 a      1382     0    70     1     2
  1.6181695123310124E+01 a      1383     0    70     1     3
 -9.3314975306078480E+00 a      1384     0    70     1     4
  1.0563357152816375E+01 a      1385     0    70     1     5
 -1.5115603091195846E+00 a      1386     0    70     1     6
  7.8062048805368178E-01 a      1387     0    70     1     7
 -3.9072778698981092E+00 a      1388     0    70     1     8
  2.1916920391005853E+01 a      1389     0    70     1     9
 -1.6559057141234024E+00 a      1390     0    70     1    10
 -3.4330944012495093E+00 a      1391     0    70     1    11
  8.5808158957698719E+00 a      1392     0    70     1    12
  6.0376565370493420E+00 a      1393     0    70     1    13
 -4.8309759919936743E+00 a      1394     0    70     1    14
 -6.7229978915204827E+00 a      1395     0    70     1    15
 -2.2439788508995941E+00 a      1396     0    70     1    16
 -4.8142278114278820E+00 a      1397     0    70     1    17
 -3.6690113091465681E+00 a      1398     0    70     1    18
  1.5506120164975579E+00 a      1399     0    70     1    19
  4.3564070497905949E-01 a      1400     0    70     1    20
 -1.7513973224034801E-01 a      1401     0    71     1     1
  1.9904655423208890E+00 a      1402     0    71     1     2
  3.5058050483229093E+00 a      1403     0    71     1     3
  5.4670559189451762E+00 a      1404     0    71     1     4
  2.9377793056686552E+00 a      1405     0    71     1     5
  1.8550316616556901E+00 a      1406     0    71     1     6
 -2.4772497508957967E+00 a      1407     0    71     1     7
 -1.3739579364222099E+00 a      1408     0    71     1     8
  4.2740868978520274E-01 a      1409     0    71     1     9
  1.2167886698400785E+00 a      1410     0    71     1    10
  1.4461464709585723E+00 a      1411     0    71     1    11
 -5.7011560737250386E+00 a      1412     0    71     1    12
 -1.6621099827758914E+00 a      1413     0    71     1    13
 -1.7162722260637160E+00 a      1414     0    71     1    14
  3.1765151677973824E+00 a      1415     0    71     1    15
 -2.8589616695763964E+00 a      1416     0    71     1    16
  8.1447260872835525E-01 a      1417     0    71     1    17
 -2.4781372835657276E+00 a      1418     0    71     1    18
 -1.7678902688220697E+00 a      1419     0    71     1    19
 -3.7459052302242885E-01 a      1420     0    71     1    20
 -2.3812778696186849E+00 a      1421     0    72     1     1
 -9.6671652280441556E-01 a      1422     0    72     1     2
  1.1477524981966583E+01 a      1423     0    72     1     3
  1.4096013604571140E+00 a      1424     0    72     1     4
  3.3953464897632424E+00 a      1425     0    72     1     5
  5.4746872787577301E+00 a      1426     0    72     1     6
  5.4279996362436367E-01 a      1427     0    72     1     7
  4.4325235561532601E+00 a      1428     0    72     1     8
 -2.1303068901500830E+00 a      1429     0    72     1     9
 -4.8272836681726911E-01 a      1430     0    72     1    10
  2.2777290444462359E+00 a      1431     0    72     1    11
  4.6866836965819331E-01 a      1432     0    72     1    12
  9.8091196609116349E-01 a      1433     0    72     1    13
  2.0574141084713923E-01 a      1434     0    72     1    14
  7.5501789074880312E+00 a      1435     0    72     1    15
 -2.2251770743569999E-01 a      1436     0    72     1    16
 -2.4146936170144246E+00 a      1437     0    72     1    17
  1.7992967993142508E+00 a      1438     0    72     1    18
  5.9524917010784621E+00 a      1439     0    72     1    19
  2.3776194244830893E+00 a      1440     0    72     1    20
  1.6959298276340715E+00 a      1441     0    73     1     1
  2.1006662231831186E+00 a      1442     0    73     1     2
 -3.8138887067991547E+00 a      1443     0    73     1     3
 -4.6877414416625107E-01 a      1444     0    73     1     4
 -1.6201517361054809E+00 a      1445     0    73     1     5
 -2.8442576974699318E+00 a      1446     0    73     1     6
  3.3829581918292893E+00 a      1447     0    73     1     7
 -2.9005221423426915E+00 a      1448     0    73     1     8
 -1.5622557187100574E+00 a      1449     0    73     1     9
 -1.7795804333926035E-01 a      1450     0    73     1    10
  5.9730643077193912E+00 a      1451     0    73     1    11
 -3.6660230050266818E+00 a      1452     0    73     1    12
 -3.5880325004279245E+00 a      1453     0    73     1    13
 -4.9071902077971297E-01 a      1454     0    73     1    14
 -5.4368622622881473E+00 a      1455     0    73     1    15
 -1.5261505860754696E+00 a      1456     0    73     1    16
 -1.3241603527957275E+00 a      1457     0    73     1    17
 -7.0942678574423850E+00 a      1458     0    73     1    18
 -5.8098118195827393E+00 a      1459     0    73     1    19
 -3.9762075997760791E+00 a      1460     0    73     1    20
 -8.5989113152114094E-01 a      1461     0    74     1     1
  1.1990219867226777E+00 a      1462     0    74     1     2
 -4.1168974561448407E-01 a      1463     0    74     1     3
  1.0109905591883969E-01 a      1464     0    74     1     4
  1.9031563619198755E+00 a      1465     0    74     1     5
  2.4608280425736679E+00 a      1466     0    74     1     6
  1.2369964680102810E+00 a      1467     0    74     1     7
  3.1779588334873305E+00 a      1468     0    74     1     8
  1.7026344462918319E+00 a      1469     0    74     1     9
 -1.8448464432284570E-01 a      1470     0    74     1    10
  3.7623763687563359E+00 a      1471     0    74     1    11
 -1.5344579435729317E+00 a      1472     0    74     1    12
  1.2099810787806882E+00 a      1473     0    74     1    13
 -2.5410938886222971E+00 a      1474     0    74     1    14
  1.4011555846396058E+00 a      1475     0    74     1    15
  7.6087524248628335E-01 a      1476     0    74     1    16
  5.0360822680750350E-01 a      1477     0    74     1    17
  9.2632564182827326E-01 a      1478     0    74     1    18
  2.1916660273403901E+00 a      1479     0    74     1    19
  1.7774362885903854E+00 a      1480     0    74     1    20
 -2.6217230351050982E+00 a      1481     0    75     1     1
 -3.1426480222896802E-01 a      1482     0    75     1     2
  6.9375898957916666E+00 a      1483     0    75     1     3
  8.8391190283017740E-01 a      1484     0    75     1     4
  3.4561951355079410E+00 a      1485     0    75     1     5
  9.9851226902327683E-01 a      1486     0    75     1     6
 -3.2704446517433350E-01 a      1487     0    75     1     7
 -5.0790642293197292E+00 a      1488     0    75     1     8
  1.3323878670138994E+01 a      1489     0    75     1     9
  2.8930885763866008E+00 a      1490     0    75     1    10
 -8.6029954945051887E+00 a      1491     0    75     1    11
  1.7431236522551758E+00 a      1492     0    75     1    12
  2.5343484470165953E+00 a      1493     0    75     1    13
 -4.4940663315633396E+00 a      1494     0    75     1    14
 -4.8065967576658952E+00 a      1495     0    75     1    15
 -9.1910323117933874E+00 a      1496     0    75     1    16
 -1.2719108799441983E-01 a      1497     0    75     1    17
 -1.7713639478398973E+00 a      1498     0    75     1    18
 -7.4572980036663665E+00 a      1499     0    75     1    19
  9.1580084278192675E-01 a      1500     0    75     1    20
 -1.5388698655640784E-01 a      1501     0    76     1     1
  2.7232210018443239E+00 a      1502     0    76     1     2
 -1.4554069468787967E+00 a      1503     0    76     1     3
  1.9781225693672162E+00 a      1504     0    76     1     4
 -2.7374604201887958E+00 a      1505     0    76     1     5
 -6.7800699062240211E-01 a      1506     0    76     1     6
  2.2773877043433455E+00 a      1507     0    76     1     7
  4.7626655119017451E+00 a      1508     0    76     1     8
 -4.4268665731470778E+00 a      1509     0    76     1     9
  3.7407832888146825E-01 a      1510     0    76     1    10
 -1.5412654532037204E-01 a      1511     0    76     1    11
  1.3441704623523900E+00 a      1512     0    76     1    12
 -3.4554531053809874E+00 a      1513     0    76     1    13
  4.6626890957282002E-01 a      1514     0    76     1    14
 -3.9659254785322782E+00 a      1515     0    76     1    15
 -4.4778266003280285E+00 a      1516     0    76     1    16
 -2.1216638653341517E+00 a      1517     0    76     1    17
  4.2436545495159814E+00 a      1518     0    76     1    18
  1.9871928530886012E+00 a      1519     0    76     1    19
  4.4288193456857465E+00 a      1520     0    76     1    20
  3.0853195356377126E+00 a      1521     0    77     1     1
 -1.9578930849868612E+00 a      1522     0    77     1     2
 -2.8683023888739845E+00 a      1523     0    77     1     3
  2.1309407671966634E+00 a      1524     0    77     1     4
  2.3215986699098035E+00 a      1525     0    77     1     5
  1.0020627788406236E+00 a      1526     0    77     1     6
  1.0367619703942779E-01 a      1527     0    77     1     7
  1.2260495703682539E+00 a      1528     0    77     1     8
  3.5982577227302222E+00 a      1529     0    77     1     9
 -5.5578996811270285E+00 a      1530     0    77     1    10
  6.5525546718660999E-01 a      1531     0    77     1    11
 -5.4788409044375781E+00 a      1532     0    77     1    12
  8.5719133159025895E-01 a      1533     0    77     1    13
  5.9353738512606036E-01 a      1534     0    77     1    14
  7.2112862606856742E-01 a      1535     0    77     1    15
  3.9535451202605465E+00 a      1536     0    77     1    16
  7.3642989009376481E-01 a      1537     0    77     1    17
 -7.1039602479714026E-01 a      1538     0    77     1    18
  1.6143926245733005E+00 a      1539     0    77     1    19
  4.3626982993821297E+00 a      1540     0    77     1    20
 -6.5503875275463808E-01 a      1541     0    78     1     1
  2.5127454808374297E+00 a      1542     0    78     1     2
 -1.4387173823336532E+00 a      1543     0    78     1     3
  5.5518866386286103E-01 a      1544     0    78     1     4
  1.1531346487568499E-01 a      1545     0    78     1     5
  3.7311985106607010E-01 a      1546     0    78     1     6
  2.4004566435638877E-01 a      1547     0    78     1     7
 -7.4674392493283059E-02 a      1548     0    78     1     8
 -1.0530937705614494E+00 a      1549     0    78     1     9
 -7.2407975137073155E-01 a      1550     0    78     1    10
 -1.3776485450484806E+00 a      1551     0    78     1    11
  1.7442831119883817E+00 a      1552     0    78     1    12
  2.2824998220992265E-01 a      1553     0    78     1    13
  3.1021195146256049E+00 a      1554     0    78     1    14
  2.5391011342342040E-01 a      1555     0    78     1    15
 -3.6651921332963311E-01 a      1556     0    78     1    16
  6.4206853233644434E-01 a      1557     0    78     1    17
  2.6919965878855643E+00 a      1558     0    78     1    18
 -1.3771768876926731E+00 a      1559     0    78     1    19
  3.6491269475880223E-01 a      1560     0    78     1    20
 -1.0201076146848771E+00 a      1561     0    79     1     1
  1.7315758677641440E+00 a      1562     0    79     1     2
 -4.0616457300615960E-01 a      1563     0    79     1     3
 -3.0866065519027410E+00 a      1564     0    79     1     4
 -3.2290180869687117E+00 a      1565     0    79     1     5
 -1.2413277148330262E+00 a      1566     0    79     1     6
  1.8819773820572510E+00 a      1567     0    79     1     7
 -6.0808844111709649E-02 a      1568     0    79     1     8
  5.5097917300456523E-01 a      1569     0    79     1     9
  2.8470991524505426E-02 a      1570     0    79     1    10
  3.3290203894387647E+00 a      1571     0    79     1    11
 -5.5597974068913836E-01 a      1572     0    79     1    12
 -5.4204365834769797E-01 a      1573     0    79     1    13
  8.7003740084576930E-01 a      1574     0    79     1    14
 -2.5617893563762770E+00 a      1575     0    79     1    15
  4.8382837220643994E-02 a      1576     0    79     1    16
 -9.2872116742430044E-01 a      1577     0    79     1    17
 -4.3500834592335815E+00 a      1578     0    79     1    18
 -3.3872915199772152E-01 a      1579     0    79     1    19
 -1.5681941847708117E-01 a      1580     0    79     1    20
  7.9790360304907482E-01 a      1581     0    80     1     1
 -2.7717740467173719E+00 a      1582     0    80     1     2
 -5.1520221094364704E-01 a      1583     0    80     1     3
 -1.0069755974982570E-02 a      1584     0    80     1     4
  2.9451349042087144E-01 a      1585     0    80     1     5
  2.5060049050510638E+00 a      1586     0    80     1     6
  1.8253089307598247E-01 a      1587     0    80     1     7
  7.2729093924684629E-01 a      1588     0    80     1     8
 -1.2888998859500027E+00 a      1589     0    80     1     9
  1.3975980445946439E+00 a      1590     0    80     1    10
 -1.1669039613382497E+00 a      1591     0    80     1    11
 -8.8866219599568486E-01 a      1592     0    80     1    12
 -6.2789152883027854E-01 a      1593     0    80     1    13
 -2.5533670895418514E+00 a      1594     0    80     1    14
  7.5483633792762839E-01 a      1595     0    80     1    15
 -3.1420596338772566E+00 a      1596     0    80     1    16
  9.4294271941939248E-02 a      1597     0    80     1    17
 -2.4756349222215071E+00 a      1598     0    80     1    18
  1.7837223179614681E+00 a      1599     0    80     1    19
  5.1509952684392413E-01 a      1600     0    80     1    20
  1.0181912780697906E+00 a      1601     0    81     1     1
 -8.1758845476990816E-01 a      1602     0    81     1     2
 -1.0865705213946679E+00 a      1603     0    81     1     3
  1.2355026114080779E-02 a      1604     0    81     1     4
 -4.7673590513419239E-01 a      1605     0    81     1     5
 -2.6971265006552553E-01 a      1606     0    81     1     6
  1.3089025544748162E-01 a      1607     0    81     1     7
 -1.3444498417817516E+00 a      1608     0    81     1     8
  8.8949582504815772E-01 a      1609     0    81     1     9
  1.4609587578220047E+00 a      1610     0    81     1    10
 -4.6797375192026314E-01 a      1611     0    81     1    11
  2.3625368215355969E-01 a      1612     0    81     1    12
 -1.0512983065486903E-01 a      1613     0    81     1    13
 -1.1251750919980157E+00 a      1614     0    81     1    14
  1.9138966051449138E+00 a      1615     0    81     1    15
  1.7200315293597452E+00 a      1616     0    81     1    16
  1.1213678311224258E+00 a      1617     0    81     1    17
 -6.5910196741179050E-01 a      1618     0    81     1    18
  1.2563999821775960E+00 a      1619     0    81     1    19
  1.1932295647637685E+00 a      1620     0    81     1    20
 -7.9065031339853639E-02 a      1621     0    82     1     1
 -3.1135371919095511E-01 a      1622     0    82     1     2
 -8.5347115892839290E-02 a      1623     0    82     1     3
