################################################################################
# Neural network connection values (weights and biases).
################################################################################
# Col  Name       Description
################################################################################
# 1    connection Neural network connection value.
# 2    t          Connection type (a = weight, b = bias).
# 3    index      Index enumerating weights.
# 4    l_s        Starting point layer (end point layer for biases).
# 5    n_s        Starting point neuron in starting layer (end point neuron for biases).
# 6    l_e        End point layer.
# 7    n_e        End point neuron in end layer.
################################################################################
#                      1 2         3     4     5     6     7
#             connection t     index   l_s   n_s   l_e   n_e
############################################################
 -2.3150947082414464E-01 a         1     0     1     1     1
 -1.4576023556013806E+00 a         2     0     1     1     2
  6.5905231797273200E-01 a         3     0     1     1     3
 -1.4622192744102616E+00 a         4     0     1     1     4
  1.3899201029533339E+00 a         5     0     1     1     5
 -3.8087574188423495E-01 a         6     0     1     1     6
  1.1630789056475122E+00 a         7     0     1     1     7
  5.3205463318165291E-01 a         8     0     1     1     8
  1.2193550147385548E+00 a         9     0     1     1     9
 -1.2427979128989581E+00 a        10     0     1     1    10
  3.0697465601420970E-01 a        11     0     1     1    11
  6.1058309121374676E-01 a        12     0     1     1    12
  1.5093013189338189E-01 a        13     0     1     1    13
  1.1140410536159659E+00 a        14     0     1     1    14
  2.2885760866028599E+00 a        15     0     1     1    15
 -7.1243258712272906E-01 a        16     0     1     1    16
  4.2291464069958257E-01 a        17     0     1     1    17
  1.2223209274123075E+00 a        18     0     1     1    18
 -6.2646232498044818E-01 a        19     0     1     1    19
  3.1495943306879115E-01 a        20     0     1     1    20
 -1.7011601389153888E+00 a        21     0     2     1     1
  5.8366113310604761E-01 a        22     0     2     1     2
  4.0519395259039444E+00 a        23     0     2     1     3
  3.8629902473278563E+00 a        24     0     2     1     4
  3.1973744180498631E+00 a        25     0     2     1     5
 -6.5763295919773128E+00 a        26     0     2     1     6
 -4.2244147756065065E+00 a        27     0     2     1     7
 -1.6028094212835891E+00 a        28     0     2     1     8
  1.5649967600608530E+00 a        29     0     2     1     9
  5.2717470384590082E-01 a        30     0     2     1    10
  2.3069987412616869E-01 a        31     0     2     1    11
 -1.0117079634241939E+00 a        32     0     2     1    12
  1.4051481327618929E+00 a        33     0     2     1    13
  1.4272550062857150E+00 a        34     0     2     1    14
  6.4102053410989179E-01 a        35     0     2     1    15
 -4.6236282410465118E-01 a        36     0     2     1    16
 -3.7356724777314110E+00 a        37     0     2     1    17
 -1.4223141891828222E+00 a        38     0     2     1    18
 -4.9969164764596226E+00 a        39     0     2     1    19
  7.9797290714957711E-02 a        40     0     2     1    20
  4.2589546462853740E-02 a        41     0     3     1     1
  1.9165714019172031E+00 a        42     0     3     1     2
  3.1080785369253463E+00 a        43     0     3     1     3
  2.0495640594733673E+00 a        44     0     3     1     4
 -2.3339551874485140E+00 a        45     0     3     1     5
  9.8283145992339849E-01 a        46     0     3     1     6
 -9.3845885067336521E-01 a        47     0     3     1     7
 -1.1665632265034073E-01 a        48     0     3     1     8
 -1.3298385821776437E+00 a        49     0     3     1     9
  1.8123096340148517E+00 a        50     0     3     1    10
 -1.6004635056688143E+00 a        51     0     3     1    11
 -9.2617197389927475E-01 a        52     0     3     1    12
 -8.1723458812985039E-01 a        53     0     3     1    13
 -1.4906485913638003E+00 a        54     0     3     1    14
 -3.7356516649772720E-01 a        55     0     3     1    15
  1.3931665810035709E+00 a        56     0     3     1    16
  7.4068153144327287E-01 a        57     0     3     1    17
 -1.0153202921085864E+00 a        58     0     3     1    18
  9.6779613799595121E-01 a        59     0     3     1    19
  1.5142325599061568E+00 a        60     0     3     1    20
 -7.4697324472612348E-02 a        61     0     4     1     1
  6.9595079454165343E-01 a        62     0     4     1     2
 -1.5077124510327317E-01 a        63     0     4     1     3
  3.7135548322750872E-01 a        64     0     4     1     4
  1.4444796045307703E-01 a        65     0     4     1     5
  5.2291995648313194E-01 a        66     0     4     1     6
  1.0186508510606024E-01 a        67     0     4     1     7
 -3.7779197000646983E-02 a        68     0     4     1     8
  5.4699378196436735E-02 a        69     0     4     1     9
 -2.0777945225976566E-02 a        70     0     4     1    10
  4.3219942586089449E-01 a        71     0     4     1    11
 -1.2391157674726459E-02 a        72     0     4     1    12
  4.9418788368019093E-02 a        73     0     4     1    13
  9.7486069591906886E-03 a        74     0     4     1    14
 -2.1648515962201222E-02 a        75     0     4     1    15
 -2.8448672481458109E-01 a        76     0     4     1    16
  3.5498712583059888E-01 a        77     0     4     1    17
 -3.9419667789203644E-01 a        78     0     4     1    18
 -8.7775066548834046E-02 a        79     0     4     1    19
 -3.6637262824206762E-01 a        80     0     4     1    20
  2.7204608930725749E-01 a        81     0     5     1     1
  1.6917263840641059E+00 a        82     0     5     1     2
 -2.0744437132226938E+00 a        83     0     5     1     3
 -7.6277122509848833E-02 a        84     0     5     1     4
 -2.4371705013371486E-01 a        85     0     5     1     5
  1.0256200488978513E+00 a        86     0     5     1     6
 -7.0898450429452009E-01 a        87     0     5     1     7
  1.5933639747117423E+00 a        88     0     5     1     8
  2.7610029140748227E-01 a        89     0     5     1     9
 -1.4327260783917044E+00 a        90     0     5     1    10
  9.5129974898863012E-01 a        91     0     5     1    11
  1.6162175859023861E-01 a        92     0     5     1    12
  5.7950800421775639E-01 a        93     0     5     1    13
  2.2787080965580775E-01 a        94     0     5     1    14
  1.3042533412095090E+00 a        95     0     5     1    15
 -5.0251329644271330E+00 a        96     0     5     1    16
  1.7372675129702568E+00 a        97     0     5     1    17
  1.7975267107813355E+00 a        98     0     5     1    18
 -2.9227668872668868E+00 a        99     0     5     1    19
  5.8234605562229802E-01 a       100     0     5     1    20
  8.5004933934868998E-01 a       101     0     6     1     1
 -1.3485417095557564E+00 a       102     0     6     1     2
  6.0148683573742889E-01 a       103     0     6     1     3
 -6.3170227562897430E-01 a       104     0     6     1     4
 -9.8974639591706859E-01 a       105     0     6     1     5
 -1.9229691629411447E-01 a       106     0     6     1     6
 -5.3744011751278513E-02 a       107     0     6     1     7
  6.2387293320216065E-03 a       108     0     6     1     8
  1.7124553820104330E-01 a       109     0     6     1     9
  4.6315181615075945E-01 a       110     0     6     1    10
 -1.8928702966077418E-01 a       111     0     6     1    11
 -8.1666511932635710E-01 a       112     0     6     1    12
  3.2589456092179869E-01 a       113     0     6     1    13
 -5.5246690437761958E-01 a       114     0     6     1    14
  3.4948582243341741E-01 a       115     0     6     1    15
 -1.4019645368668959E-01 a       116     0     6     1    16
 -4.5141355945940859E-01 a       117     0     6     1    17
  2.1031824313377195E-01 a       118     0     6     1    18
 -3.3273940150786624E-01 a       119     0     6     1    19
  6.3264234581915446E-01 a       120     0     6     1    20
  1.2806075273982869E+00 a       121     0     7     1     1
 -6.0031476128314232E-01 a       122     0     7     1     2
  1.4690106004402288E+00 a       123     0     7     1     3
 -1.4876808658085872E+00 a       124     0     7     1     4
 -1.5587509323470252E+00 a       125     0     7     1     5
 -1.4020328005670132E-01 a       126     0     7     1     6
 -3.6914168876922826E-01 a       127     0     7     1     7
  1.0726735198244712E+00 a       128     0     7     1     8
 -1.6671592447745560E+00 a       129     0     7     1     9
  1.3767907656695497E+00 a       130     0     7     1    10
 -1.7337173731448947E+00 a       131     0     7     1    11
 -9.9446851632345334E-01 a       132     0     7     1    12
  1.2289267147172243E+00 a       133     0     7     1    13
  3.4143640305234840E-02 a       134     0     7     1    14
 -5.9553624056795651E-01 a       135     0     7     1    15
 -4.4267395386737235E-01 a       136     0     7     1    16
  2.5175839671873584E-01 a       137     0     7     1    17
 -2.3837973173048763E-01 a       138     0     7     1    18
  6.3884949812348535E-01 a       139     0     7     1    19
  1.2465927399469541E+00 a       140     0     7     1    20
  8.7415104040101310E-01 a       141     0     8     1     1
 -3.0306438389880175E-01 a       142     0     8     1     2
  6.9427907726963597E-02 a       143     0     8     1     3
  1.6766689115221833E-01 a       144     0     8     1     4
 -5.1284478048108117E-01 a       145     0     8     1     5
 -8.6725912474633043E-02 a       146     0     8     1     6
  1.9046371681418039E-02 a       147     0     8     1     7
  2.2035906894430527E-02 a       148     0     8     1     8
  1.1644948423576221E-01 a       149     0     8     1     9
  9.0934647335965305E-02 a       150     0     8     1    10
  1.4268480001396489E-01 a       151     0     8     1    11
 -8.8872630151526122E-01 a       152     0     8     1    12
  4.6277137992985762E-01 a       153     0     8     1    13
 -4.1852579778196397E-01 a       154     0     8     1    14
  1.7906688328032705E-01 a       155     0     8     1    15
 -5.7357612700010230E-01 a       156     0     8     1    16
  2.1866945091367074E-01 a       157     0     8     1    17
  1.7170394631656413E-01 a       158     0     8     1    18
 -3.8168690119657406E-01 a       159     0     8     1    19
  2.9812305678034423E-01 a       160     0     8     1    20
  3.3001154558211336E-02 a       161     0     9     1     1
 -2.9446182346416983E-01 a       162     0     9     1     2
 -2.4283659823284479E-01 a       163     0     9     1     3
 -1.1232984669692601E+00 a       164     0     9     1     4
  4.5594992460012718E-01 a       165     0     9     1     5
 -8.7431618546056267E-01 a       166     0     9     1     6
  2.1026385395718125E-01 a       167     0     9     1     7
 -6.0419343155036787E-01 a       168     0     9     1     8
 -9.8634473241191301E-01 a       169     0     9     1     9
  3.7068831664872570E-01 a       170     0     9     1    10
 -3.1750149237602637E-01 a       171     0     9     1    11
  3.9791412227283086E-02 a       172     0     9     1    12
 -5.0972597568485167E-01 a       173     0     9     1    13
 -8.9676345028071799E-02 a       174     0     9     1    14
  1.3107950133322337E+00 a       175     0     9     1    15
  2.7184110857392563E+00 a       176     0     9     1    16
 -4.6253837419041344E-01 a       177     0     9     1    17
  5.7463396446908932E-01 a       178     0     9     1    18
  2.3774699596831717E+00 a       179     0     9     1    19
 -1.3492086512858895E-01 a       180     0     9     1    20
  4.8785821110509708E-01 a       181     0    10     1     1
 -2.6843634152417652E+00 a       182     0    10     1     2
  7.0934601487911242E-01 a       183     0    10     1     3
 -2.4135622848249212E+00 a       184     0    10     1     4
 -1.1626605859727746E+00 a       185     0    10     1     5
 -9.0349002972231074E-01 a       186     0    10     1     6
 -3.2336079838150994E-01 a       187     0    10     1     7
 -2.7898477266189525E-01 a       188     0    10     1     8
  8.5384451585057619E-01 a       189     0    10     1     9
  8.7661780381288235E-01 a       190     0    10     1    10
 -5.9415944232368478E-01 a       191     0    10     1    11
  8.5033414038461638E-02 a       192     0    10     1    12
  4.8630350294764907E-01 a       193     0    10     1    13
  1.6930331064378368E-01 a       194     0    10     1    14
  6.9499182689132091E-02 a       195     0    10     1    15
 -1.2676474507401725E-01 a       196     0    10     1    16
 -1.4801812873752291E+00 a       197     0    10     1    17
  9.7049650534969512E-01 a       198     0    10     1    18
 -3.5679134171810489E-01 a       199     0    10     1    19
  3.2641382851276629E-01 a       200     0    10     1    20
  2.5028271642306241E+00 a       201     0    11     1     1
  6.9443626495165001E-01 a       202     0    11     1     2
 -2.0428454329218936E-02 a       203     0    11     1     3
  2.5043715693047675E-01 a       204     0    11     1     4
 -1.0579642213682701E+00 a       205     0    11     1     5
  9.3878221508050530E-01 a       206     0    11     1     6
  8.3464784457051369E-02 a       207     0    11     1     7
 -2.4222612617102918E-02 a       208     0    11     1     8
  4.9128718734185817E-01 a       209     0    11     1     9
 -4.0852632001296785E-01 a       210     0    11     1    10
  4.4669666744400281E-02 a       211     0    11     1    11
 -6.7301632720093940E-01 a       212     0    11     1    12
 -7.8472490318512600E-01 a       213     0    11     1    13
 -1.9977181917414406E+00 a       214     0    11     1    14
  8.2219041192022990E-01 a       215     0    11     1    15
 -6.8347734902231005E-01 a       216     0    11     1    16
  6.6395656254820079E-01 a       217     0    11     1    17
  6.7952470589781522E-01 a       218     0    11     1    18
  3.1759444465111886E-01 a       219     0    11     1    19
 -6.1327670295311951E-03 a       220     0    11     1    20
  3.6721224267688193E+00 a       221     0    12     1     1
  4.3766365259464934E-01 a       222     0    12     1     2
 -1.5591140941936332E+00 a       223     0    12     1     3
 -1.6120565585760398E+00 a       224     0    12     1     4
 -2.4849869519875432E+00 a       225     0    12     1     5
 -1.4371931034784893E+00 a       226     0    12     1     6
  3.4532906264064332E-03 a       227     0    12     1     7
  1.6508942053310687E+00 a       228     0    12     1     8
  5.9551956190228261E-01 a       229     0    12     1     9
 -2.1952344556829844E+00 a       230     0    12     1    10
  2.3832230446145322E+00 a       231     0    12     1    11
  7.8576473867556373E-01 a       232     0    12     1    12
 -2.7070669286518916E+00 a       233     0    12     1    13
 -1.3516589148222937E+00 a       234     0    12     1    14
  4.8473156921645660E-01 a       235     0    12     1    15
  1.4994609422324894E+00 a       236     0    12     1    16
 -2.1962426446451144E+00 a       237     0    12     1    17
  2.2789757798035719E+00 a       238     0    12     1    18
 -2.2266623046737943E+00 a       239     0    12     1    19
 -4.1959296197158533E+00 a       240     0    12     1    20
 -9.3735251471508763E-01 a       241     0    13     1     1
 -3.1043242142039507E+00 a       242     0    13     1     2
 -6.7516553053449924E-01 a       243     0    13     1     3
  7.0786435288499727E-01 a       244     0    13     1     4
  2.2219680440903882E+00 a       245     0    13     1     5
 -5.6204713472871015E-01 a       246     0    13     1     6
 -1.1912680626879586E+00 a       247     0    13     1     7
 -1.2501207439143618E+00 a       248     0    13     1     8
  3.0783750054175454E+00 a       249     0    13     1     9
 -1.8104964651496167E+00 a       250     0    13     1    10
  1.1309809570956861E+00 a       251     0    13     1    11
  9.7583921813852803E-01 a       252     0    13     1    12
  1.6011148773320361E+00 a       253     0    13     1    13
  7.2665063358743687E-01 a       254     0    13     1    14
  2.0859743123763650E+00 a       255     0    13     1    15
 -1.8124166112143105E+00 a       256     0    13     1    16
 -5.7034110155274853E-01 a       257     0    13     1    17
  6.3450845333696826E-01 a       258     0    13     1    18
 -1.1627066447891794E+00 a       259     0    13     1    19
  1.3027748368524723E-02 a       260     0    13     1    20
  2.9609408511696150E-01 a       261     0    14     1     1
 -1.0595791111720458E+00 a       262     0    14     1     2
  4.9762235503592761E-01 a       263     0    14     1     3
 -4.4197680239704729E-01 a       264     0    14     1     4
 -4.4137521694960119E-01 a       265     0    14     1     5
 -7.0633533350502820E-01 a       266     0    14     1     6
 -5.1881243616663866E-02 a       267     0    14     1     7
  1.2078181196896616E-01 a       268     0    14     1     8
  2.5413465055571094E-01 a       269     0    14     1     9
 -1.4355597496588854E-01 a       270     0    14     1    10
 -5.1489241183507850E-01 a       271     0    14     1    11
 -8.2820176436595935E-02 a       272     0    14     1    12
  2.5785265997834622E-01 a       273     0    14     1    13
 -4.3466647800098135E-01 a       274     0    14     1    14
  3.9634422973523153E-01 a       275     0    14     1    15
 -1.7392868569740719E-02 a       276     0    14     1    16
 -4.7531370268702200E-01 a       277     0    14     1    17
  4.3286715998561470E-01 a       278     0    14     1    18
 -2.2137280756798366E-01 a       279     0    14     1    19
  5.1900673890967963E-01 a       280     0    14     1    20
 -1.0823747223050586E+00 a       281     0    15     1     1
 -1.7850304702592407E-01 a       282     0    15     1     2
  2.3171599828760894E-01 a       283     0    15     1     3
  1.5318422977175505E+00 a       284     0    15     1     4
 -2.1833739423195575E+00 a       285     0    15     1     5
  1.1128051014704980E+00 a       286     0    15     1     6
  8.9814536668856887E-02 a       287     0    15     1     7
  1.2618623746841706E+00 a       288     0    15     1     8
  5.8679511875547363E-01 a       289     0    15     1     9
 -1.6765850555976980E+00 a       290     0    15     1    10
  3.7652888532257656E-01 a       291     0    15     1    11
 -9.0139026655450590E-03 a       292     0    15     1    12
  2.8502677577852176E-01 a       293     0    15     1    13
 -6.7479920371459501E-01 a       294     0    15     1    14
  2.1711003789871783E-01 a       295     0    15     1    15
 -1.0866854142124329E+00 a       296     0    15     1    16
 -5.7627382855777957E-03 a       297     0    15     1    17
  5.1494261939586672E-01 a       298     0    15     1    18
 -1.6273452254205663E+00 a       299     0    15     1    19
  9.7919013052956494E-01 a       300     0    15     1    20
  7.9068385060120261E-01 a       301     0    16     1     1
 -8.3160610899431875E-01 a       302     0    16     1     2
 -1.4603618301828321E+00 a       303     0    16     1     3
  4.2965377188797699E-02 a       304     0    16     1     4
 -4.1089793578300393E-01 a       305     0    16     1     5
 -4.2799223789108498E-01 a       306     0    16     1     6
 -2.1040519274376587E-01 a       307     0    16     1     7
  1.6478351326723819E+00 a       308     0    16     1     8
 -6.6703972608574608E-02 a       309     0    16     1     9
  4.8847257491133494E-01 a       310     0    16     1    10
  9.6008364162375881E-01 a       311     0    16     1    11
 -1.2345249633672419E+00 a       312     0    16     1    12
 -7.3635490898824729E-01 a       313     0    16     1    13
 -1.6225811633941847E+00 a       314     0    16     1    14
  8.1243415041570655E-01 a       315     0    16     1    15
 -1.4011011841378216E+00 a       316     0    16     1    16
  8.0034582954810463E-01 a       317     0    16     1    17
  4.5968923503294751E-01 a       318     0    16     1    18
 -1.3070905225671375E-01 a       319     0    16     1    19
 -6.3979336744617366E-01 a       320     0    16     1    20
  1.3020937958966188E+00 a       321     0    17     1     1
 -2.5761608520020434E+00 a       322     0    17     1     2
  1.0946399051308124E+00 a       323     0    17     1     3
 -1.0918377198486870E+00 a       324     0    17     1     4
 -1.8123969721545312E+00 a       325     0    17     1     5
 -7.5819304490591255E-01 a       326     0    17     1     6
 -2.7545111644993903E-01 a       327     0    17     1     7
  1.5802909865306761E-01 a       328     0    17     1     8
  4.6432054721474125E-01 a       329     0    17     1     9
 -1.4602334455082126E-02 a       330     0    17     1    10
 -7.8146532537058111E-01 a       331     0    17     1    11
 -5.1744344352920923E-01 a       332     0    17     1    12
  6.8714072702370499E-01 a       333     0    17     1    13
 -6.3913906012765054E-01 a       334     0    17     1    14
  6.1522480308237726E-01 a       335     0    17     1    15
  3.2191907016550364E-02 a       336     0    17     1    16
 -6.1103634276875407E-01 a       337     0    17     1    17
  4.3568043047323729E-01 a       338     0    17     1    18
 -8.7711909036190194E-01 a       339     0    17     1    19
  1.0598681011429130E+00 a       340     0    17     1    20
 -1.7353234264193423E-01 a       341     0    18     1     1
 -6.3827195630101141E-01 a       342     0    18     1     2
  4.4133416461422215E-01 a       343     0    18     1     3
 -5.3249495607535091E-01 a       344     0    18     1     4
  5.1801840934156340E-01 a       345     0    18     1     5
 -4.8916925238254777E-02 a       346     0    18     1     6
 -5.8803352585694435E-01 a       347     0    18     1     7
 -3.8923542875889444E-01 a       348     0    18     1     8
 -1.4075966284213970E-01 a       349     0    18     1     9
  7.6556847408197271E-01 a       350     0    18     1    10
 -7.7000898436536669E-01 a       351     0    18     1    11
 -7.0070282138588091E-01 a       352     0    18     1    12
  1.0094720966304822E+00 a       353     0    18     1    13
  2.3500602214281288E-01 a       354     0    18     1    14
 -4.9989992559721363E-03 a       355     0    18     1    15
  4.7272883161509144E-01 a       356     0    18     1    16
 -3.2775933719032740E-01 a       357     0    18     1    17
 -4.6108120271291153E-01 a       358     0    18     1    18
  7.9343023656594547E-01 a       359     0    18     1    19
 -3.4284766272595586E-02 a       360     0    18     1    20
 -5.1689560238495147E-01 a       361     0    19     1     1
 -4.9715603874410347E-02 a       362     0    19     1     2
 -2.8825682077533754E-01 a       363     0    19     1     3
 -4.7263672939116663E-01 a       364     0    19     1     4
  7.1221947424815435E-01 a       365     0    19     1     5
 -3.3904698876919398E-01 a       366     0    19     1     6
  2.7457357258518084E-01 a       367     0    19     1     7
 -6.7929076690672241E-01 a       368     0    19     1     8
 -4.7725477879485684E-01 a       369     0    19     1     9
 -1.6098629322853103E-01 a       370     0    19     1    10
 -2.0386503479006829E-01 a       371     0    19     1    11
 -4.4298370170120233E-01 a       372     0    19     1    12
 -4.6867597989304804E-01 a       373     0    19     1    13
  1.8747452806021339E-01 a       374     0    19     1    14
  7.9463052086880970E-01 a       375     0    19     1    15
  1.3794714265684898E+00 a       376     0    19     1    16
 -6.5458614008669466E-02 a       377     0    19     1    17
  5.2573085554897903E-01 a       378     0    19     1    18
  1.7035280238357018E+00 a       379     0    19     1    19
 -1.2638756237151860E-01 a       380     0    19     1    20
  1.0655529216655495E+00 a       381     0    20     1     1
 -5.1022742396251930E-01 a       382     0    20     1     2
 -6.0471089002535505E-01 a       383     0    20     1     3
  5.1344341548702366E-01 a       384     0    20     1     4
 -2.9153809988685331E-01 a       385     0    20     1     5
  1.2663184928259990E+00 a       386     0    20     1     6
  2.9162717427559043E-01 a       387     0    20     1     7
  6.7112840392511253E-01 a       388     0    20     1     8
  5.5145792094775370E-01 a       389     0    20     1     9
 -6.7872062055280902E-01 a       390     0    20     1    10
 -4.1471139947885177E-01 a       391     0    20     1    11
 -1.1638511099913744E+00 a       392     0    20     1    12
  1.9941693426825968E-01 a       393     0    20     1    13
  1.1751357557834255E-01 a       394     0    20     1    14
  3.7944490118753904E-01 a       395     0    20     1    15
 -1.0047897721621417E+00 a       396     0    20     1    16
  7.8263404450700136E-01 a       397     0    20     1    17
 -8.3498096812876177E-01 a       398     0    20     1    18
  7.3275617812599136E-01 a       399     0    20     1    19
  8.4899620624155381E-01 a       400     0    20     1    20
 -1.4207333753347027E+00 a       401     0    21     1     1
 -2.0973194871284044E+00 a       402     0    21     1     2
  3.1992925638015224E-01 a       403     0    21     1     3
  1.2528965890997672E+00 a       404     0    21     1     4
  1.5618213736943281E+00 a       405     0    21     1     5
 -2.6056047793130016E-01 a       406     0    21     1     6
 -9.7712828755513226E-01 a       407     0    21     1     7
 -1.5145484322365412E+00 a       408     0    21     1     8
  1.8296251245691761E+00 a       409     0    21     1     9
 -1.7002504592410195E-01 a       410     0    21     1    10
 -2.1576754916055882E-01 a       411     0    21     1    11
  1.3049366327374648E-01 a       412     0    21     1    12
  1.4748012019306482E+00 a       413     0    21     1    13
  7.5134898973165265E-01 a       414     0    21     1    14
  8.1873509491387342E-01 a       415     0    21     1    15
 -6.6837333198943050E-01 a       416     0    21     1    16
 -4.4064123960362261E-01 a       417     0    21     1    17
 -7.7369462148166234E-03 a       418     0    21     1    18
  1.5417219464046425E-01 a       419     0    21     1    19
  1.0747906495328068E+00 a       420     0    21     1    20
 -1.5665774509480175E+00 a       421     0    22     1     1
  2.8516179861076756E+00 a       422     0    22     1     2
 -3.2635154179671971E-01 a       423     0    22     1     3
 -1.4711395539011072E+00 a       424     0    22     1     4
  8.1708621313500662E-01 a       425     0    22     1     5
  4.2383220638842850E-01 a       426     0    22     1     6
 -5.0348340575892624E-02 a       427     0    22     1     7
 -1.2761082313692145E+00 a       428     0    22     1     8
 -1.6008448220067848E+00 a       429     0    22     1     9
  7.5110816763219471E-02 a       430     0    22     1    10
  2.1756674812553591E-02 a       431     0    22     1    11
 -1.1123660020844275E+00 a       432     0    22     1    12
  3.4603099237623675E-01 a       433     0    22     1    13
  2.9010779646607019E+00 a       434     0    22     1    14
  3.4624393270266709E+00 a       435     0    22     1    15
  1.2107304855499741E+00 a       436     0    22     1    16
 -1.8134053222198496E+00 a       437     0    22     1    17
 -7.1427964695073820E-01 a       438     0    22     1    18
  3.2887611465994293E-01 a       439     0    22     1    19
 -5.7032158280495970E-01 a       440     0    22     1    20
 -5.2814943240560119E-01 a       441     0    23     1     1
  7.7891901622773785E-01 a       442     0    23     1     2
  1.6031893871687122E+00 a       443     0    23     1     3
 -1.3379353088874124E+00 a       444     0    23     1     4
  2.9700848132343025E+00 a       445     0    23     1     5
  6.0646895730097283E-01 a       446     0    23     1     6
  1.1862604666177239E+00 a       447     0    23     1     7
  6.6493793356191391E-02 a       448     0    23     1     8
 -6.1839524349232400E-01 a       449     0    23     1     9
 -1.3650824067544796E+00 a       450     0    23     1    10
 -8.1842476874522474E-01 a       451     0    23     1    11
 -7.3415575228266527E-01 a       452     0    23     1    12
  3.6540833297610815E+00 a       453     0    23     1    13
  5.6764128969709056E+00 a       454     0    23     1    14
  1.1319227386380328E+00 a       455     0    23     1    15
  9.1551772474865689E-01 a       456     0    23     1    16
 -3.0402391269266799E-01 a       457     0    23     1    17
 -1.0168337792659115E+00 a       458     0    23     1    18
  1.1976946532799506E+00 a       459     0    23     1    19
  1.8164322358725924E+00 a       460     0    23     1    20
 -9.2027450630740470E-02 a       461     0    24     1     1
 -5.7940160391639151E-01 a       462     0    24     1     2
 -1.4510821949467283E-02 a       463     0    24     1     3
  6.9657532121632426E-01 a       464     0    24     1     4
 -2.5280966086781453E-01 a       465     0    24     1     5
 -6.0560649273030365E-01 a       466     0    24     1     6
  9.2830495799714530E-02 a       467     0    24     1     7
 -4.5239135624919699E-02 a       468     0    24     1     8
 -1.0409388399387981E-01 a       469     0    24     1     9
  4.3557549765041015E-01 a       470     0    24     1    10
 -2.3798224955660946E-01 a       471     0    24     1    11
  7.7932573537635108E-02 a       472     0    24     1    12
 -8.6957421371890120E-01 a       473     0    24     1    13
  1.7866133452417646E-01 a       474     0    24     1    14
  8.0236021400219482E-01 a       475     0    24     1    15
 -2.7477401457742717E-01 a       476     0    24     1    16
 -3.9635281388808158E-01 a       477     0    24     1    17
  9.2006477243088775E-02 a       478     0    24     1    18
  1.5014187527031719E-01 a       479     0    24     1    19
  4.5104195643355764E-02 a       480     0    24     1    20
  5.7728507332779155E-01 a       481     0    25     1     1
 -2.3526190774007825E+00 a       482     0    25     1     2
 -1.8947875767662381E+00 a       483     0    25     1     3
 -5.3278731980166938E-01 a       484     0    25     1     4
 -1.1927983376300213E+00 a       485     0    25     1     5
  4.7417955135971884E-01 a       486     0    25     1     6
  9.7771388903924339E-01 a       487     0    25     1     7
  1.1560786819208937E+00 a       488     0    25     1     8
 -3.3236184798321761E-01 a       489     0    25     1     9
 -7.5384454708197468E-01 a       490     0    25     1    10
  2.8442465844550735E-01 a       491     0    25     1    11
  8.6893478311385597E-01 a       492     0    25     1    12
 -9.5340391934026214E-01 a       493     0    25     1    13
 -7.2495985867159285E-01 a       494     0    25     1    14
  6.9251595765987761E-01 a       495     0    25     1    15
 -7.5654578943700312E-01 a       496     0    25     1    16
  1.3911085271035220E+00 a       497     0    25     1    17
  3.2063556462148807E-01 a       498     0    25     1    18
 -1.8997855973526548E-01 a       499     0    25     1    19
  9.3149664215498729E-01 a       500     0    25     1    20
  1.5007272213306895E+00 a       501     0    26     1     1
 -1.7608776981925394E+00 a       502     0    26     1     2
 -1.1781834882838362E+00 a       503     0    26     1     3
 -1.2503337654488461E-01 a       504     0    26     1     4
 -1.2888750260636632E+00 a       505     0    26     1     5
  4.1570068308031338E-01 a       506     0    26     1     6
 -2.3069502968849673E-01 a       507     0    26     1     7
  7.6529518753608294E-01 a       508     0    26     1     8
 -1.8228197797054552E-01 a       509     0    26     1     9
  6.8722222884352946E-01 a       510     0    26     1    10
  7.6838968855092560E-01 a       511     0    26     1    11
 -3.0548606602309103E-01 a       512     0    26     1    12
 -8.9828797214978839E-01 a       513     0    26     1    13
 -1.2351541720749526E+00 a       514     0    26     1    14
  6.6119994154832773E-01 a       515     0    26     1    15
 -1.4400129305353075E+00 a       516     0    26     1    16
  1.0419493295153897E+00 a       517     0    26     1    17
 -1.9431640296753705E-01 a       518     0    26     1    18
 -6.7902206034000934E-01 a       519     0    26     1    19
 -2.1597261190024811E-01 a       520     0    26     1    20
 -2.5506260617775350E-01 a       521     0    27     1     1
  1.7629217406643083E-01 a       522     0    27     1     2
  3.5314413541047895E-01 a       523     0    27     1     3
 -4.9878793224664847E-01 a       524     0    27     1     4
  1.0015858875952368E+00 a       525     0    27     1     5
 -8.1021378588493309E-01 a       526     0    27     1     6
 -4.4398320083926324E-01 a       527     0    27     1     7
 -2.8796541843458251E-01 a       528     0    27     1     8
  2.3938293888474857E-01 a       529     0    27     1     9
  1.0752769306894849E+00 a       530     0    27     1    10
 -3.4713136498481284E-01 a       531     0    27     1    11
 -8.7342078159492598E-01 a       532     0    27     1    12
  6.7263878371222607E-01 a       533     0    27     1    13
  1.8833317645061667E-01 a       534     0    27     1    14
  3.2384003514931703E-02 a       535     0    27     1    15
  7.6484712801984334E-01 a       536     0    27     1    16
 -5.1258869380276129E-01 a       537     0    27     1    17
 -2.2439008552367262E-01 a       538     0    27     1    18
  7.8022092312173086E-01 a       539     0    27     1    19
 -2.7778551343062552E-01 a       540     0    27     1    20
  3.7298929127918418E-01 a       541     0    28     1     1
 -3.4568134208487283E-01 a       542     0    28     1     2
  7.1462365543549589E-01 a       543     0    28     1     3
 -6.7125067347994882E-01 a       544     0    28     1     4
 -1.0860752918943714E-02 a       545     0    28     1     5
 -4.0522663221882360E-01 a       546     0    28     1     6
 -8.7386510225793662E-02 a       547     0    28     1     7
  1.1215667975698879E-01 a       548     0    28     1     8
  1.2844664279541826E-01 a       549     0    28     1     9
  9.1298489745837097E-01 a       550     0    28     1    10
 -2.2671478329293360E-01 a       551     0    28     1    11
 -7.0242620114001031E-01 a       552     0    28     1    12
 -6.7118015824189942E-02 a       553     0    28     1    13
  4.0792059554451289E-02 a       554     0    28     1    14
 -5.8381297971286839E-01 a       555     0    28     1    15
  5.0100201620258411E-01 a       556     0    28     1    16
 -1.7740833580580029E-01 a       557     0    28     1    17
 -1.5361432137998349E-01 a       558     0    28     1    18
  6.8695317974389047E-01 a       559     0    28     1    19
 -2.8617058200344286E-01 a       560     0    28     1    20
  6.1548534219806472E-01 a       561     0    29     1     1
  5.5854587469198080E-01 a       562     0    29     1     2
  8.0936043523974166E-01 a       563     0    29     1     3
 -3.2642537558452511E-01 a       564     0    29     1     4
 -6.2923134954817928E-01 a       565     0    29     1     5
  1.1872906785609915E-02 a       566     0    29     1     6
  3.9537185745910147E-01 a       567     0    29     1     7
  7.2213775747620168E-01 a       568     0    29     1     8
 -2.8743123418437244E-01 a       569     0    29     1     9
  4.3480157756161453E-01 a       570     0    29     1    10
 -3.5300676382656537E-01 a       571     0    29     1    11
  1.3136558850904376E-01 a       572     0    29     1    12
  1.0824599768576368E-01 a       573     0    29     1    13
  9.6480141991731633E-02 a       574     0    29     1    14
 -8.5473395890701465E-01 a       575     0    29     1    15
 -6.3152058722466042E-01 a       576     0    29     1    16
  1.0225835861537903E-01 a       577     0    29     1    17
 -4.5531279514641798E-01 a       578     0    29     1    18
 -4.9649643980254865E-01 a       579     0    29     1    19
  2.4602053232271884E-01 a       580     0    29     1    20
 -2.3513413492491062E+00 a       581     0    30     1     1
  3.0289820279274524E+00 a       582     0    30     1     2
 -3.8220898710076114E+00 a       583     0    30     1     3
 -1.3561812269599864E+00 a       584     0    30     1     4
  4.7353795250132675E+00 a       585     0    30     1     5
  2.5312265364294246E+00 a       586     0    30     1     6
 -1.1361514156780970E+00 a       587     0    30     1     7
 -4.5009071047836080E-01 a       588     0    30     1     8
  6.2340987210215082E-01 a       589     0    30     1     9
  1.5620622163889575E-01 a       590     0    30     1    10
  6.8394217752142528E-01 a       591     0    30     1    11
  1.8202792321320695E+00 a       592     0    30     1    12
 -4.5227469362825152E+00 a       593     0    30     1    13
  9.6735279230591970E-02 a       594     0    30     1    14
  5.3463639988588052E-01 a       595     0    30     1    15
  5.3343602462023512E+00 a       596     0    30     1    16
  1.5673737368608658E+00 a       597     0    30     1    17
 -2.8489374491408235E+00 a       598     0    30     1    18
 -3.4054671318671965E+00 a       599     0    30     1    19
  3.7816326251848063E+00 a       600     0    30     1    20
  3.8536075428192804E+00 a       601     0    31     1     1
 -4.2279871104634464E-01 a       602     0    31     1     2
  7.4874415742017997E-01 a       603     0    31     1     3
  8.1323640378060347E-01 a       604     0    31     1     4
  1.9412451270154651E+00 a       605     0    31     1     5
 -8.9042228041884761E-02 a       606     0    31     1     6
  4.2379215567243744E-01 a       607     0    31     1     7
 -1.6315493126383387E-01 a       608     0    31     1     8
  1.2505649102301806E+00 a       609     0    31     1     9
  2.2361772603025956E+00 a       610     0    31     1    10
 -3.0287417693450962E+00 a       611     0    31     1    11
 -7.5891433406005226E-01 a       612     0    31     1    12
 -2.5617703548333051E+00 a       613     0    31     1    13
 -1.4012875636130200E+00 a       614     0    31     1    14
 -8.9127225749823538E+00 a       615     0    31     1    15
  2.4542501296882238E+00 a       616     0    31     1    16
  2.6421542621216219E+00 a       617     0    31     1    17
 -1.0836030723590795E+00 a       618     0    31     1    18
  6.8009312653253484E-01 a       619     0    31     1    19
  3.0406586993425417E+00 a       620     0    31     1    20
  7.7226497637682454E-02 a       621     0    32     1     1
  2.1548719009119073E+00 a       622     0    32     1     2
  1.8869003412566812E+00 a       623     0    32     1     3
 -9.5772848871126615E-01 a       624     0    32     1     4
  3.9423085153068665E-01 a       625     0    32     1     5
 -4.9328503380095895E-01 a       626     0    32     1     6
 -4.9048481954345757E-01 a       627     0    32     1     7
 -3.5819832397295678E-02 a       628     0    32     1     8
  4.4803195993376680E-03 a       629     0    32     1     9
 -4.0008743076975428E-01 a       630     0    32     1    10
  4.3081017319458914E-01 a       631     0    32     1    11
 -6.0841385883417343E-01 a       632     0    32     1    12
  1.9934126971624817E+00 a       633     0    32     1    13
  1.5720947218217174E+00 a       634     0    32     1    14
  1.0139023759620125E+00 a       635     0    32     1    15
  1.0522148288638298E+00 a       636     0    32     1    16
 -2.4791810533070255E+00 a       637     0    32     1    17
  1.2396463891753393E-01 a       638     0    32     1    18
  4.7199031888176857E-01 a       639     0    32     1    19
 -2.3951183733155204E+00 a       640     0    32     1    20
  1.9390263553197870E-01 a       641     0    33     1     1
 -4.1378084312061647E+00 a       642     0    33     1     2
 -3.5457237271922710E+00 a       643     0    33     1     3
  1.3116863437489781E+00 a       644     0    33     1     4
 -4.1849670861510697E+00 a       645     0    33     1     5
 -4.3586557238321599E-01 a       646     0    33     1     6
 -4.0764883255658074E-01 a       647     0    33     1     7
  2.0042004581707973E+00 a       648     0    33     1     8
  9.6151066992101897E-01 a       649     0    33     1     9
 -1.0919118850309841E+00 a       650     0    33     1    10
  1.1945318632604283E+00 a       651     0    33     1    11
  2.4090793654812561E+00 a       652     0    33     1    12
 -1.9716033455209228E+00 a       653     0    33     1    13
 -6.4654571909032708E+00 a       654     0    33     1    14
 -2.8747225480312475E-02 a       655     0    33     1    15
 -2.5146655686090753E+00 a       656     0    33     1    16
  2.0325580942623662E+00 a       657     0    33     1    17
  2.0869224259513270E+00 a       658     0    33     1    18
 -1.9404595315315283E+00 a       659     0    33     1    19
 -8.4920292938763775E-01 a       660     0    33     1    20
 -2.1876542670028973E-01 a       661     0    34     1     1
 -2.3398269202978494E+00 a       662     0    34     1     2
 -2.0677908610080786E+00 a       663     0    34     1     3
  7.5072799862823514E-01 a       664     0    34     1     4
 -4.1076463824799320E-01 a       665     0    34     1     5
  6.8379815958943280E-01 a       666     0    34     1     6
 -1.1947690827022453E-01 a       667     0    34     1     7
  3.3152080985824939E-01 a       668     0    34     1     8
 -1.7676404109944138E-01 a       669     0    34     1     9
  1.1870994762606237E+00 a       670     0    34     1    10
  4.1470721397956506E-01 a       671     0    34     1    11
  2.8135911849872630E-01 a       672     0    34     1    12
 -1.8235855364287690E+00 a       673     0    34     1    13
 -2.4694160459919647E+00 a       674     0    34     1    14
  4.9818819421335980E-01 a       675     0    34     1    15
 -1.8768423785731059E+00 a       676     0    34     1    16
  1.3254517327478943E+00 a       677     0    34     1    17
 -5.5713170390001421E-01 a       678     0    34     1    18
 -3.9322614584107130E-02 a       679     0    34     1    19
 -2.4844350689150980E-02 a       680     0    34     1    20
  7.1913930879076915E-01 a       681     0    35     1     1
 -1.8722461942891440E+00 a       682     0    35     1     2
 -8.4885706351125711E-01 a       683     0    35     1     3
  2.6324031817948285E-01 a       684     0    35     1     4
 -7.7498989720032962E-01 a       685     0    35     1     5
  2.5521126532195942E-01 a       686     0    35     1     6
 -4.6560277043542542E-01 a       687     0    35     1     7
  4.8647793327894995E-01 a       688     0    35     1     8
  6.3133075548268289E-02 a       689     0    35     1     9
  5.7692091870369533E-01 a       690     0    35     1    10
  4.1025967287721904E-01 a       691     0    35     1    11
 -6.6817465721623137E-01 a       692     0    35     1    12
 -3.3711168594443058E-01 a       693     0    35     1    13
 -1.2472325132458422E+00 a       694     0    35     1    14
  6.5697091085765236E-01 a       695     0    35     1    15
 -1.4766016308395751E+00 a       696     0    35     1    16
  6.8575991347467036E-01 a       697     0    35     1    17
 -2.3995831968525616E-01 a       698     0    35     1    18
 -3.3616993667026779E-01 a       699     0    35     1    19
 -1.8146837092472304E-01 a       700     0    35     1    20
  2.7625505104308699E-02 a       701     0    36     1     1
 -7.9915535616225566E-02 a       702     0    36     1     2
  6.0420988048110369E-01 a       703     0    36     1     3
 -6.5151236250004740E-01 a       704     0    36     1     4
  6.5005724829394695E-01 a       705     0    36     1     5
 -9.7279055226673006E-01 a       706     0    36     1     6
 -4.5001580665034230E-01 a       707     0    36     1     7
 -6.5175735591907258E-02 a       708     0    36     1     8
  2.4318079740258142E-01 a       709     0    36     1     9
  1.1296593022436883E+00 a       710     0    36     1    10
 -2.6953950027762585E-01 a       711     0    36     1    11
 -9.9607429122160696E-01 a       712     0    36     1    12
  5.3761999238088309E-01 a       713     0    36     1    13
 -9.1081666523299326E-02 a       714     0    36     1    14
 -1.2955148275103470E-01 a       715     0    36     1    15
  8.5459307733818390E-01 a       716     0    36     1    16
 -5.0918827739154959E-01 a       717     0    36     1    17
 -2.9613888297574287E-01 a       718     0    36     1    18
  7.7434732691259267E-01 a       719     0    36     1    19
 -2.0377423440147677E-01 a       720     0    36     1    20
  7.3855753551796666E-01 a       721     0    37     1     1
 -1.0297787702345863E-01 a       722     0    37     1     2
  8.0716424367204254E-01 a       723     0    37     1     3
 -9.7199991638849859E-01 a       724     0    37     1     4
 -3.4436193852801933E-01 a       725     0    37     1     5
 -6.5353816964664613E-01 a       726     0    37     1     6
  1.4873654873142203E-01 a       727     0    37     1     7
  3.1229842096933486E-01 a       728     0    37     1     8
 -1.5477176407854379E-01 a       729     0    37     1     9
  1.1433884366918892E+00 a       730     0    37     1    10
 -2.7461026027189478E-01 a       731     0    37     1    11
 -7.3718418182482759E-01 a       732     0    37     1    12
 -7.3879158312535553E-02 a       733     0    37     1    13
 -7.0433500531363241E-02 a       734     0    37     1    14
 -3.3559038500600891E-01 a       735     0    37     1    15
  7.3356234949126864E-01 a       736     0    37     1    16
 -5.3003230856624695E-01 a       737     0    37     1    17
 -2.0277921227538262E-01 a       738     0    37     1    18
  8.1599884050454119E-01 a       739     0    37     1    19
 -8.1775479074458635E-01 a       740     0    37     1    20
  3.5592563177793218E-01 a       741     0    38     1     1
  4.6145051275476093E-02 a       742     0    38     1     2
  1.0505795904583364E+00 a       743     0    38     1     3
  1.5991340080702532E+00 a       744     0    38     1     4
 -9.6568371697989674E-01 a       745     0    38     1     5
  9.0638195706450697E-01 a       746     0    38     1     6
 -8.1769693620403339E-01 a       747     0    38     1     7
  7.4216401710066982E-01 a       748     0    38     1     8
  4.2408128844027926E-01 a       749     0    38     1     9
  4.1829709665042053E-01 a       750     0    38     1    10
 -4.9205215491141119E-01 a       751     0    38     1    11
 -4.7119443014294049E-01 a       752     0    38     1    12
  1.1129277648154208E+00 a       753     0    38     1    13
 -1.1928351839435855E-01 a       754     0    38     1    14
 -1.8003175739524688E+00 a       755     0    38     1    15
 -2.4041999085964050E+00 a       756     0    38     1    16
  3.3454457394330717E-01 a       757     0    38     1    17
 -1.4024599577535664E+00 a       758     0    38     1    18
 -1.5498825247839092E+00 a       759     0    38     1    19
  8.2580507232900358E-01 a       760     0    38     1    20
  1.3696830102921984E+00 a       761     0    39     1     1
  2.5624242947873692E+00 a       762     0    39     1     2
 -5.9415774234290830E-01 a       763     0    39     1     3
  2.8977607951755582E+00 a       764     0    39     1     4
  5.5920232969862593E-01 a       765     0    39     1     5
  1.1560978836350464E+00 a       766     0    39     1     6
  3.3050997308229341E-01 a       767     0    39     1     7
  6.6759041107242245E-01 a       768     0    39     1     8
 -6.1042042123468743E-01 a       769     0    39     1     9
 -9.7118032241541319E-01 a       770     0    39     1    10
  4.6685082156466484E-01 a       771     0    39     1    11
 -1.4200508236525957E+00 a       772     0    39     1    12
 -3.7307086483510038E-01 a       773     0    39     1    13
 -9.8383218939042316E-01 a       774     0    39     1    14
  5.4815349550144854E-01 a       775     0    39     1    15
 -7.6372235395207622E-01 a       776     0    39     1    16
  1.8538222026891091E+00 a       777     0    39     1    17
 -8.9980031685646911E-01 a       778     0    39     1    18
  5.8904364159917166E-01 a       779     0    39     1    19
  3.2413975784599997E-01 a       780     0    39     1    20
  5.0657094005323133E-01 a       781     0    40     1     1
 -7.0655459527688802E-01 a       782     0    40     1     2
 -2.8626738136101249E-01 a       783     0    40     1     3
  2.7776190229500441E-01 a       784     0    40     1     4
 -7.7258833612621869E-01 a       785     0    40     1     5
  7.3720308117499078E-02 a       786     0    40     1     6
 -5.0859823979253282E-01 a       787     0    40     1     7
  6.3224462986203189E-01 a       788     0    40     1     8
 -2.0177574971134088E-01 a       789     0    40     1     9
  9.0399255799465256E-02 a       790     0    40     1    10
 -1.2609134326802895E-01 a       791     0    40     1    11
  2.5814091734687537E-02 a       792     0    40     1    12
 -5.9499745942421711E-01 a       793     0    40     1    13
 -2.2291531593663680E-01 a       794     0    40     1    14
  8.4568806313730971E-01 a       795     0    40     1    15
 -6.1842729959589338E-01 a       796     0    40     1    16
 -6.7770927256128211E-02 a       797     0    40     1    17
  2.9095005175222122E-01 a       798     0    40     1    18
  2.4051981466700093E-01 a       799     0    40     1    19
  4.5769763240278150E-01 a       800     0    40     1    20
 -1.5750883718056528E+00 a       801     0    41     1     1
  1.4088899460913789E+00 a       802     0    41     1     2
 -8.1758247963930319E-01 a       803     0    41     1     3
 -1.0056137554791313E+00 a       804     0    41     1     4
  1.7211929389662457E+00 a       805     0    41     1     5
  7.3032751526963591E-01 a       806     0    41     1     6
  5.6367242236544335E-01 a       807     0    41     1     7
 -9.0849251561170619E-01 a       808     0    41     1     8
 -7.5321796074549252E-02 a       809     0    41     1     9
  2.8401179013132449E-01 a       810     0    41     1    10
  9.3001938566329476E-02 a       811     0    41     1    11
  5.5516492688844558E-02 a       812     0    41     1    12
 -4.2357821767339238E-01 a       813     0    41     1    13
 -2.7367039537262994E-01 a       814     0    41     1    14
 -1.9845010576355495E+00 a       815     0    41     1    15
  2.3435214051533064E+00 a       816     0    41     1    16
  1.5980771525061568E-02 a       817     0    41     1    17
 -8.6105897913212937E-01 a       818     0    41     1    18
 -8.9583243431799187E-01 a       819     0    41     1    19
  1.4529196905133974E+00 a       820     0    41     1    20
  3.1837876291852241E+00 a       821     0    42     1     1
 -3.8785637842376648E+00 a       822     0    42     1     2
  4.8758597262324015E+00 a       823     0    42     1     3
  2.4869467915018153E+00 a       824     0    42     1     4
 -5.8564231579694930E+00 a       825     0    42     1     5
 -3.2830725586941925E+00 a       826     0    42     1     6
  6.2518467775613484E-01 a       827     0    42     1     7
  1.5587702620877282E+00 a       828     0    42     1     8
 -1.2282961679889963E+00 a       829     0    42     1     9
 -2.3328195913385985E-01 a       830     0    42     1    10
 -2.6648122845667266E-01 a       831     0    42     1    11
 -1.6853589835387977E+00 a       832     0    42     1    12
  5.4401531068318603E+00 a       833     0    42     1    13
  5.7022545380749334E-01 a       834     0    42     1    14
  1.8700079074029217E+00 a       835     0    42     1    15
 -7.5028884067551687E+00 a       836     0    42     1    16
 -1.8826837173607438E+00 a       837     0    42     1    17
  3.7344788002916984E+00 a       838     0    42     1    18
  4.1549972002319766E+00 a       839     0    42     1    19
 -5.8930125355967240E+00 a       840     0    42     1    20
 -4.6571563723151979E+00 a       841     0    43     1     1
  1.0538370888340596E+00 a       842     0    43     1     2
 -1.3989864444524351E+00 a       843     0    43     1     3
 -1.2667159563455321E+00 a       844     0    43     1     4
 -1.1754189802120718E+00 a       845     0    43     1     5
  5.3300292689149975E-01 a       846     0    43     1     6
 -2.1907599870617794E-01 a       847     0    43     1     7
 -2.8418147396788779E-01 a       848     0    43     1     8
 -1.9682326539267689E+00 a       849     0    43     1     9
 -1.6038960704400509E+00 a       850     0    43     1    10
  2.4951853820594567E+00 a       851     0    43     1    11
  8.3475878916469171E-01 a       852     0    43     1    12
  1.7454649911661122E+00 a       853     0    43     1    13
  1.2419213040862214E+00 a       854     0    43     1    14
  8.7107011379183881E+00 a       855     0    43     1    15
 -1.8206247270477396E+00 a       856     0    43     1    16
 -2.7111888392514216E+00 a       857     0    43     1    17
  4.8185572419096456E-01 a       858     0    43     1    18
 -8.9332270958594084E-01 a       859     0    43     1    19
 -1.7803183470419734E+00 a       860     0    43     1    20
  1.5622500813023499E-01 a       861     0    44     1     1
  1.1819079449556806E+00 a       862     0    44     1     2
  2.6218572260473150E+00 a       863     0    44     1     3
  1.4650335237140435E+00 a       864     0    44     1     4
 -1.7872813567201518E+00 a       865     0    44     1     5
  8.9173328160655441E-01 a       866     0    44     1     6
 -8.1369760998154417E-01 a       867     0    44     1     7
 -2.6627070305268069E-01 a       868     0    44     1     8
 -1.0278217856649519E+00 a       869     0    44     1     9
  1.5625082351022810E+00 a       870     0    44     1    10
 -1.5064430610612523E+00 a       871     0    44     1    11
 -5.7200348181133132E-01 a       872     0    44     1    12
 -3.8304839224286075E-01 a       873     0    44     1    13
 -1.2384695387412048E+00 a       874     0    44     1    14
 -1.1060818224388022E-01 a       875     0    44     1    15
  1.1522586412416100E+00 a       876     0    44     1    16
  8.2690062483814109E-01 a       877     0    44     1    17
 -4.7917874116193226E-01 a       878     0    44     1    18
  6.7156370455528525E-01 a       879     0    44     1    19
  1.2414727622032731E+00 a       880     0    44     1    20
  2.2723089777302818E+00 a       881     0    45     1     1
 -4.1605476100778773E+00 a       882     0    45     1     2
 -2.0655371398360259E-01 a       883     0    45     1     3
  2.0363949326256003E+00 a       884     0    45     1     4
 -3.9245694767735850E-01 a       885     0    45     1     5
  3.3509360506644152E-02 a       886     0    45     1     6
  7.4120557955289479E-01 a       887     0    45     1     7
  2.3560078786296784E-01 a       888     0    45     1     8
  1.8627163087604566E+00 a       889     0    45     1     9
  1.1147647662620841E+00 a       890     0    45     1    10
 -9.2563199624031722E-01 a       891     0    45     1    11
  2.7107902102871617E-01 a       892     0    45     1    12
 -2.1305805569499197E+00 a       893     0    45     1    13
 -2.1741720827439779E+00 a       894     0    45     1    14
 -5.2584743349643404E+00 a       895     0    45     1    15
 -1.4341801830314234E+00 a       896     0    45     1    16
  3.9232288808477520E+00 a       897     0    45     1    17
 -2.4274158274795427E-01 a       898     0    45     1    18
  3.6301239094488230E-01 a       899     0    45     1    19
  2.9998880471852565E+00 a       900     0    45     1    20
  6.8761970291825403E-01 a       901     0    46     1     1
  4.5078212341029564E+00 a       902     0    46     1     2
  2.7373140858226352E+00 a       903     0    46     1     3
  3.4514728208127610E-01 a       904     0    46     1     4
  1.3378100407646381E+00 a       905     0    46     1     5
 -1.2703151810145814E+00 a       906     0    46     1     6
 -1.4961512042877496E+00 a       907     0    46     1     7
 -1.2549685767150560E+00 a       908     0    46     1     8
 -4.2728681821443620E-01 a       909     0    46     1     9
  2.5144605369731132E+00 a       910     0    46     1    10
 -2.9955138333474851E-01 a       911     0    46     1    11
 -1.1111780799752777E+00 a       912     0    46     1    12
 -8.6827001820722616E-01 a       913     0    46     1    13
  6.6060973911418408E-01 a       914     0    46     1    14
 -7.8312940892964544E-01 a       915     0    46     1    15
  1.9382187907774175E+00 a       916     0    46     1    16
 -2.3435928369511476E+00 a       917     0    46     1    17
 -4.0628979919615199E-01 a       918     0    46     1    18
  4.6498079978700413E-04 a       919     0    46     1    19
 -2.1264194077438940E+00 a       920     0    46     1    20
 -1.1343843679073689E+00 a       921     0    47     1     1
  2.8254510007643119E+00 a       922     0    47     1     2
  3.8019299003346494E+00 a       923     0    47     1     3
 -5.3462907680646377E-01 a       924     0    47     1     4
  4.0259774479077953E-01 a       925     0    47     1     5
 -2.2783847258899419E+00 a       926     0    47     1     6
 -8.2981547526631416E-01 a       927     0    47     1     7
 -7.9088999905984891E-01 a       928     0    47     1     8
  4.6491644917424763E-01 a       929     0    47     1     9
 -1.2564985290851920E+00 a       930     0    47     1    10
 -1.7777846407584614E+00 a       931     0    47     1    11
  2.6347248382188410E-01 a       932     0    47     1    12
  2.6131318925819969E+00 a       933     0    47     1    13
  2.1994773338350466E+00 a       934     0    47     1    14
 -4.2081711477180872E-01 a       935     0    47     1    15
  3.1525670626698350E+00 a       936     0    47     1    16
 -3.0315722259703466E+00 a       937     0    47     1    17
  5.6078814067462901E-01 a       938     0    47     1    18
 -6.8205322223225806E-01 a       939     0    47     1    19
  6.4836875271942607E-01 a       940     0    47     1    20
  5.7811232623145226E-01 a       941     0    48     1     1
  1.1755027042100021E+00 a       942     0    48     1     2
  2.1071207856903844E+00 a       943     0    48     1     3
 -2.2940394253484677E+00 a       944     0    48     1     4
  1.1626017137316851E+00 a       945     0    48     1     5
 -1.1204555535643183E-01 a       946     0    48     1     6
  7.2526763236481262E-01 a       947     0    48     1     7
 -2.4644895120762582E+00 a       948     0    48     1     8
 -5.0893927187561472E-01 a       949     0    48     1     9
  7.5153802648119394E-01 a       950     0    48     1    10
 -1.1088092233336599E+00 a       951     0    48     1    11
  9.9041949192504508E-01 a       952     0    48     1    12
  4.2536033537892576E-01 a       953     0    48     1    13
  2.3169560912166007E+00 a       954     0    48     1    14
 -8.0502689842546049E-01 a       955     0    48     1    15
  3.6324688537965608E+00 a       956     0    48     1    16
 -8.6039073856606785E-01 a       957     0    48     1    17
 -7.8482693948617221E-01 a       958     0    48     1    18
  1.2524823888407262E+00 a       959     0    48     1    19
  2.4640653058831741E-01 a       960     0    48     1    20
  2.4383278965385072E-01 a       961     0    49     1     1
  7.3766773584864942E-01 a       962     0    49     1     2
 -5.1671102793779078E-01 a       963     0    49     1     3
  1.4651738983638916E+00 a       964     0    49     1     4
 -2.9218561670411587E+00 a       965     0    49     1     5
  1.4930241783530760E+00 a       966     0    49     1     6
  1.1555548800762574E+00 a       967     0    49     1     7
  7.4096504487941439E-01 a       968     0    49     1     8
 -7.1992687334921124E-01 a       969     0    49     1     9
 -2.4660114729400093E+00 a       970     0    49     1    10
 -3.3594824748602437E-01 a       971     0    49     1    11
  1.4837952486269446E+00 a       972     0    49     1    12
  1.7784516853691995E-01 a       973     0    49     1    13
  5.7166552492510758E-01 a       974     0    49     1    14
  4.5591868095243182E-01 a       975     0    49     1    15
 -2.1725081650933102E+00 a       976     0    49     1    16
  1.6852700456963230E+00 a       977     0    49     1    17
  2.0256014234561186E+00 a       978     0    49     1    18
 -2.2113279230327034E+00 a       979     0    49     1    19
  3.8154741403486310E+00 a       980     0    49     1    20
 -7.2057149174616675E-01 a       981     0    50     1     1
 -7.4735697695774228E-01 a       982     0    50     1     2
  3.0234543474470090E+00 a       983     0    50     1     3
  1.0018030399961684E+00 a       984     0    50     1     4
 -4.9068741692795359E-01 a       985     0    50     1     5
 -9.1505202991675960E-01 a       986     0    50     1     6
  1.8701433699724697E+00 a       987     0    50     1     7
 -1.0429329991499161E+00 a       988     0    50     1     8
 -1.1544783213763721E+00 a       989     0    50     1     9
  1.7820703921061709E+00 a       990     0    50     1    10
 -1.8364664322921787E+00 a       991     0    50     1    11
 -6.4141882505836956E-01 a       992     0    50     1    12
 -8.0540993030378227E-01 a       993     0    50     1    13
 -4.2252639929072938E-01 a       994     0    50     1    14
 -1.5256545451267951E+00 a       995     0    50     1    15
  5.5539146816186253E+00 a       996     0    50     1    16
 -1.0538827702699731E+00 a       997     0    50     1    17
 -1.1355862072395824E+00 a       998     0    50     1    18
  4.8436925493821024E+00 a       999     0    50     1    19
  1.9678140128740045E+00 a      1000     0    50     1    20
 -5.4194963716244182E-01 a      1001     0    51     1     1
  9.6754304673966662E-01 a      1002     0    51     1     2
  3.2662847181390708E-01 a      1003     0    51     1     3
  1.2138531259614020E+00 a      1004     0    51     1     4
 -4.1372864519344887E-01 a      1005     0    51     1     5
  9.0910043776198535E-01 a      1006     0    51     1     6
  2.5685222028730653E-01 a      1007     0    51     1     7
  4.0559960162985736E-01 a      1008     0    51     1     8
  7.7267636982681798E-01 a      1009     0    51     1     9
  1.1383055440946779E-01 a      1010     0    51     1    10
  3.0134715444711346E-01 a      1011     0    51     1    11
 -2.7118101056778360E-01 a      1012     0    51     1    12
  4.0035984187498021E-02 a      1013     0    51     1    13
 -3.4123181875749137E-01 a      1014     0    51     1    14
 -9.1702825682381306E-01 a      1015     0    51     1    15
 -2.1294031527947612E+00 a      1016     0    51     1    16
  4.8011434208808029E-01 a      1017     0    51     1    17
  2.7310469332839049E-01 a      1018     0    51     1    18
 -1.4731768301951307E+00 a      1019     0    51     1    19
  7.6264916429087259E-01 a      1020     0    51     1    20
 -2.9517447070878688E+00 a      1021     0    52     1     1
 -1.5938713551110746E+00 a      1022     0    52     1     2
  9.8660980480422944E-01 a      1023     0    52     1     3
 -2.1680009925103656E+00 a      1024     0    52     1     4
  3.3332616355773276E-01 a      1025     0    52     1     5
 -1.9524848569532758E+00 a      1026     0    52     1     6
 -1.5610356177933638E-01 a      1027     0    52     1     7
 -8.4636434328901444E-01 a      1028     0    52     1     8
 -5.9622717598629360E-01 a      1029     0    52     1     9
  1.1672821138562790E+00 a      1030     0    52     1    10
  1.7594675211251273E-01 a      1031     0    52     1    11
  1.8377851946968489E+00 a      1032     0    52     1    12
  1.0604420615195185E+00 a      1033     0    52     1    13
  1.7345763872199318E+00 a      1034     0    52     1    14
 -1.3374953288876421E+00 a      1035     0    52     1    15
  1.2524913745731170E+00 a      1036     0    52     1    16
 -1.8801406006204420E+00 a      1037     0    52     1    17
  7.0708351725505736E-01 a      1038     0    52     1    18
 -9.8735720760603263E-01 a      1039     0    52     1    19
 -8.9733889647345699E-01 a      1040     0    52     1    20
 -5.4209165163259359E+00 a      1041     0    53     1     1
 -2.8480040585849151E+00 a      1042     0    53     1     2
 -6.6621181402174989E-01 a      1043     0    53     1     3
  1.8924724226571754E+00 a      1044     0    53     1     4
  2.5966912460404323E+00 a      1045     0    53     1     5
 -4.3812918661487572E+00 a      1046     0    53     1     6
 -2.3584185575190633E+00 a      1047     0    53     1     7
  4.8271468814039347E+00 a      1048     0    53     1     8
 -1.8452024769916575E+00 a      1049     0    53     1     9
 -2.1646785162378008E+00 a      1050     0    53     1    10
 -1.9110393878751750E+00 a      1051     0    53     1    11
  3.1776847267968114E+00 a      1052     0    53     1    12
  1.2596138670075160E-01 a      1053     0    53     1    13
  7.7963434062626629E+00 a      1054     0    53     1    14
 -1.2216687912094780E-01 a      1055     0    53     1    15
  3.1819776537102129E+00 a      1056     0    53     1    16
 -2.2814344405943627E+00 a      1057     0    53     1    17
  2.2559100354152926E+00 a      1058     0    53     1    18
 -2.3525796708997224E+00 a      1059     0    53     1    19
 -7.4356220929853911E-01 a      1060     0    53     1    20
  2.7753033825814644E+00 a      1061     0    54     1     1
  1.1172413296488388E+00 a      1062     0    54     1     2
  7.0594634244101728E+00 a      1063     0    54     1     3
 -1.9261524989969305E+00 a      1064     0    54     1     4
  1.0513840260582574E+00 a      1065     0    54     1     5
  1.9918594017633322E+00 a      1066     0    54     1     6
  1.5835814649442572E+00 a      1067     0    54     1     7
 -2.9146131486602189E+00 a      1068     0    54     1     8
  1.3502127851862820E+00 a      1069     0    54     1     9
  4.0705776719928410E+00 a      1070     0    54     1    10
  3.2994532290654899E+00 a      1071     0    54     1    11
 -1.8130854837555812E+00 a      1072     0    54     1    12
  1.6993275480746947E-01 a      1073     0    54     1    13
 -7.9143683513112260E+00 a      1074     0    54     1    14
  1.4827271087974072E+00 a      1075     0    54     1    15
 -2.1161857904982777E+00 a      1076     0    54     1    16
  3.4430511354518600E+00 a      1077     0    54     1    17
 -1.2553361892924517E+00 a      1078     0    54     1    18
  2.3833639099731325E+00 a      1079     0    54     1    19
  3.4928344053710103E+00 a      1080     0    54     1    20
  2.3825241477687942E+00 a      1081     0    55     1     1
  9.5510834585560522E-01 a      1082     0    55     1     2
  1.0665459615239667E+00 a      1083     0    55     1     3
 -1.0317294126679455E+00 a      1084     0    55     1     4
 -2.5345920232738153E+00 a      1085     0    55     1     5
  1.9898617697318475E+00 a      1086     0    55     1     6
  1.0320214528966252E+00 a      1087     0    55     1     7
 -2.5648555127800399E+00 a      1088     0    55     1     8
  1.0086340301941423E+00 a      1089     0    55     1     9
  8.6583866912888718E-02 a      1090     0    55     1    10
 -2.8219357950099382E+00 a      1091     0    55     1    11
 -8.1904563742745962E-01 a      1092     0    55     1    12
 -1.3705063534276791E+00 a      1093     0    55     1    13
 -2.7626003008529083E+00 a      1094     0    55     1    14
  1.1793705337531379E+00 a      1095     0    55     1    15
  8.7933639266033847E-01 a      1096     0    55     1    16
 -1.1853467630705672E+00 a      1097     0    55     1    17
  1.0309889228986133E+00 a      1098     0    55     1    18
  7.1277837034043334E-01 a      1099     0    55     1    19
 -2.3879078699629170E+00 a      1100     0    55     1    20
  1.0094519428924480E+01 a      1101     0    56     1     1
  1.2644675655196012E+01 a      1102     0    56     1     2
  3.5319424305613443E+00 a      1103     0    56     1     3
 -1.1583215584383375E+01 a      1104     0    56     1     4
 -1.2918467317475283E+01 a      1105     0    56     1     5
 -1.2848724484706127E+01 a      1106     0    56     1     6
 -1.2612913763934523E+00 a      1107     0    56     1     7
  5.8150455841874003E+00 a      1108     0    56     1     8
 -3.4561718325834749E+00 a      1109     0    56     1     9
 -6.5687277598985192E+00 a      1110     0    56     1    10
  1.3994104217967475E+01 a      1111     0    56     1    11
 -5.1257362302647751E+00 a      1112     0    56     1    12
 -1.2620947193721683E+01 a      1113     0    56     1    13
 -7.7842282265775067E+00 a      1114     0    56     1    14
 -9.9757383706862317E+00 a      1115     0    56     1    15
  1.5286787161695422E+01 a      1116     0    56     1    16
 -8.3528884998719519E+00 a      1117     0    56     1    17
  9.2137697082234276E+00 a      1118     0    56     1    18
 -9.4497213516675913E+00 a      1119     0    56     1    19
 -1.0905342670990699E+01 a      1120     0    56     1    20
 -1.5155517826028854E+01 a      1121     0    57     1     1
 -8.4540329112691803E-01 a      1122     0    57     1     2
  1.0975366062079896E+01 a      1123     0    57     1     3
  1.2780305248162970E+01 a      1124     0    57     1     4
 -2.6183498621316996E+00 a      1125     0    57     1     5
 -7.2919423462886286E+00 a      1126     0    57     1     6
 -9.0982137402036685E+00 a      1127     0    57     1     7
 -1.1553280265795093E+01 a      1128     0    57     1     8
  2.5004193121318727E+00 a      1129     0    57     1     9
 -5.7469027059298139E-01 a      1130     0    57     1    10
  5.1501336363297590E+00 a      1131     0    57     1    11
 -2.6085607603092087E-01 a      1132     0    57     1    12
  7.7228194451354115E+00 a      1133     0    57     1    13
  1.4207378583759121E+01 a      1134     0    57     1    14
  2.7673710654442254E+00 a      1135     0    57     1    15
 -1.2968362739175895E+01 a      1136     0    57     1    16
  6.0637722242905889E+00 a      1137     0    57     1    17
 -1.3983056978632963E+01 a      1138     0    57     1    18
  7.6586453302280315E+00 a      1139     0    57     1    19
  2.5169482175669593E+01 a      1140     0    57     1    20
  4.1289729384541838E+00 a      1141     0    58     1     1
 -5.6302617511754827E-01 a      1142     0    58     1     2
  5.1491846653990168E+00 a      1143     0    58     1     3
  2.8051972029238503E+00 a      1144     0    58     1     4
  6.1516181948088844E-01 a      1145     0    58     1     5
  9.7416648331692779E-01 a      1146     0    58     1     6
  2.8414190039941928E-01 a      1147     0    58     1     7
 -2.9171222296457850E+00 a      1148     0    58     1     8
 -2.0496549698955771E+00 a      1149     0    58     1     9
 -2.5309052775320358E+00 a      1150     0    58     1    10
 -9.3579905686917975E-01 a      1151     0    58     1    11
  1.4900258494478753E+00 a      1152     0    58     1    12
  5.4497531626490858E-01 a      1153     0    58     1    13
  2.2679866479095822E-02 a      1154     0    58     1    14
 -1.5388140959472050E+00 a      1155     0    58     1    15
 -3.6648371693397923E+00 a      1156     0    58     1    16
 -3.7065008992199272E-01 a      1157     0    58     1    17
  1.0741264139072875E+00 a      1158     0    58     1    18
 -2.1447742145927684E+00 a      1159     0    58     1    19
  2.0816560867835969E+00 a      1160     0    58     1    20
 -3.4567354441701101E+00 a      1161     0    59     1     1
 -6.3488317729809263E-01 a      1162     0    59     1     2
  1.5806811443089075E+00 a      1163     0    59     1     3
  1.5456925680026736E+00 a      1164     0    59     1     4
  2.1375645976190758E+00 a      1165     0    59     1     5
 -7.9058309549247618E-01 a      1166     0    59     1     6
 -5.0001091781803242E-01 a      1167     0    59     1     7
 -9.3406705637650789E-01 a      1168     0    59     1     8
  8.7954788794415109E-02 a      1169     0    59     1     9
 -1.2909744571985649E+00 a      1170     0    59     1    10
 -1.1020824490440042E+00 a      1171     0    59     1    11
  5.1211476559642677E-01 a      1172     0    59     1    12
 -6.8652283455536900E-01 a      1173     0    59     1    13
  1.5057478843276986E+00 a      1174     0    59     1    14
  1.8849952949048676E+00 a      1175     0    59     1    15
  4.6470154340873443E-01 a      1176     0    59     1    16
 -2.4297158230855582E+00 a      1177     0    59     1    17
  1.1996842286507501E+00 a      1178     0    59     1    18
 -4.7114633966865824E+00 a      1179     0    59     1    19
 -3.7139443244665776E-01 a      1180     0    59     1    20
  7.3243414431952321E+00 a      1181     0    60     1     1
  1.1300869631227844E+01 a      1182     0    60     1     2
  5.7071887712755300E+00 a      1183     0    60     1     3
 -1.9180156334901524E+00 a      1184     0    60     1     4
 -2.0536437307585480E+01 a      1185     0    60     1     5
  3.7197379173940117E+00 a      1186     0    60     1     6
  4.9143502508307844E+00 a      1187     0    60     1     7
  5.7705138443898711E+00 a      1188     0    60     1     8
  1.2916714663393045E+00 a      1189     0    60     1     9
 -2.8875907984850544E+00 a      1190     0    60     1    10
  2.6152225971600012E+00 a      1191     0    60     1    11
  7.5493550767647577E-01 a      1192     0    60     1    12
 -1.1905015130323891E+01 a      1193     0    60     1    13
 -5.5340283110500890E+00 a      1194     0    60     1    14
  6.0000153395084643E-01 a      1195     0    60     1    15
  6.0464247895871717E+00 a      1196     0    60     1    16
 -8.2814865498271288E+00 a      1197     0    60     1    17
 -3.0246476821462225E+00 a      1198     0    60     1    18
 -4.7999974440005237E+00 a      1199     0    60     1    19
 -6.8948208345059241E+00 a      1200     0    60     1    20
  3.1512506115484067E+00 a      1201     0    61     1     1
  1.8272319078568364E+00 a      1202     0    61     1     2
 -4.7718258636072148E+00 a      1203     0    61     1     3
  4.4065351747334534E+00 a      1204     0    61     1     4
  2.2716468911273098E+00 a      1205     0    61     1     5
  1.9110699965834703E+00 a      1206     0    61     1     6
 -4.0613316529598836E-01 a      1207     0    61     1     7
 -1.2343546513922938E+00 a      1208     0    61     1     8
  3.0870644613260625E+00 a      1209     0    61     1     9
  3.1765162603415879E-02 a      1210     0    61     1    10
 -1.9750913830215451E+00 a      1211     0    61     1    11
  1.8612356893046160E+00 a      1212     0    61     1    12
  3.9778395565346729E+00 a      1213     0    61     1    13
  3.0126194581318716E-01 a      1214     0    61     1    14
 -2.5998956148746877E+00 a      1215     0    61     1    15
 -6.8750388573616910E+00 a      1216     0    61     1    16
 -2.5885567259748239E+00 a      1217     0    61     1    17
 -4.3953244529073849E+00 a      1218     0    61     1    18
 -1.7893469486213473E-01 a      1219     0    61     1    19
  5.9577622145708342E-01 a      1220     0    61     1    20
 -1.7945094058607880E+00 a      1221     0    62     1     1
  1.5868535261714418E+00 a      1222     0    62     1     2
 -2.8297657023547247E+00 a      1223     0    62     1     3
 -1.5062275174880438E-01 a      1224     0    62     1     4
 -2.7109339430158350E+00 a      1225     0    62     1     5
  3.0246085995179541E+00 a      1226     0    62     1     6
  5.0055621017202523E-01 a      1227     0    62     1     7
  5.2072839873881307E+00 a      1228     0    62     1     8
 -3.7351281935327396E-01 a      1229     0    62     1     9
 -2.4338304955848578E-01 a      1230     0    62     1    10
 -4.9483476306641377E-01 a      1231     0    62     1    11
 -3.8824194887248469E+00 a      1232     0    62     1    12
 -2.3147097008063886E+00 a      1233     0    62     1    13
 -1.4728897976664352E+00 a      1234     0    62     1    14
 -2.0243262080736319E+00 a      1235     0    62     1    15
 -8.6602896535971996E-01 a      1236     0    62     1    16
  3.9877842944746229E+00 a      1237     0    62     1    17
 -1.1441680494110205E+00 a      1238     0    62     1    18
 -1.5126202590212401E-01 a      1239     0    62     1    19
 -2.1144892830182518E+00 a      1240     0    62     1    20
 -5.4271444368233430E+00 a      1241     0    63     1     1
 -1.1596573497981721E+01 a      1242     0    63     1     2
 -6.5098697078575656E+00 a      1243     0    63     1     3
  3.3751037195431111E+00 a      1244     0    63     1     4
  1.0269586362937494E+01 a      1245     0    63     1     5
  7.4988484626062080E-01 a      1246     0    63     1     6
  6.5466916885936115E+00 a      1247     0    63     1     7
 -6.1277097147381889E+00 a      1248     0    63     1     8
 -3.7931080997154637E-01 a      1249     0    63     1     9
  7.1212956184328835E+00 a      1250     0    63     1    10
 -7.8450851713736487E+00 a      1251     0    63     1    11
  1.8278003660246445E+00 a      1252     0    63     1    12
  1.4130345486577049E+01 a      1253     0    63     1    13
  1.2162477213439851E+00 a      1254     0    63     1    14
  2.6357903621172958E+00 a      1255     0    63     1    15
 -6.5912389115662338E+00 a      1256     0    63     1    16
  2.9914525349127046E+00 a      1257     0    63     1    17
 -3.4327336464485825E+00 a      1258     0    63     1    18
  9.6246549146877634E+00 a      1259     0    63     1    19
  9.2715572063121723E+00 a      1260     0    63     1    20
 -2.4827007332173094E+00 a      1261     0    64     1     1
 -8.5192214496965901E-01 a      1262     0    64     1     2
 -4.7665039957584225E+00 a      1263     0    64     1     3
 -5.0889469103648768E+00 a      1264     0    64     1     4
 -2.9444574052506556E+00 a      1265     0    64     1     5
 -1.0662094545312744E+00 a      1266     0    64     1     6
 -7.4174178393487344E-01 a      1267     0    64     1     7
  3.0036962745065554E+00 a      1268     0    64     1     8
  2.3736355951578592E+00 a      1269     0    64     1     9
  2.4323078696601490E+00 a      1270     0    64     1    10
 -5.9738401718916967E-01 a      1271     0    64     1    11
 -1.3111806010155466E-01 a      1272     0    64     1    12
  5.2298256316206138E-01 a      1273     0    64     1    13
  1.0886553329050863E+00 a      1274     0    64     1    14
 -7.2854873521060026E-01 a      1275     0    64     1    15
  1.9051011285478674E+00 a      1276     0    64     1    16
 -3.3658583129605582E+00 a      1277     0    64     1    17
 -1.2415091070237363E+00 a      1278     0    64     1    18
  4.6637771065612759E+00 a      1279     0    64     1    19
 -1.8700655551443486E+00 a      1280     0    64     1    20
  1.7318057662000005E+01 a      1281     0    65     1     1
 -3.3431463079772067E-01 a      1282     0    65     1     2
 -1.4314334365628714E+01 a      1283     0    65     1     3
 -3.0159128604915417E+00 a      1284     0    65     1     4
  3.6751016721641644E-01 a      1285     0    65     1     5
 -1.9068614633135490E+00 a      1286     0    65     1     6
 -5.1219216623878667E+00 a      1287     0    65     1     7
  9.6643732117496555E+00 a      1288     0    65     1     8
 -9.3924454100556183E+00 a      1289     0    65     1     9
  1.2214076211272535E+00 a      1290     0    65     1    10
  4.3405997932635874E+00 a      1291     0    65     1    11
 -5.5243907198099658E+00 a      1292     0    65     1    12
 -9.7961659377390671E+00 a      1293     0    65     1    13
 -4.0467947150179242E+00 a      1294     0    65     1    14
 -3.6811117461063225E+00 a      1295     0    65     1    15
  4.2110428952280987E+00 a      1296     0    65     1    16
 -2.8837971230998122E-01 a      1297     0    65     1    17
  2.7181230470940076E+00 a      1298     0    65     1    18
  6.5389745065473832E+00 a      1299     0    65     1    19
 -1.4077637321027300E+01 a      1300     0    65     1    20
  8.2581191892452732E-01 a      1301     0    66     1     1
 -3.9560021243140993E+00 a      1302     0    66     1     2
  2.4049507222355619E+00 a      1303     0    66     1     3
  1.7230383263840123E+00 a      1304     0    66     1     4
  7.2264877030982104E+00 a      1305     0    66     1     5
  1.3877909674783337E+00 a      1306     0    66     1     6
 -2.6742078074076625E-01 a      1307     0    66     1     7
 -7.5872891658967028E+00 a      1308     0    66     1     8
  1.6598926073692843E+00 a      1309     0    66     1     9
  1.4460770633016831E+00 a      1310     0    66     1    10
 -2.1001023179590086E-01 a      1311     0    66     1    11
  5.8615885300172232E+00 a      1312     0    66     1    12
  3.0251280393779085E+00 a      1313     0    66     1    13
  7.6611817541957083E-01 a      1314     0    66     1    14
  2.4337635003646865E+00 a      1315     0    66     1    15
 -1.5641345972873697E+00 a      1316     0    66     1    16
  5.4277099262016382E-01 a      1317     0    66     1    17
  1.2245440625179824E+00 a      1318     0    66     1    18
 -2.5160474888649116E+00 a      1319     0    66     1    19
  4.7483124281583038E+00 a      1320     0    66     1    20
 -5.6752478226054537E+00 a      1321     0    67     1     1
 -2.0034001403365927E+01 a      1322     0    67     1     2
 -2.8610370186309226E+00 a      1323     0    67     1     3
 -3.6896524439110694E+00 a      1324     0    67     1     4
  1.5539450939428246E+01 a      1325     0    67     1     5
  1.8853102980074620E+01 a      1326     0    67     1     6
  1.9220241210493021E+00 a      1327     0    67     1     7
  2.9595672004121959E-01 a      1328     0    67     1     8
  4.3160265923578338E+00 a      1329     0    67     1     9
  6.4802549252688051E+00 a      1330     0    67     1    10
 -5.9680109165354516E+00 a      1331     0    67     1    11
 -6.0189216470706306E+00 a      1332     0    67     1    12
  1.1862245060208293E+01 a      1333     0    67     1    13
 -3.3056236639988729E-01 a      1334     0    67     1    14
  2.7803352248949946E+00 a      1335     0    67     1    15
 -8.1487783319120866E-01 a      1336     0    67     1    16
  8.6168966802527329E+00 a      1337     0    67     1    17
 -4.5672483388016882E+00 a      1338     0    67     1    18
  8.6215412199070922E+00 a      1339     0    67     1    19
 -6.8122274836040497E-01 a      1340     0    67     1    20
  2.6776535008803937E-01 a      1341     0    68     1     1
  2.7467455604478319E-01 a      1342     0    68     1     2
  6.4287450931725001E+00 a      1343     0    68     1     3
 -1.0503474416048308E+01 a      1344     0    68     1     4
 -6.9910147718692377E+00 a      1345     0    68     1     5
 -1.4334540126770778E+00 a      1346     0    68     1     6
  9.4750804412875089E-01 a      1347     0    68     1     7
  3.4280610055408105E+00 a      1348     0    68     1     8
 -4.7130012555131851E+00 a      1349     0    68     1     9
  1.0394775888945387E+00 a      1350     0    68     1    10
  5.6519113150571485E+00 a      1351     0    68     1    11
 -8.4626844211084640E-01 a      1352     0    68     1    12
 -6.1284034704663659E+00 a      1353     0    68     1    13
 -2.8591829338437265E+00 a      1354     0    68     1    14
 -2.6238115083379815E-01 a      1355     0    68     1    15
  9.6496340394549467E+00 a      1356     0    68     1    16
  5.0018849422985046E+00 a      1357     0    68     1    17
  4.9752826914170685E+00 a      1358     0    68     1    18
  4.8501624929889048E-01 a      1359     0    68     1    19
 -4.8725761953802040E+00 a      1360     0    68     1    20
  1.3861693165900482E+00 a      1361     0    69     1     1
 -5.0002668478735557E-01 a      1362     0    69     1     2
  6.2352327324888757E-01 a      1363     0    69     1     3
 -4.4223448554739986E-01 a      1364     0    69     1     4
 -3.0345930252326070E-01 a      1365     0    69     1     5
 -1.2591693244815121E+00 a      1366     0    69     1     6
 -4.0746937471765243E-01 a      1367     0    69     1     7
  2.2428316586315091E+00 a      1368     0    69     1     8
 -1.6337984715254634E+00 a      1369     0    69     1     9
  5.3000141553255509E-01 a      1370     0    69     1    10
  1.0702391920465906E+00 a      1371     0    69     1    11
  1.1272854264550727E+00 a      1372     0    69     1    12
 -5.0651336825188464E-01 a      1373     0    69     1    13
 -2.5153194222225155E+00 a      1374     0    69     1    14
 -1.3292197950535703E-01 a      1375     0    69     1    15
  2.7937250222513321E+00 a      1376     0    69     1    16
  2.7411917769801506E+00 a      1377     0    69     1    17
 -1.1259722795946718E+00 a      1378     0    69     1    18
  2.5654080085337272E+00 a      1379     0    69     1    19
  1.9843353808923057E+00 a      1380     0    69     1    20
  3.7963550963711118E-01 a      1381     0    70     1     1
  1.0278178845651935E+00 a      1382     0    70     1     2
  2.3932741715206269E+00 a      1383     0    70     1     3
 -2.3024485093308513E+00 a      1384     0    70     1     4
 -2.1955703336113972E+00 a      1385     0    70     1     5
 -3.6331006929037013E-01 a      1386     0    70     1     6
 -1.0179861945586054E-01 a      1387     0    70     1     7
  1.1884817205222462E+00 a      1388     0    70     1     8
 -5.9230899374594304E-01 a      1389     0    70     1     9
  2.5932686331462629E-01 a      1390     0    70     1    10
  1.0244517107225417E+00 a      1391     0    70     1    11
  2.7525512186005532E+00 a      1392     0    70     1    12
  1.0685917073701026E+00 a      1393     0    70     1    13
 -1.4641947324836047E+00 a      1394     0    70     1    14
 -1.4189636532493677E+00 a      1395     0    70     1    15
 -1.6665985820743776E-01 a      1396     0    70     1    16
  1.2555556401004708E-01 a      1397     0    70     1    17
  4.1504674116856460E-01 a      1398     0    70     1    18
  1.3333310886746366E+00 a      1399     0    70     1    19
 -5.1413102599642102E-01 a      1400     0    70     1    20
  1.9088368026077853E+00 a      1401     0    71     1     1
  1.8514848784746982E+00 a      1402     0    71     1     2
 -1.0445760775878037E+00 a      1403     0    71     1     3
 -2.2801580117668148E+00 a      1404     0    71     1     4
 -5.3489476569103314E+00 a      1405     0    71     1     5
 -4.2405804335228989E+00 a      1406     0    71     1     6
  2.0979688010409139E-02 a      1407     0    71     1     7
  1.5629026805533908E+00 a      1408     0    71     1     8
  4.0758541851968519E-02 a      1409     0    71     1     9
 -8.5542812099086907E-01 a      1410     0    71     1    10
  1.1339559345467465E+00 a      1411     0    71     1    11
 -1.3412110714090268E+00 a      1412     0    71     1    12
 -1.7320641386629312E-01 a      1413     0    71     1    13
 -1.2300820820486515E-01 a      1414     0    71     1    14
  2.5708706919415830E-01 a      1415     0    71     1    15
  1.5098209963003841E+00 a      1416     0    71     1    16
 -2.0605466614284689E+00 a      1417     0    71     1    17
 -7.2454532679776384E-01 a      1418     0    71     1    18
  3.7624794715986960E+00 a      1419     0    71     1    19
 -5.7231928069253319E+00 a      1420     0    71     1    20
  2.6115264015737165E+00 a      1421     0    72     1     1
 -8.2121910525118302E-01 a      1422     0    72     1     2
 -3.8348651909273794E+00 a      1423     0    72     1     3
 -3.3595790485986120E-02 a      1424     0    72     1     4
 -2.5904706023600960E-01 a      1425     0    72     1     5
  1.1581705130311573E+00 a      1426     0    72     1     6
 -7.8232941973774103E-02 a      1427     0    72     1     7
 -1.2298335573634450E-01 a      1428     0    72     1     8
  8.2453784928268836E-01 a      1429     0    72     1     9
  1.3942448812126389E+00 a      1430     0    72     1    10
  1.0455018732340080E+00 a      1431     0    72     1    11
 -1.5270861363075137E+00 a      1432     0    72     1    12
 -1.5695339763630670E-01 a      1433     0    72     1    13
 -9.6780624021344341E-01 a      1434     0    72     1    14
 -1.1530362086074899E+00 a      1435     0    72     1    15
  2.6192005234871951E-01 a      1436     0    72     1    16
 -1.0272828023785832E+00 a      1437     0    72     1    17
 -1.2282206962737159E+00 a      1438     0    72     1    18
  2.0468741602967087E+00 a      1439     0    72     1    19
  1.3485402410599410E+00 a      1440     0    72     1    20
 -1.3534736673573422E+01 a      1441     0    73     1     1
  5.6770266398643336E+00 a      1442     0    73     1     2
  1.2816683008119625E+01 a      1443     0    73     1     3
 -7.2869231793379086E-01 a      1444     0    73     1     4
  1.8804064972433092E+00 a      1445     0    73     1     5
 -4.0389069974171585E+00 a      1446     0    73     1     6
  1.1638315288832335E+00 a      1447     0    73     1     7
 -1.4476108852643623E+01 a      1448     0    73     1     8
  9.2433796911175359E-01 a      1449     0    73     1     9
  3.9178565351648502E+00 a      1450     0    73     1    10
 -2.7719332433283950E+00 a      1451     0    73     1    11
  1.3693202135904214E+01 a      1452     0    73     1    12
  8.1068836424662667E+00 a      1453     0    73     1    13
  3.3133387052548771E+00 a      1454     0    73     1    14
  2.4674750910766945E+00 a      1455     0    73     1    15
 -4.7762976729127971E+00 a      1456     0    73     1    16
  5.8827096829923491E+00 a      1457     0    73     1    17
  8.1590576455401891E+00 a      1458     0    73     1    18
 -6.1181046554749798E+00 a      1459     0    73     1    19
  1.2908083756993737E+01 a      1460     0    73     1    20
 -3.3982068599251636E+00 a      1461     0    74     1     1
  5.4121569421212117E+00 a      1462     0    74     1     2
 -3.8160093349615121E-01 a      1463     0    74     1     3
  1.4363024450367083E+00 a      1464     0    74     1     4
 -2.1366035682482072E+00 a      1465     0    74     1     5
 -5.3445853716084422E+00 a      1466     0    74     1     6
 -5.5116578464990047E+00 a      1467     0    74     1     7
 -1.4535120468408924E+00 a      1468     0    74     1     8
  1.4155754905514313E+00 a      1469     0    74     1     9
 -1.1346982245861863E+00 a      1470     0    74     1    10
  1.1878651844832062E+00 a      1471     0    74     1    11
  3.8572991405798085E+00 a      1472     0    74     1    12
 -6.3827782462596283E-01 a      1473     0    74     1    13
  2.0473376770334317E+00 a      1474     0    74     1    14
  1.7443813604263889E+00 a      1475     0    74     1    15
  3.9002389948994041E+00 a      1476     0    74     1    16
 -3.4070028022250587E+00 a      1477     0    74     1    17
  2.4945898836878713E+00 a      1478     0    74     1    18
  5.4493389286835736E-01 a      1479     0    74     1    19
  1.4242880472673307E+00 a      1480     0    74     1    20
 -5.0675569403403653E+00 a      1481     0    75     1     1
 -4.8400866410601839E+00 a      1482     0    75     1     2
  1.2270244281838265E+00 a      1483     0    75     1     3
  5.7903773427476333E+00 a      1484     0    75     1     4
  4.8444040097239371E+00 a      1485     0    75     1     5
  2.0143682964956522E+00 a      1486     0    75     1     6
 -2.7623389887753609E+00 a      1487     0    75     1     7
 -5.0354481498902617E+00 a      1488     0    75     1     8
  8.3636354782012456E-01 a      1489     0    75     1     9
  1.9366125270821466E+00 a      1490     0    75     1    10
 -1.4484281750679029E+00 a      1491     0    75     1    11
 -3.6936689603487158E+00 a      1492     0    75     1    12
  3.9848407640278110E+00 a      1493     0    75     1    13
 -1.7208704636349383E+00 a      1494     0    75     1    14
  5.1559309821654615E+00 a      1495     0    75     1    15
 -4.6464983035256119E-01 a      1496     0    75     1    16
  3.5218992109794058E+00 a      1497     0    75     1    17
 -1.6076428658304271E+00 a      1498     0    75     1    18
  3.5190742403079693E+00 a      1499     0    75     1    19
  3.4035374701839221E+00 a      1500     0    75     1    20
 -6.8293344563664848E-01 a      1501     0    76     1     1
  2.0837748023293270E-01 a      1502     0    76     1     2
 -4.3777412871089521E+00 a      1503     0    76     1     3
  8.3846374164536885E-01 a      1504     0    76     1     4
 -2.8189337830192529E+00 a      1505     0    76     1     5
  1.7987771633888614E+00 a      1506     0    76     1     6
  9.9598157244694130E-01 a      1507     0    76     1     7
  5.1287260382090538E-01 a      1508     0    76     1     8
 -3.2071374627160303E+00 a      1509     0    76     1     9
 -2.4251036518217614E-01 a      1510     0    76     1    10
  9.3038463484965150E-01 a      1511     0    76     1    11
 -2.0828011229045557E-01 a      1512     0    76     1    12
  1.0854430828414530E+00 a      1513     0    76     1    13
  4.8915804698154641E+00 a      1514     0    76     1    14
 -2.2807579728865974E+00 a      1515     0    76     1    15
 -3.9590649770051556E-01 a      1516     0    76     1    16
 -2.1725545899494891E+00 a      1517     0    76     1    17
 -5.6449780913821312E-01 a      1518     0    76     1    18
  7.1534060947864775E-01 a      1519     0    76     1    19
 -2.6423109707055010E+00 a      1520     0    76     1    20
 -3.0152400087692475E+00 a      1521     0    77     1     1
 -6.0800600697439267E+00 a      1522     0    77     1     2
  2.2608164904583461E+00 a      1523     0    77     1     3
 -5.0415277227424138E-01 a      1524     0    77     1     4
  5.1815830332668638E+00 a      1525     0    77     1     5
  3.0065132426766241E+00 a      1526     0    77     1     6
  2.8837363883999365E+00 a      1527     0    77     1     7
 -3.9267264471120282E+00 a      1528     0    77     1     8
 -6.3183961629930341E-01 a      1529     0    77     1     9
 -3.9089818963237497E+00 a      1530     0    77     1    10
 -4.2394314597021454E-01 a      1531     0    77     1    11
  1.5225930547883271E+00 a      1532     0    77     1    12
  1.9058574312107479E+00 a      1533     0    77     1    13
  3.1196964045555582E+00 a      1534     0    77     1    14
  2.4953428325611632E-01 a      1535     0    77     1    15
  2.0301326197978522E+00 a      1536     0    77     1    16
 -1.1382428447549868E+00 a      1537     0    77     1    17
  4.5342793205321241E+00 a      1538     0    77     1    18
  3.1518586084835876E-01 a      1539     0    77     1    19
  2.9427861443500797E-01 a      1540     0    77     1    20
  7.2216586977198567E+00 a      1541     0    78     1     1
  4.5307853061370214E+00 a      1542     0    78     1     2
  9.0814900686388604E+00 a      1543     0    78     1     3
 -1.4401525054130029E+00 a      1544     0    78     1     4
 -1.2184657059326410E+01 a      1545     0    78     1     5
  3.4864444023590462E+00 a      1546     0    78     1     6
 -6.0580511378266779E+00 a      1547     0    78     1     7
 -4.6268152290598872E+00 a      1548     0    78     1     8
  1.0061886167902335E+01 a      1549     0    78     1     9
  3.9047764268025191E+00 a      1550     0    78     1    10
 -2.8686201388582133E+00 a      1551     0    78     1    11
  1.1916835081472019E+00 a      1552     0    78     1    12
  5.5407097412429973E-01 a      1553     0    78     1    13
 -3.8344639629244894E+00 a      1554     0    78     1    14
  6.2966784419991093E+00 a      1555     0    78     1    15
 -7.2361201434112452E+00 a      1556     0    78     1    16
 -1.9010057538831933E+00 a      1557     0    78     1    17
 -4.5502346490140715E+00 a      1558     0    78     1    18
 -2.5180094611991444E+00 a      1559     0    78     1    19
 -1.1371090622769999E+00 a      1560     0    78     1    20
 -1.3026584136482309E+00 a      1561     0    79     1     1
 -9.7247478187812870E+00 a      1562     0    79     1     2
  4.3232187073896328E-01 a      1563     0    79     1     3
  6.2835921190889765E-02 a      1564     0    79     1     4
  3.4265149821514438E+00 a      1565     0    79     1     5
 -3.1484179060669319E+00 a      1566     0    79     1     6
  6.1703568257142749E-01 a      1567     0    79     1     7
  1.1649112091304603E+00 a      1568     0    79     1     8
  7.2014883844174149E-01 a      1569     0    79     1     9
 -6.7884727992288441E-01 a      1570     0    79     1    10
 -3.5570271021973734E+00 a      1571     0    79     1    11
 -2.1805062441764602E+00 a      1572     0    79     1    12
  3.3997159901788061E+00 a      1573     0    79     1    13
  1.2012972645575530E+00 a      1574     0    79     1    14
 -2.5219244165623400E+00 a      1575     0    79     1    15
  6.0357134001955268E+00 a      1576     0    79     1    16
 -5.9637748767351484E+00 a      1577     0    79     1    17
  5.8049869412832011E+00 a      1578     0    79     1    18
 -4.7249940452370387E+00 a      1579     0    79     1    19
  9.1052110718282808E-01 a      1580     0    79     1    20
  4.2889092878391626E+00 a      1581     0    80     1     1
  1.4735325075723894E+01 a      1582     0    80     1     2
  2.0636996133151722E-01 a      1583     0    80     1     3
  2.3181542683990122E+00 a      1584     0    80     1     4
 -1.0494502196526431E+01 a      1585     0    80     1     5
 -6.6273661260380452E+00 a      1586     0    80     1     6
 -4.8614805867570468E+00 a      1587     0    80     1     7
  8.3838706397874834E+00 a      1588     0    80     1     8
  2.7425952960574729E+00 a      1589     0    80     1     9
  7.5639742689201652E+00 a      1590     0    80     1    10
  3.0944551280743671E-01 a      1591     0    80     1    11
 -3.6996072679540450E+00 a      1592     0    80     1    12
 -4.7522771772193106E+00 a      1593     0    80     1    13
 -6.8507030223660337E+00 a      1594     0    80     1    14
 -8.9425016593781204E-01 a      1595     0    80     1    15
 -1.5887656483190162E+00 a      1596     0    80     1    16
  5.2170979165969411E-01 a      1597     0    80     1    17
 -7.3943890420520910E+00 a      1598     0    80     1    18
 -5.4459034913255011E-01 a      1599     0    80     1    19
 -2.1681775641748438E+00 a      1600     0    80     1    20
 -8.4514376540461065E+00 a      1601     0    81     1     1
 -1.1597003183189342E+01 a      1602     0    81     1     2
 -2.0812093783766251E+01 a      1603     0    81     1     3
  4.8213089901890234E+00 a      1604     0    81     1     4
  2.3712645259595259E+01 a      1605     0    81     1     5
 -2.5711184120715496E+00 a      1606     0    81     1     6
  1.1740990331707835E+01 a      1607     0    81     1     7
  1.5454408077825200E+01 a      1608     0    81     1     8
 -1.5795592589790422E+01 a      1609     0    81     1     9
 -1.9700856845816784E+01 a      1610     0    81     1    10
  7.1260403699846435E+00 a      1611     0    81     1    11
 -9.2080783098423371E+00 a      1612     0    81     1    12
 -2.7582930153101017E+00 a      1613     0    81     1    13
  1.5305794326393901E+01 a      1614     0    81     1    14
 -1.3745424986065601E+01 a      1615     0    81     1    15
  8.7548532756217980E+00 a      1616     0    81     1    16
  6.0958802348045262E+00 a      1617     0    81     1    17
  4.8987777867016424E+00 a      1618     0    81     1    18
  4.3611486420132239E+00 a      1619     0    81     1    19
  4.0946980719571069E-01 a      1620     0    81     1    20
  4.2438760552337840E-01 a      1621     0    82     1     1
  1.0818604967523395E+01 a      1622     0    82     1     2
  5.7413424143866179E+00 a      1623     0    82     1     3
