################################################################################
# Neural network connection values (weights and biases).
################################################################################
# Col  Name       Description
################################################################################
# 1    connection Neural network connection value.
# 2    t          Connection type (a = weight, b = bias).
# 3    index      Index enumerating weights.
# 4    l_s        Starting point layer (end point layer for biases).
# 5    n_s        Starting point neuron in starting layer (end point neuron for biases).
# 6    l_e        End point layer.
# 7    n_e        End point neuron in end layer.
################################################################################
#                      1 2         3     4     5     6     7
#             connection t     index   l_s   n_s   l_e   n_e
############################################################
 -1.5604061359447314E+00 a         1     0     1     1     1
 -2.5385597400357200E+00 a         2     0     1     1     2
 -4.8280818659263031E-01 a         3     0     1     1     3
 -1.3837285457216595E+00 a         4     0     1     1     4
  2.1798443366400115E+00 a         5     0     1     1     5
 -7.8331149146763368E-01 a         6     0     1     1     6
 -8.3270105321540855E-01 a         7     0     1     1     7
  7.9371150108711874E-02 a         8     0     1     1     8
 -5.3038384567994513E-02 a         9     0     1     1     9
 -6.7467037062708757E-01 a        10     0     1     1    10
  3.1122591643779890E-01 a        11     0     1     1    11
 -3.8438053212575901E-01 a        12     0     1     1    12
 -4.8969385584213093E-01 a        13     0     1     1    13
  2.6157344314473270E+00 a        14     0     1     1    14
 -5.6987642275516970E-01 a        15     0     1     1    15
 -2.4495813267330005E-01 a        16     0     1     1    16
 -1.0295043039033858E+00 a        17     0     1     1    17
 -1.1971659079301494E-01 a        18     0     1     1    18
 -1.6552008163336629E+00 a        19     0     1     1    19
  3.2336413774400574E+00 a        20     0     1     1    20
  3.6062686555760428E+00 a        21     0     2     1     1
 -5.6963378109689362E+00 a        22     0     2     1     2
  2.8537581526306619E+00 a        23     0     2     1     3
 -7.0434874799944920E+00 a        24     0     2     1     4
 -1.1363980314115192E+00 a        25     0     2     1     5
 -3.2919226430847426E-01 a        26     0     2     1     6
  1.3905350041758235E+01 a        27     0     2     1     7
 -1.8323141413022022E+00 a        28     0     2     1     8
  1.7347182451035138E+01 a        29     0     2     1     9
 -7.2259016146247044E+00 a        30     0     2     1    10
 -1.5054324544685964E+00 a        31     0     2     1    11
 -3.9430212347642031E+00 a        32     0     2     1    12
  3.0192064499593774E+00 a        33     0     2     1    13
  4.0112191954442986E+00 a        34     0     2     1    14
 -4.7548434930546364E+00 a        35     0     2     1    15
 -5.6822300748111640E+00 a        36     0     2     1    16
 -3.4360722511835950E+00 a        37     0     2     1    17
  4.7596977373018907E+00 a        38     0     2     1    18
  2.3771800683264415E+00 a        39     0     2     1    19
 -5.2592823516910645E+00 a        40     0     2     1    20
 -3.0950894550242393E-03 a        41     0     3     1     1
  6.7955677404458692E-01 a        42     0     3     1     2
  2.4488123136920872E-01 a        43     0     3     1     3
 -1.6075230293887943E+00 a        44     0     3     1     4
 -8.5053286352394963E-01 a        45     0     3     1     5
  2.5307714704713768E-01 a        46     0     3     1     6
  3.7850776020978847E+00 a        47     0     3     1     7
  3.7058070195122181E+00 a        48     0     3     1     8
  2.5592400616272082E-01 a        49     0     3     1     9
 -6.0700242902769297E-01 a        50     0     3     1    10
  5.2103398394546319E-01 a        51     0     3     1    11
  3.0685717947583130E-01 a        52     0     3     1    12
 -1.1391118620589227E+00 a        53     0     3     1    13
 -2.3738321026461673E+00 a        54     0     3     1    14
  1.4772292649647132E+00 a        55     0     3     1    15
 -3.5682490713050762E-02 a        56     0     3     1    16
  1.1980359516854968E+00 a        57     0     3     1    17
 -1.4649900429284064E+00 a        58     0     3     1    18
 -2.8481450738272412E-01 a        59     0     3     1    19
  2.8306893830646856E-02 a        60     0     3     1    20
 -1.6672177630563209E-02 a        61     0     4     1     1
 -2.8861751655399059E-01 a        62     0     4     1     2
  1.6443088433451258E-01 a        63     0     4     1     3
  7.7257312417935264E-02 a        64     0     4     1     4
  2.0776097386541247E-02 a        65     0     4     1     5
  6.3227418709338137E-02 a        66     0     4     1     6
 -1.0496449452801058E+00 a        67     0     4     1     7
  2.0500284247706432E-01 a        68     0     4     1     8
 -3.7073761091743596E-02 a        69     0     4     1     9
  7.6162147750680684E-02 a        70     0     4     1    10
 -2.0778562741073739E-01 a        71     0     4     1    11
  4.1668489752008160E-02 a        72     0     4     1    12
  1.8437206250622878E-01 a        73     0     4     1    13
  9.3374900503535280E-02 a        74     0     4     1    14
 -4.3670638881981158E-03 a        75     0     4     1    15
  1.7307161529879184E-01 a        76     0     4     1    16
  8.0158336952111470E-02 a        77     0     4     1    17
 -1.8841383925924846E-01 a        78     0     4     1    18
  2.0338242400509912E-01 a        79     0     4     1    19
  3.3756415453238847E-02 a        80     0     4     1    20
 -4.0797900594713865E-01 a        81     0     5     1     1
 -1.6557440565598742E+00 a        82     0     5     1     2
  4.2784552881693777E-01 a        83     0     5     1     3
 -7.5010910129617955E-02 a        84     0     5     1     4
  1.5284338216680107E+00 a        85     0     5     1     5
 -1.4087875100743337E+00 a        86     0     5     1     6
 -6.5570234945002404E-01 a        87     0     5     1     7
  7.0264940166554357E-01 a        88     0     5     1     8
  4.7476045167154063E-01 a        89     0     5     1     9
 -5.4490782499465436E+00 a        90     0     5     1    10
  3.7855863142044748E+00 a        91     0     5     1    11
  1.5270134544261824E+00 a        92     0     5     1    12
 -1.2094911386019287E+00 a        93     0     5     1    13
  8.3213561465129160E-01 a        94     0     5     1    14
  3.8841935989433773E-01 a        95     0     5     1    15
 -5.1533216923489444E-01 a        96     0     5     1    16
  2.1307647196505402E+00 a        97     0     5     1    17
 -1.5017344478446859E+00 a        98     0     5     1    18
  9.7420612027783471E-01 a        99     0     5     1    19
  2.6547517504691881E-01 a       100     0     5     1    20
 -7.4408713511254931E-01 a       101     0     6     1     1
 -7.4914522135222295E-01 a       102     0     6     1     2
  7.6917019250077912E-01 a       103     0     6     1     3
 -9.6792132815721077E-01 a       104     0     6     1     4
  4.5398530973925832E-01 a       105     0     6     1     5
 -5.4101553325728191E-01 a       106     0     6     1     6
  1.2625942250212336E+00 a       107     0     6     1     7
  2.9918290634494954E-01 a       108     0     6     1     8
  1.5255359682694807E+00 a       109     0     6     1     9
 -4.3386188611930782E-01 a       110     0     6     1    10
 -2.4407178877244633E-02 a       111     0     6     1    11
 -4.6000872077070314E-02 a       112     0     6     1    12
  1.2906099280789693E-01 a       113     0     6     1    13
  2.6105228666691987E-01 a       114     0     6     1    14
  4.5308742735404078E-01 a       115     0     6     1    15
  4.1256262046279663E-01 a       116     0     6     1    16
 -4.4943372923745289E-01 a       117     0     6     1    17
 -1.1658503913090168E+00 a       118     0     6     1    18
 -6.5342427363373048E-02 a       119     0     6     1    19
 -4.9148164959658486E-01 a       120     0     6     1    20
 -5.0045859980693475E-01 a       121     0     7     1     1
 -1.0185505095516227E+00 a       122     0     7     1     2
  7.8310604752592092E-02 a       123     0     7     1     3
 -3.5926027083485396E-01 a       124     0     7     1     4
  2.7592823217437268E-01 a       125     0     7     1     5
  3.0653106529856372E-01 a       126     0     7     1     6
  3.0752028883179481E+00 a       127     0     7     1     7
  1.9958646687122086E+00 a       128     0     7     1     8
  7.8693516661300222E-01 a       129     0     7     1     9
 -1.8271815628401076E+00 a       130     0     7     1    10
  4.8252667653553188E-01 a       131     0     7     1    11
  1.7647154909814935E+00 a       132     0     7     1    12
 -3.8958194099405391E-01 a       133     0     7     1    13
  1.9438061446372221E-01 a       134     0     7     1    14
  5.5944032379824638E-01 a       135     0     7     1    15
 -1.1728243700077319E+00 a       136     0     7     1    16
  2.9341993755905471E+00 a       137     0     7     1    17
 -6.6441702132655867E-01 a       138     0     7     1    18
  2.3127158122336351E-02 a       139     0     7     1    19
  4.7203817399807829E-01 a       140     0     7     1    20
 -8.0486410595535651E-01 a       141     0     8     1     1
 -3.1366922269231284E-01 a       142     0     8     1     2
  3.8674701969809588E-01 a       143     0     8     1     3
 -3.5722460972760406E-01 a       144     0     8     1     4
  6.4043088807866677E-01 a       145     0     8     1     5
 -3.0463072399055297E-01 a       146     0     8     1     6
  1.0514349915450896E-01 a       147     0     8     1     7
 -6.8194268676661099E-03 a       148     0     8     1     8
  3.8190814643540866E-01 a       149     0     8     1     9
 -4.0977758228770744E-01 a       150     0     8     1    10
 -4.4305401883343726E-01 a       151     0     8     1    11
  3.1161818191433777E-01 a       152     0     8     1    12
 -3.2879275669557934E-01 a       153     0     8     1    13
  4.5937019433035303E-01 a       154     0     8     1    14
  4.9351527583598975E-01 a       155     0     8     1    15
  1.9313726945279788E-01 a       156     0     8     1    16
  2.2987967508864093E-01 a       157     0     8     1    17
 -6.8886906627881572E-01 a       158     0     8     1    18
  1.8082343375510977E-02 a       159     0     8     1    19
 -1.5010311468205012E-01 a       160     0     8     1    20
  4.6974885606122829E-01 a       161     0     9     1     1
  1.0554531361487696E+00 a       162     0     9     1     2
 -9.7295384404480934E-01 a       163     0     9     1     3
  1.4019609509435613E-01 a       164     0     9     1     4
  7.5952269128335059E-01 a       165     0     9     1     5
  1.6809766294496793E+00 a       166     0     9     1     6
 -1.1200189097739444E+00 a       167     0     9     1     7
 -1.0895134611426438E+00 a       168     0     9     1     8
  2.9990245252034919E-01 a       169     0     9     1     9
  2.6399154442926851E+00 a       170     0     9     1    10
 -1.0796842886434188E+00 a       171     0     9     1    11
 -5.1739287915388299E-01 a       172     0     9     1    12
  1.1859965595182412E-01 a       173     0     9     1    13
  5.4599196948781603E-01 a       174     0     9     1    14
 -1.5899117175911950E+00 a       175     0     9     1    15
 -1.3190172339839976E+00 a       176     0     9     1    16
  1.8950941565007149E+00 a       177     0     9     1    17
 -4.9949662978523401E-01 a       178     0     9     1    18
  2.6100355348418847E-01 a       179     0     9     1    19
 -9.1922755456835412E-02 a       180     0     9     1    20
  1.1501635729454815E+00 a       181     0    10     1     1
 -1.6687159803475877E+00 a       182     0    10     1     2
  7.9161654222789035E-01 a       183     0    10     1     3
 -1.0138149000362411E+00 a       184     0    10     1     4
 -7.4933774327890534E-01 a       185     0    10     1     5
 -6.2158041519737151E-01 a       186     0    10     1     6
  2.6953735119808528E+00 a       187     0    10     1     7
  1.1288194608719162E+00 a       188     0    10     1     8
  4.4050311008387908E+00 a       189     0    10     1     9
 -8.5718063412104029E-01 a       190     0    10     1    10
  2.7702814128449404E-01 a       191     0    10     1    11
  9.7207413091973993E-01 a       192     0    10     1    12
  1.6305754240688906E+00 a       193     0    10     1    13
  5.2406925480876509E-01 a       194     0    10     1    14
 -7.2257168814760719E-01 a       195     0    10     1    15
 -3.5959907220490378E-01 a       196     0    10     1    16
 -2.2708355056931220E+00 a       197     0    10     1    17
 -1.1434878539660721E-01 a       198     0    10     1    18
  8.9075537247332603E-01 a       199     0    10     1    19
 -3.0570463828692582E+00 a       200     0    10     1    20
 -1.9010778562543615E+00 a       201     0    11     1     1
  2.8154134273572726E+00 a       202     0    11     1     2
 -1.3615948406399538E+00 a       203     0    11     1     3
  1.7211429220679642E+00 a       204     0    11     1     4
  2.9790307204951092E+00 a       205     0    11     1     5
 -1.7574738429739154E+00 a       206     0    11     1     6
 -4.2956090638459434E+00 a       207     0    11     1     7
 -1.1123929464116004E-01 a       208     0    11     1     8
 -6.0230011148341758E+00 a       209     0    11     1     9
  1.8743952942867816E+00 a       210     0    11     1    10
  4.1173433471696336E-01 a       211     0    11     1    11
 -7.9189852439006903E-01 a       212     0    11     1    12
 -4.9903259864123859E+00 a       213     0    11     1    13
 -2.2415092555662941E+00 a       214     0    11     1    14
  2.4718875234033044E+00 a       215     0    11     1    15
  2.1458863803329469E+00 a       216     0    11     1    16
  2.0316501764150936E+00 a       217     0    11     1    17
 -3.0859223916454823E+00 a       218     0    11     1    18
 -1.6577955438227647E+00 a       219     0    11     1    19
  3.7022579255769341E+00 a       220     0    11     1    20
  2.1460562074395102E+00 a       221     0    12     1     1
  4.7851151635213611E+00 a       222     0    12     1     2
  2.0765815520728190E+00 a       223     0    12     1     3
  3.5604285879782531E+00 a       224     0    12     1     4
  1.9359696859228310E+00 a       225     0    12     1     5
  2.3371214831218862E-01 a       226     0    12     1     6
 -2.3239419121578737E+00 a       227     0    12     1     7
 -2.6635389233344045E+00 a       228     0    12     1     8
  6.1871521468737019E+00 a       229     0    12     1     9
  1.6360686949046959E+00 a       230     0    12     1    10
 -9.1477560206155917E-01 a       231     0    12     1    11
 -1.6932583237016965E+00 a       232     0    12     1    12
 -4.4936964453955044E+00 a       233     0    12     1    13
 -1.3259170208853569E-02 a       234     0    12     1    14
  6.4423106089515847E-01 a       235     0    12     1    15
 -6.1260585079322805E-01 a       236     0    12     1    16
  9.6665269197033921E-01 a       237     0    12     1    17
 -4.4959791574751540E+00 a       238     0    12     1    18
  6.8596408726021716E+00 a       239     0    12     1    19
 -2.7474743430498920E+00 a       240     0    12     1    20
 -1.0557613511934498E+00 a       241     0    13     1     1
 -2.9797271918819677E+00 a       242     0    13     1     2
  3.6083975775708893E-01 a       243     0    13     1     3
 -9.2371261136113847E-01 a       244     0    13     1     4
  1.2535252541624617E+00 a       245     0    13     1     5
 -8.0648759794232472E-01 a       246     0    13     1     6
 -1.7467167675572119E+00 a       247     0    13     1     7
 -2.3584377366416032E+00 a       248     0    13     1     8
 -1.1562886962272132E+00 a       249     0    13     1     9
 -1.6073561568234258E+00 a       250     0    13     1    10
 -5.1947357820369833E-01 a       251     0    13     1    11
  5.3767466845741629E-01 a       252     0    13     1    12
  1.4137851438084847E+00 a       253     0    13     1    13
  2.6965106510162529E+00 a       254     0    13     1    14
 -1.5352674836507549E+00 a       255     0    13     1    15
  1.5328042464618559E+00 a       256     0    13     1    16
 -2.0474685479688017E+00 a       257     0    13     1    17
  1.1448779252266408E+00 a       258     0    13     1    18
 -2.1612061597643124E+00 a       259     0    13     1    19
 -7.9223844669681698E-01 a       260     0    13     1    20
 -2.4042996162028640E-01 a       261     0    14     1     1
 -1.7970623329683005E-01 a       262     0    14     1     2
  2.2704331648843762E-01 a       263     0    14     1     3
 -5.1796071652625209E-01 a       264     0    14     1     4
  4.7183669507960817E-02 a       265     0    14     1     5
 -3.5936691582249841E-01 a       266     0    14     1     6
  1.4904811232551798E+00 a       267     0    14     1     7
 -1.0003392059692029E-01 a       268     0    14     1     8
  3.8473881883640471E-01 a       269     0    14     1     9
 -3.9170307511951019E-01 a       270     0    14     1    10
  1.9652865851695137E-01 a       271     0    14     1    11
  1.0771851963553300E-03 a       272     0    14     1    12
 -3.1052354906266083E-01 a       273     0    14     1    13
 -2.3539563390566159E-01 a       274     0    14     1    14
 -6.8238830526903910E-02 a       275     0    14     1    15
 -2.4202464987490490E-03 a       276     0    14     1    16
 -4.7907955645379457E-01 a       277     0    14     1    17
 -2.9126376393045766E-01 a       278     0    14     1    18
  7.1442772296339933E-03 a       279     0    14     1    19
 -2.7375830293535641E-01 a       280     0    14     1    20
  9.2536722072456190E-01 a       281     0    15     1     1
  1.1131957975701088E+00 a       282     0    15     1     2
 -9.3835119923450686E-02 a       283     0    15     1     3
  9.2064677921640503E-01 a       284     0    15     1     4
  2.7841480181269629E-01 a       285     0    15     1     5
 -4.5958224051649654E-01 a       286     0    15     1     6
 -1.8530593595186191E+00 a       287     0    15     1     7
  7.5068231282861653E-01 a       288     0    15     1     8
 -1.1098311985410828E-01 a       289     0    15     1     9
 -1.7386327136123185E+00 a       290     0    15     1    10
 -2.5900046673148547E-01 a       291     0    15     1    11
 -7.2145691268516687E-01 a       292     0    15     1    12
  2.0532684241948655E+00 a       293     0    15     1    13
  1.1250192880571630E+00 a       294     0    15     1    14
  1.5829642112008155E+00 a       295     0    15     1    15
 -8.2158342364790349E-01 a       296     0    15     1    16
  2.0882993309064113E+00 a       297     0    15     1    17
  2.0965323571517445E+00 a       298     0    15     1    18
  8.3957379383081954E-02 a       299     0    15     1    19
 -1.1057708847844773E-02 a       300     0    15     1    20
 -1.6823151302906241E+00 a       301     0    16     1     1
  8.8500667481260586E-01 a       302     0    16     1     2
  2.8283080366093810E-01 a       303     0    16     1     3
  5.2047477154531463E-01 a       304     0    16     1     4
  2.2336645474394841E+00 a       305     0    16     1     5
  4.4886125432624202E-01 a       306     0    16     1     6
  5.5396040369059241E-01 a       307     0    16     1     7
  1.8682512584020725E+00 a       308     0    16     1     8
  2.1430205191647689E+00 a       309     0    16     1     9
 -1.7770556013489038E+00 a       310     0    16     1    10
  7.5776075097659257E-01 a       311     0    16     1    11
 -1.3755147378646162E+00 a       312     0    16     1    12
 -4.5123520067141693E-01 a       313     0    16     1    13
  3.0096774217819586E+00 a       314     0    16     1    14
 -5.9939186847473147E-01 a       315     0    16     1    15
 -2.2315579878937482E+00 a       316     0    16     1    16
  2.9368096759551614E+00 a       317     0    16     1    17
 -1.8018868523106348E+00 a       318     0    16     1    18
  8.6622625437925416E-01 a       319     0    16     1    19
 -1.6748724003854516E+00 a       320     0    16     1    20
 -9.2206823011836814E-01 a       321     0    17     1     1
 -4.9601885179338306E-01 a       322     0    17     1     2
  3.3234558700617184E-01 a       323     0    17     1     3
 -1.4183955268626962E+00 a       324     0    17     1     4
  2.3292931538866668E-01 a       325     0    17     1     5
 -7.4286260821536121E-01 a       326     0    17     1     6
  2.2735710989516194E+00 a       327     0    17     1     7
  2.6853811580302639E-01 a       328     0    17     1     8
  1.6606245484569302E+00 a       329     0    17     1     9
 -6.5750777552960615E-01 a       330     0    17     1    10
  5.1819213974215306E-01 a       331     0    17     1    11
 -1.8195086132559396E-01 a       332     0    17     1    12
 -2.1335109883741307E-01 a       333     0    17     1    13
  2.1855853192564065E-01 a       334     0    17     1    14
  2.4625277731445586E-01 a       335     0    17     1    15
  5.0799013883789235E-01 a       336     0    17     1    16
 -5.5383714740877610E-01 a       337     0    17     1    17
 -1.3649529850872875E+00 a       338     0    17     1    18
 -2.2305941396582019E-01 a       339     0    17     1    19
 -4.2018278724644781E-01 a       340     0    17     1    20
 -1.1883902686793446E+00 a       341     0    18     1     1
 -1.5720395578201027E+00 a       342     0    18     1     2
  1.7422907511527647E-01 a       343     0    18     1     3
 -1.4490206019315524E-01 a       344     0    18     1     4
 -3.8069385425480984E-01 a       345     0    18     1     5
 -3.9413872990928289E-01 a       346     0    18     1     6
  1.2350487034713344E+00 a       347     0    18     1     7
 -3.9001280284501026E-02 a       348     0    18     1     8
 -1.7978502959698789E-01 a       349     0    18     1     9
 -5.4599061432431084E-01 a       350     0    18     1    10
 -6.1306141440230399E-01 a       351     0    18     1    11
  1.0672120394747351E+00 a       352     0    18     1    12
  1.6911990202742302E+00 a       353     0    18     1    13
  8.5504127557618281E-01 a       354     0    18     1    14
 -9.0182100680045207E-01 a       355     0    18     1    15
  3.0975742018517338E-01 a       356     0    18     1    16
 -1.2334821615746835E-01 a       357     0    18     1    17
  6.5036525731605607E-02 a       358     0    18     1    18
 -1.8257454306783498E+00 a       359     0    18     1    19
  4.2125573483360823E-01 a       360     0    18     1    20
 -2.6136108221751481E-01 a       361     0    19     1     1
  1.7019169668103271E-01 a       362     0    19     1     2
 -6.8233318192096337E-01 a       363     0    19     1     3
 -8.7606658299547335E-02 a       364     0    19     1     4
  6.7552568054821260E-01 a       365     0    19     1     5
  7.4023550397753102E-01 a       366     0    19     1     6
 -4.2800107916172780E-01 a       367     0    19     1     7
 -4.1435503421655534E-01 a       368     0    19     1     8
 -5.8739596640059566E-01 a       369     0    19     1     9
  1.5763027666279705E+00 a       370     0    19     1    10
 -6.3516729829966156E-01 a       371     0    19     1    11
 -3.8067358565643800E-01 a       372     0    19     1    12
  6.5017375600986793E-01 a       373     0    19     1    13
  4.3140199607442947E-01 a       374     0    19     1    14
 -1.1398148161946844E+00 a       375     0    19     1    15
 -9.0593025153819373E-01 a       376     0    19     1    16
  1.6914096184444577E-01 a       377     0    19     1    17
  8.8132687093163631E-02 a       378     0    19     1    18
 -8.4826664040432742E-01 a       379     0    19     1    19
  1.4458349748468460E-01 a       380     0    19     1    20
 -2.8681653171881893E+00 a       381     0    20     1     1
  5.9414462439031501E-01 a       382     0    20     1     2
 -1.3370615341728757E-02 a       383     0    20     1     3
  7.4395245191841541E-01 a       384     0    20     1     4
  4.0272738295147636E-01 a       385     0    20     1     5
  5.5500562082228122E-01 a       386     0    20     1     6
 -2.5372520705225843E+00 a       387     0    20     1     7
 -8.3715100595570879E-01 a       388     0    20     1     8
 -3.3713147026204719E+00 a       389     0    20     1     9
  4.6207973921536194E-01 a       390     0    20     1    10
  9.8952216712565141E-02 a       391     0    20     1    11
  1.4506967658355214E+00 a       392     0    20     1    12
  5.9520639315393709E-01 a       393     0    20     1    13
  3.6221171209465103E-01 a       394     0    20     1    14
  1.1325086735704841E+00 a       395     0    20     1    15
  1.2959327031933545E+00 a       396     0    20     1    16
  1.3050381494880774E+00 a       397     0    20     1    17
  1.2514291194535920E-01 a       398     0    20     1    18
 -1.1196682184249354E+00 a       399     0    20     1    19
  1.5159054491463486E+00 a       400     0    20     1    20
 -7.3122722829628461E-01 a       401     0    21     1     1
 -2.3878514144465184E+00 a       402     0    21     1     2
  9.7923301914613237E-02 a       403     0    21     1     3
 -1.5198705038321632E+00 a       404     0    21     1     4
 -2.4934878590230969E-01 a       405     0    21     1     5
 -5.5847367633025702E-01 a       406     0    21     1     6
 -6.1344480567587054E-02 a       407     0    21     1     7
 -1.3543087426340674E+00 a       408     0    21     1     8
 -2.0636111221675431E+00 a       409     0    21     1     9
 -7.4886719188524276E-01 a       410     0    21     1    10
 -6.8090450271028258E-01 a       411     0    21     1    11
  1.2111687701949043E+00 a       412     0    21     1    12
  1.8281316452971588E+00 a       413     0    21     1    13
  5.7603615519948648E-01 a       414     0    21     1    14
 -7.0045066916859999E-01 a       415     0    21     1    15
  1.5200821354729026E+00 a       416     0    21     1    16
 -2.3515868430576550E+00 a       417     0    21     1    17
  1.8367909853962299E+00 a       418     0    21     1    18
 -2.5671717683490849E+00 a       419     0    21     1    19
 -5.5673223308639663E-01 a       420     0    21     1    20
 -1.7192579026644554E+00 a       421     0    22     1     1
  4.1471122211436304E+00 a       422     0    22     1     2
 -1.4197409310993190E+00 a       423     0    22     1     3
  1.7323412727969120E-01 a       424     0    22     1     4
 -1.2224928775897461E+00 a       425     0    22     1     5
 -2.2485355029897973E+00 a       426     0    22     1     6
 -1.5863084065762507E+00 a       427     0    22     1     7
  7.0102690594080230E-01 a       428     0    22     1     8
 -4.5551552975158943E-01 a       429     0    22     1     9
  6.4703364365777878E+00 a       430     0    22     1    10
 -1.4335160319709503E+00 a       431     0    22     1    11
  7.5026566698839703E-01 a       432     0    22     1    12
  3.9415351967748466E+00 a       433     0    22     1    13
  3.7918301941301382E+00 a       434     0    22     1    14
  2.5511196017424749E+00 a       435     0    22     1    15
  1.7842646470812937E+00 a       436     0    22     1    16
 -1.0885841171283204E+00 a       437     0    22     1    17
  2.6043166836322760E+00 a       438     0    22     1    18
  1.1975877570395436E-01 a       439     0    22     1    19
 -2.5888556763666792E+00 a       440     0    22     1    20
  6.0264337818776925E-01 a       441     0    23     1     1
  2.2402392542891589E+00 a       442     0    23     1     2
 -3.4306795136368424E+00 a       443     0    23     1     3
 -5.1283995071960020E-01 a       444     0    23     1     4
  2.3742433441994195E+00 a       445     0    23     1     5
  3.4812779302766711E-01 a       446     0    23     1     6
 -1.0530977798871188E+00 a       447     0    23     1     7
 -3.5554958460309756E+00 a       448     0    23     1     8
 -3.1777890010924250E+00 a       449     0    23     1     9
  2.6307220751103686E+00 a       450     0    23     1    10
 -4.0511547213451404E+00 a       451     0    23     1    11
  3.3945025614118252E+00 a       452     0    23     1    12
  5.6034484182446818E+00 a       453     0    23     1    13
 -1.6526002056626510E+00 a       454     0    23     1    14
 -1.9198262242539481E+00 a       455     0    23     1    15
  3.1213585231299281E+00 a       456     0    23     1    16
 -1.2334866225388099E+00 a       457     0    23     1    17
  1.7998378180513264E+00 a       458     0    23     1    18
  2.4696729986162831E+00 a       459     0    23     1    19
 -3.2875427999633682E+00 a       460     0    23     1    20
 -7.2651467697333137E-03 a       461     0    24     1     1
  5.1863481537376799E-01 a       462     0    24     1     2
  2.1139740765525808E-01 a       463     0    24     1     3
 -2.0870752429146633E-01 a       464     0    24     1     4
 -5.1505573588437248E-01 a       465     0    24     1     5
  8.7818797828169273E-02 a       466     0    24     1     6
  8.9287329554243855E-01 a       467     0    24     1     7
 -3.1095740312498182E-01 a       468     0    24     1     8
 -4.6513553451693571E-02 a       469     0    24     1     9
  1.7391582775069844E-01 a       470     0    24     1    10
  4.6986889901813322E-01 a       471     0    24     1    11
 -1.4415358739832282E+00 a       472     0    24     1    12
 -6.9832017748785530E-02 a       473     0    24     1    13
 -3.2755049634774364E-01 a       474     0    24     1    14
 -7.6843664388503841E-01 a       475     0    24     1    15
 -4.3079448349364396E-01 a       476     0    24     1    16
 -7.0129219417442745E-01 a       477     0    24     1    17
  2.7804756603283332E-01 a       478     0    24     1    18
 -4.1086624207998435E-01 a       479     0    24     1    19
 -1.6268609480857471E-01 a       480     0    24     1    20
 -7.3845728149995715E-01 a       481     0    25     1     1
 -3.3034223966792869E-01 a       482     0    25     1     2
 -6.8803257382414329E-01 a       483     0    25     1     3
  5.6116880675343406E-01 a       484     0    25     1     4
  1.8456072021016603E+00 a       485     0    25     1     5
  1.5660351433587731E+00 a       486     0    25     1     6
  2.2072470059373930E+00 a       487     0    25     1     7
 -1.0890085092529482E+00 a       488     0    25     1     8
 -1.0313936484323960E-01 a       489     0    25     1     9
 -2.5400918900513609E+00 a       490     0    25     1    10
  3.0650102014831129E+00 a       491     0    25     1    11
 -5.3669366729733969E-01 a       492     0    25     1    12
 -1.7199644693995155E+00 a       493     0    25     1    13
 -9.1497229073635444E-01 a       494     0    25     1    14
 -2.4012153258772253E+00 a       495     0    25     1    15
 -6.0532162464339812E-01 a       496     0    25     1    16
  1.0735161692294146E+00 a       497     0    25     1    17
 -3.6095276477649039E+00 a       498     0    25     1    18
  1.9821170838979181E+00 a       499     0    25     1    19
 -6.8142712668375915E-01 a       500     0    25     1    20
 -2.3321425722177755E+00 a       501     0    26     1     1
 -4.2410872157523587E-02 a       502     0    26     1     2
  1.1739742999805701E-02 a       503     0    26     1     3
 -1.9739528044004151E-01 a       504     0    26     1     4
  1.4169306356016476E+00 a       505     0    26     1     5
  5.9639306544594606E-01 a       506     0    26     1     6
  7.6642887328443721E-01 a       507     0    26     1     7
  1.1149161286608082E+00 a       508     0    26     1     8
  2.3919525487835616E+00 a       509     0    26     1     9
 -1.8397171627840128E+00 a       510     0    26     1    10
  2.1794202496451454E+00 a       511     0    26     1    11
 -9.8041401443795484E-01 a       512     0    26     1    12
 -8.4332833595221190E-01 a       513     0    26     1    13
  1.5313663883771960E+00 a       514     0    26     1    14
 -1.3317960438876786E+00 a       515     0    26     1    15
 -7.1661092032171869E-01 a       516     0    26     1    16
  1.2250060393161744E+00 a       517     0    26     1    17
 -3.2720142750462298E+00 a       518     0    26     1    18
  5.5315633269520725E-01 a       519     0    26     1    19
 -6.4356155659887460E-01 a       520     0    26     1    20
 -6.8876778536260375E-01 a       521     0    27     1     1
 -7.9138929269272362E-01 a       522     0    27     1     2
  6.6412647600786279E-01 a       523     0    27     1     3
 -7.0281982538186127E-02 a       524     0    27     1     4
 -4.6748392249539683E-01 a       525     0    27     1     5
 -4.6939758844971208E-01 a       526     0    27     1     6
  1.0080548418763653E+00 a       527     0    27     1     7
  8.5907269279254711E-02 a       528     0    27     1     8
  3.0416400563745760E-01 a       529     0    27     1     9
  9.5803904644653282E-01 a       530     0    27     1    10
 -1.0697725561624967E+00 a       531     0    27     1    11
  5.3938896787403112E-01 a       532     0    27     1    12
  6.8289663199404649E-01 a       533     0    27     1    13
  4.4248810252448600E-01 a       534     0    27     1    14
 -1.2675404933979265E-01 a       535     0    27     1    15
  3.5770353852306780E-01 a       536     0    27     1    16
 -6.2775079906734055E-01 a       537     0    27     1    17
 -8.7654056218344531E-02 a       538     0    27     1    18
 -8.4041615672959968E-01 a       539     0    27     1    19
 -4.1031292083591499E-03 a       540     0    27     1    20
 -6.6475338365363768E-01 a       541     0    28     1     1
  1.8813134960949277E-01 a       542     0    28     1     2
  6.7247609904038175E-01 a       543     0    28     1     3
 -1.8748433067359144E-01 a       544     0    28     1     4
  3.4305210028089034E-01 a       545     0    28     1     5
  3.9791105790206943E-01 a       546     0    28     1     6
  1.1282560932288770E+00 a       547     0    28     1     7
  6.4705174442255664E-01 a       548     0    28     1     8
  8.1244644893886886E-01 a       549     0    28     1     9
  6.9486332952004526E-01 a       550     0    28     1    10
 -6.5950902430833236E-01 a       551     0    28     1    11
 -5.8288417223577943E-02 a       552     0    28     1    12
 -7.1928892240248987E-01 a       553     0    28     1    13
  2.2054686340862562E-01 a       554     0    28     1    14
  1.3641873260347148E-01 a       555     0    28     1    15
 -4.9448332371225945E-01 a       556     0    28     1    16
  5.1099773208429000E-01 a       557     0    28     1    17
 -5.0952662134003379E-01 a       558     0    28     1    18
  6.1985635212623194E-02 a       559     0    28     1    19
 -7.7527159401297618E-01 a       560     0    28     1    20
  2.0527945155250873E-02 a       561     0    29     1     1
  3.2389829501884926E-01 a       562     0    29     1     2
  2.1948458991345576E-01 a       563     0    29     1     3
  1.0530253769850098E-01 a       564     0    29     1     4
 -3.2321696030097502E-01 a       565     0    29     1     5
 -1.8763894198970851E-01 a       566     0    29     1     6
  9.8223803192449388E-01 a       567     0    29     1     7
  6.9949159130373861E-01 a       568     0    29     1     8
  2.7328316433283184E-01 a       569     0    29     1     9
 -4.1686570597213607E-01 a       570     0    29     1    10
 -1.8524920840802254E-02 a       571     0    29     1    11
  3.8477009879608753E-01 a       572     0    29     1    12
 -6.0478121680021069E-01 a       573     0    29     1    13
 -5.1601010676976411E-01 a       574     0    29     1    14
  1.0378413039588286E+00 a       575     0    29     1    15
 -9.5587373591339148E-02 a       576     0    29     1    16
  4.2979090028372263E-01 a       577     0    29     1    17
 -8.2349955904748570E-02 a       578     0    29     1    18
  5.6536485089160005E-01 a       579     0    29     1    19
  4.9209664230971345E-01 a       580     0    29     1    20
 -6.3676372320487051E-01 a       581     0    30     1     1
  5.0766451217229580E+00 a       582     0    30     1     2
 -6.3624625667649159E-01 a       583     0    30     1     3
 -2.6846441612388587E+00 a       584     0    30     1     4
  2.8123724408042112E+00 a       585     0    30     1     5
  2.2486570320673569E+00 a       586     0    30     1     6
 -3.8389532734216841E-01 a       587     0    30     1     7
  6.1781365399071564E-01 a       588     0    30     1     8
 -5.3195818706560516E+00 a       589     0    30     1     9
  6.8501797680428593E+00 a       590     0    30     1    10
 -3.6223275191365079E+00 a       591     0    30     1    11
 -7.4887429582986211E+00 a       592     0    30     1    12
  6.3153251638961825E+00 a       593     0    30     1    13
 -1.7776035326302011E+00 a       594     0    30     1    14
  3.7919021930519659E+00 a       595     0    30     1    15
  6.8211500397619345E+00 a       596     0    30     1    16
 -1.1816266506068684E+00 a       597     0    30     1    17
 -2.1044548578244018E+00 a       598     0    30     1    18
  8.2603564162631793E-01 a       599     0    30     1    19
  3.5293692149162825E+00 a       600     0    30     1    20
  3.0845898526777749E+00 a       601     0    31     1     1
 -1.9148240913422534E+00 a       602     0    31     1     2
  1.2772742666614210E+00 a       603     0    31     1     3
 -4.6579602162174201E+00 a       604     0    31     1     4
  5.0581341502207978E-02 a       605     0    31     1     5
  1.1779595867753312E+00 a       606     0    31     1     6
 -3.4812214606903652E-01 a       607     0    31     1     7
 -9.4271097709042545E-02 a       608     0    31     1     8
  6.1713290012940090E-02 a       609     0    31     1     9
 -5.5914547490484141E+00 a       610     0    31     1    10
  2.1197710800968212E+00 a       611     0    31     1    11
 -2.2805241551996627E+00 a       612     0    31     1    12
 -7.1850609256463116E-01 a       613     0    31     1    13
 -6.4186476701318798E+00 a       614     0    31     1    14
 -2.1078622484060747E+00 a       615     0    31     1    15
  1.5397933358435929E+00 a       616     0    31     1    16
 -2.6398126223656879E+00 a       617     0    31     1    17
 -1.5634554788198829E+00 a       618     0    31     1    18
  7.9001684945537887E-01 a       619     0    31     1    19
  2.3824400015063505E+00 a       620     0    31     1    20
  4.0017990475519207E+00 a       621     0    32     1     1
 -7.5879895288752375E-01 a       622     0    32     1     2
  2.0500842223816504E+00 a       623     0    32     1     3
 -3.1833890745423575E-03 a       624     0    32     1     4
 -1.5907319359729359E+00 a       625     0    32     1     5
 -7.0564051997103683E-01 a       626     0    32     1     6
 -8.5218907670037303E-01 a       627     0    32     1     7
  1.1139445949977012E+00 a       628     0    32     1     8
 -3.9393094757445479E-01 a       629     0    32     1     9
  1.2223480040154766E+00 a       630     0    32     1    10
 -2.4202377017698207E+00 a       631     0    32     1    11
  2.1956626061822915E+00 a       632     0    32     1    12
  9.5662624769752347E-01 a       633     0    32     1    13
  5.7253123982780639E-03 a       634     0    32     1    14
  2.4092937431524994E+00 a       635     0    32     1    15
  5.1249419284539499E-01 a       636     0    32     1    16
 -1.2290362586972521E+00 a       637     0    32     1    17
  3.2456509664789981E+00 a       638     0    32     1    18
 -1.3867297553632691E+00 a       639     0    32     1    19
 -1.1901851219930979E+00 a       640     0    32     1    20
  7.3251919006219823E-01 a       641     0    33     1     1
 -4.9088779064195780E+00 a       642     0    33     1     2
  3.0466733008342413E+00 a       643     0    33     1     3
  2.2029514826118177E+00 a       644     0    33     1     4
 -1.7587516594156241E+00 a       645     0    33     1     5
  2.1550171124474207E+00 a       646     0    33     1     6
  4.3212406370313117E+00 a       647     0    33     1     7
  1.3376155088790338E+00 a       648     0    33     1     8
  1.5187783640164276E-01 a       649     0    33     1     9
 -7.4507475224067177E+00 a       650     0    33     1    10
  5.9957326002008022E+00 a       651     0    33     1    11
 -2.6841993314054839E+00 a       652     0    33     1    12
 -6.7765695715140239E+00 a       653     0    33     1    13
  3.1817265900387953E-01 a       654     0    33     1    14
 -1.8470354816577430E+00 a       655     0    33     1    15
 -3.3596344048698681E+00 a       656     0    33     1    16
  2.1646966928582350E+00 a       657     0    33     1    17
 -4.1462729119666655E+00 a       658     0    33     1    18
 -2.2290400508934112E+00 a       659     0    33     1    19
  3.4527242113299614E+00 a       660     0    33     1    20
 -3.2283437173536651E+00 a       661     0    34     1     1
 -2.1399085031842087E+00 a       662     0    34     1     2
  1.3325301311551856E+00 a       663     0    34     1     3
  8.0273818033271022E-02 a       664     0    34     1     4
  2.7342443980143927E-01 a       665     0    34     1     5
  3.8361084783723948E-01 a       666     0    34     1     6
  1.6788931106468619E+00 a       667     0    34     1     7
  9.1108709050431769E-01 a       668     0    34     1     8
  1.3370198661831143E+00 a       669     0    34     1     9
 -3.1162440945926639E+00 a       670     0    34     1    10
  3.1061995964805287E+00 a       671     0    34     1    11
 -9.0289627040436404E-01 a       672     0    34     1    12
 -4.7022908803670266E-01 a       673     0    34     1    13
  1.1636448681094267E+00 a       674     0    34     1    14
 -1.9439974548118930E+00 a       675     0    34     1    15
 -9.9070890009454471E-01 a       676     0    34     1    16
  1.0206286550549575E+00 a       677     0    34     1    17
 -2.3504673867473516E+00 a       678     0    34     1    18
 -2.5062823769415234E+00 a       679     0    34     1    19
  9.6757907235089757E-01 a       680     0    34     1    20
 -2.5392317192214402E+00 a       681     0    35     1     1
 -2.1985630586347218E-01 a       682     0    35     1     2
 -6.6018115696673194E-02 a       683     0    35     1     3
 -3.3334536960349137E-01 a       684     0    35     1     4
  3.2091332916919513E-01 a       685     0    35     1     5
 -4.3951785368330704E-01 a       686     0    35     1     6
  7.2689822956734385E-01 a       687     0    35     1     7
  1.3227926568689803E+00 a       688     0    35     1     8
  2.1282906950137805E+00 a       689     0    35     1     9
 -1.9505906632849166E+00 a       690     0    35     1    10
  1.6025850432888118E+00 a       691     0    35     1    11
 -6.9158118174222216E-01 a       692     0    35     1    12
  8.9791833611353356E-01 a       693     0    35     1    13
  1.9779436692486192E+00 a       694     0    35     1    14
 -1.4644210092403018E+00 a       695     0    35     1    15
 -5.6995324369970568E-01 a       696     0    35     1    16
  1.3054853946733822E+00 a       697     0    35     1    17
 -1.5916355460292857E+00 a       698     0    35     1    18
 -1.1094916513466888E+00 a       699     0    35     1    19
 -6.9509133667469483E-02 a       700     0    35     1    20
 -7.6779439929428672E-01 a       701     0    36     1     1
 -6.2494518617616079E-01 a       702     0    36     1     2
  9.9779356066131597E-01 a       703     0    36     1     3
 -5.7731617227932637E-02 a       704     0    36     1     4
 -5.0293311040463751E-01 a       705     0    36     1     5
 -2.5661604750226347E-01 a       706     0    36     1     6
  1.0006106059997910E+00 a       707     0    36     1     7
  1.6944786200156750E-01 a       708     0    36     1     8
  3.8311879442229679E-01 a       709     0    36     1     9
  7.2402475151945722E-01 a       710     0    36     1    10
 -1.0965457204393603E+00 a       711     0    36     1    11
  5.5048080720211001E-01 a       712     0    36     1    12
  6.5949635339555701E-01 a       713     0    36     1    13
  5.0502650614531941E-01 a       714     0    36     1    14
 -4.6104828672722309E-01 a       715     0    36     1    15
  3.6312847654944974E-01 a       716     0    36     1    16
 -5.0241012710619126E-01 a       717     0    36     1    17
 -4.0280385472040839E-02 a       718     0    36     1    18
 -1.0016730876274256E+00 a       719     0    36     1    19
  2.0069153584085392E-01 a       720     0    36     1    20
 -6.1042749740195668E-01 a       721     0    37     1     1
  4.9478017201404861E-01 a       722     0    37     1     2
  7.5646299311742127E-01 a       723     0    37     1     3
  1.5744922913199591E-01 a       724     0    37     1     4
  3.0427464704143553E-01 a       725     0    37     1     5
  6.6505165976104630E-01 a       726     0    37     1     6
  9.1893941804441026E-01 a       727     0    37     1     7
  9.6924575420397419E-01 a       728     0    37     1     8
  1.2111341524133146E+00 a       729     0    37     1     9
  1.0843902970536665E+00 a       730     0    37     1    10
 -6.8833779749994783E-01 a       731     0    37     1    11
 -6.1011925678162171E-01 a       732     0    37     1    12
 -1.2126700756038642E+00 a       733     0    37     1    13
  3.9189004238629138E-01 a       734     0    37     1    14
  2.9457841820663883E-01 a       735     0    37     1    15
 -6.1773149636810665E-01 a       736     0    37     1    16
  5.0782733762672938E-01 a       737     0    37     1    17
 -9.5228533897246381E-01 a       738     0    37     1    18
  8.4418130276011527E-01 a       739     0    37     1    19
 -9.5545470176037950E-01 a       740     0    37     1    20
 -1.7199755738741479E-01 a       741     0    38     1     1
 -1.2279488708274799E+00 a       742     0    38     1     2
  6.4720661839141824E-01 a       743     0    38     1     3
 -5.1721293928948808E-01 a       744     0    38     1     4
 -1.5896682716888408E+00 a       745     0    38     1     5
 -1.3936848534675501E+00 a       746     0    38     1     6
  2.1499905618495259E+00 a       747     0    38     1     7
  1.6455377640590643E+00 a       748     0    38     1     8
 -1.8170820607749716E-01 a       749     0    38     1     9
 -2.6022496755380429E+00 a       750     0    38     1    10
  7.3134928508774011E-01 a       751     0    38     1    11
  1.2405154755912835E+00 a       752     0    38     1    12
  4.8503443798798923E-01 a       753     0    38     1    13
 -9.0487799038590211E-01 a       754     0    38     1    14
  1.7997402811010204E+00 a       755     0    38     1    15
  1.3995462489367827E+00 a       756     0    38     1    16
 -1.1233849090157264E+00 a       757     0    38     1    17
  9.5618163828581348E-01 a       758     0    38     1    18
 -7.3054218976220053E-01 a       759     0    38     1    19
  1.5991895536642847E-01 a       760     0    38     1    20
 -3.2663136809661868E+00 a       761     0    39     1     1
  2.4213517739214558E+00 a       762     0    39     1     2
 -7.3116300484872832E-01 a       763     0    39     1     3
  9.4173477254794125E-01 a       764     0    39     1     4
  2.0807435512127315E+00 a       765     0    39     1     5
 -1.4889352122349086E-02 a       766     0    39     1     6
 -4.2291397007243372E+00 a       767     0    39     1     7
 -1.7113131501784078E+00 a       768     0    39     1     8
 -6.7996269522657009E+00 a       769     0    39     1     9
  1.0487924034808265E+00 a       770     0    39     1    10
 -5.3826131963016555E-01 a       771     0    39     1    11
 -8.1390122309466295E-01 a       772     0    39     1    12
 -3.3141899260144192E+00 a       773     0    39     1    13
 -8.8798885856272347E-01 a       774     0    39     1    14
  2.0790985425028574E+00 a       775     0    39     1    15
  1.4361707509288413E+00 a       776     0    39     1    16
  3.3532434705643266E+00 a       777     0    39     1    17
 -1.3500919479383768E+00 a       778     0    39     1    18
 -1.6395982181544249E+00 a       779     0    39     1    19
  4.5777988476495466E+00 a       780     0    39     1    20
 -3.9496426791866068E-01 a       781     0    40     1     1
  1.1459394283317836E+00 a       782     0    40     1     2
 -5.3815140473567147E-01 a       783     0    40     1     3
  3.4462753678082236E-01 a       784     0    40     1     4
 -2.0424115576320168E-01 a       785     0    40     1     5
 -3.2505733307346918E-01 a       786     0    40     1     6
 -6.7238416467233122E-02 a       787     0    40     1     7
 -1.3908179435059833E-02 a       788     0    40     1     8
  2.8066965151326378E-01 a       789     0    40     1     9
 -3.2390469748227418E-01 a       790     0    40     1    10
  1.4542538017701208E+00 a       791     0    40     1    11
  8.9037913195779428E-01 a       792     0    40     1    12
 -4.6394695183799950E-01 a       793     0    40     1    13
  4.2947423451835498E-01 a       794     0    40     1    14
 -2.7159939868691857E-01 a       795     0    40     1    15
 -8.6389483304639381E-01 a       796     0    40     1    16
  1.5490467882633138E-01 a       797     0    40     1    17
  6.9858416630266396E-01 a       798     0    40     1    18
 -6.4256773805804146E-01 a       799     0    40     1    19
 -4.1492564731180281E-01 a       800     0    40     1    20
  4.7690109423217952E-01 a       801     0    41     1     1
 -2.1575431889454569E-01 a       802     0    41     1     2
  4.1360378336674719E-02 a       803     0    41     1     3
 -1.9638136014903087E+00 a       804     0    41     1     4
 -1.9704479568568475E-01 a       805     0    41     1     5
  6.5277412277427160E-01 a       806     0    41     1     6
 -8.3024890444977975E-02 a       807     0    41     1     7
 -5.5785195947879548E-02 a       808     0    41     1     8
 -1.3571249493266457E+00 a       809     0    41     1     9
  1.2895557949071592E+00 a       810     0    41     1    10
 -2.2047920627749331E+00 a       811     0    41     1    11
 -3.2932706024930765E+00 a       812     0    41     1    12
  1.8907675933803201E+00 a       813     0    41     1    13
 -1.4472025910879178E+00 a       814     0    41     1    14
  1.0490440639927630E+00 a       815     0    41     1    15
  3.8943517048541882E+00 a       816     0    41     1    16
 -1.4229260860343673E+00 a       817     0    41     1    17
 -1.7502905971333158E+00 a       818     0    41     1    18
  1.3880906540163376E+00 a       819     0    41     1    19
  1.1521244510675088E+00 a       820     0    41     1    20
 -2.1214075751457670E-01 a       821     0    42     1     1
 -5.4997509331335541E+00 a       822     0    42     1     2
  1.4930020031369726E+00 a       823     0    42     1     3
  4.7644010921156195E+00 a       824     0    42     1     4
 -1.8908505283107166E+00 a       825     0    42     1     5
 -2.4158683069830325E+00 a       826     0    42     1     6
  7.2864776688781385E-01 a       827     0    42     1     7
 -2.0091359878076978E-01 a       828     0    42     1     8
  6.7103162495719992E+00 a       829     0    42     1     9
 -7.2470724246603968E+00 a       830     0    42     1    10
  3.9828584245246899E+00 a       831     0    42     1    11
  1.0662408171168162E+01 a       832     0    42     1    12
 -7.9202676863468273E+00 a       833     0    42     1    13
  3.1002529325671309E+00 a       834     0    42     1    14
 -4.1143415273864239E+00 a       835     0    42     1    15
 -1.0438508531221352E+01 a       836     0    42     1    16
  3.0230577468499207E+00 a       837     0    42     1    17
  3.6388244468721851E+00 a       838     0    42     1    18
 -2.4075844208453594E+00 a       839     0    42     1    19
 -4.6319426139440658E+00 a       840     0    42     1    20
 -4.3812351018475288E+00 a       841     0    43     1     1
  2.8991185627281064E+00 a       842     0    43     1     2
 -2.5363134802719007E+00 a       843     0    43     1     3
  4.0231520821202453E+00 a       844     0    43     1     4
 -9.3829651265114178E-01 a       845     0    43     1     5
 -1.4751555130223795E+00 a       846     0    43     1     6
  2.1498317583848131E-01 a       847     0    43     1     7
 -5.0616356214332858E-01 a       848     0    43     1     8
 -5.6260566766406084E-01 a       849     0    43     1     9
  6.5283483236588342E+00 a       850     0    43     1    10
 -2.0450559360610212E+00 a       851     0    43     1    11
  8.3146413351997617E-01 a       852     0    43     1    12
  1.2839815974307036E+00 a       853     0    43     1    13
  6.6068863413218368E+00 a       854     0    43     1    14
  2.3051654105471200E+00 a       855     0    43     1    15
  1.3275458639282992E-01 a       856     0    43     1    16
  1.5758737859293499E+00 a       857     0    43     1    17
  6.3113233043464601E-01 a       858     0    43     1    18
  1.2787047808136079E-01 a       859     0    43     1    19
 -2.4772084881588148E+00 a       860     0    43     1    20
 -2.1047805186506888E-01 a       861     0    44     1     1
  4.8712851735008827E-01 a       862     0    44     1     2
  2.1295219401592039E-01 a       863     0    44     1     3
 -1.6174542367620683E+00 a       864     0    44     1     4
 -6.3224743489916058E-01 a       865     0    44     1     5
  3.6427596228897491E-01 a       866     0    44     1     6
  3.0436158381145848E+00 a       867     0    44     1     7
  3.3882982919141638E+00 a       868     0    44     1     8
  1.0760893080811756E-01 a       869     0    44     1     9
 -7.8977797026930707E-01 a       870     0    44     1    10
  6.1632829867880090E-01 a       871     0    44     1    11
  4.5372767628418964E-01 a       872     0    44     1    12
 -1.2264274744578598E+00 a       873     0    44     1    13
 -1.6332705716964300E+00 a       874     0    44     1    14
  1.0944308981816209E+00 a       875     0    44     1    15
 -2.0910275697811706E-01 a       876     0    44     1    16
  9.4534565580459629E-01 a       877     0    44     1    17
 -1.2120399489480889E+00 a       878     0    44     1    18
 -4.2630691018859229E-01 a       879     0    44     1    19
  2.4630568341866244E-01 a       880     0    44     1    20
 -9.0302191078032856E-01 a       881     0    45     1     1
 -2.1295430627944203E+00 a       882     0    45     1     2
 -1.2075348183856875E+00 a       883     0    45     1     3
 -1.5835848801216146E+00 a       884     0    45     1     4
  2.9303727577011460E+00 a       885     0    45     1     5
  2.1027546035589015E+00 a       886     0    45     1     6
  8.7904957458679400E-01 a       887     0    45     1     7
 -2.1864381060346587E+00 a       888     0    45     1     8
  1.1706541423293377E+00 a       889     0    45     1     9
 -6.9050077921839925E+00 a       890     0    45     1    10
  3.1556578372489135E+00 a       891     0    45     1    11
 -2.4992996199378634E+00 a       892     0    45     1    12
 -2.5005389883945046E+00 a       893     0    45     1    13
 -4.4712886631250441E+00 a       894     0    45     1    14
 -5.0425222382861570E+00 a       895     0    45     1    15
 -1.4799290021029976E+00 a       896     0    45     1    16
  1.1410161174086069E+00 a       897     0    45     1    17
 -4.6897375859309109E+00 a       898     0    45     1    18
  1.6934180432434320E+00 a       899     0    45     1    19
  2.5428999586660899E+00 a       900     0    45     1    20
  7.5971215580555052E-01 a       901     0    46     1     1
  2.1516907566941286E+00 a       902     0    46     1     2
  1.6261934405955476E+00 a       903     0    46     1     3
 -1.5828019036229570E+00 a       904     0    46     1     4
 -1.7263434338910337E+00 a       905     0    46     1     5
 -2.4898043653881734E+00 a       906     0    46     1     6
 -3.2629919855985898E+00 a       907     0    46     1     7
  2.7353557520263694E+00 a       908     0    46     1     8
  2.4444321029139591E+00 a       909     0    46     1     9
  5.1200604728314465E+00 a       910     0    46     1    10
 -3.0593027272028439E+00 a       911     0    46     1    11
 -8.7622972892321249E-01 a       912     0    46     1    12
 -3.3362652160466116E-01 a       913     0    46     1    13
  7.6150827176729352E-01 a       914     0    46     1    14
  4.7636585251916834E+00 a       915     0    46     1    15
 -1.0205032081863007E-01 a       916     0    46     1    16
 -1.6698734297649476E+00 a       917     0    46     1    17
  3.1437027431463336E+00 a       918     0    46     1    18
 -4.2393573283252073E-01 a       919     0    46     1    19
  4.9864366737420746E-01 a       920     0    46     1    20
  5.3072334656311018E+00 a       921     0    47     1     1
  2.3290585344383801E+00 a       922     0    47     1     2
 -4.3140988904001237E-01 a       923     0    47     1     3
 -9.3006665190308480E-01 a       924     0    47     1     4
 -3.1568095563725418E+00 a       925     0    47     1     5
 -2.0793111530051638E+00 a       926     0    47     1     6
 -1.2514483841511808E+00 a       927     0    47     1     7
 -4.7819754961388317E-01 a       928     0    47     1     8
 -2.4862275043385371E+00 a       929     0    47     1     9
  4.6583762910527353E+00 a       930     0    47     1    10
 -4.6217192025147371E+00 a       931     0    47     1    11
  8.3959456711285374E-01 a       932     0    47     1    12
  1.4565360802924203E+00 a       933     0    47     1    13
 -2.0261801092553151E+00 a       934     0    47     1    14
  3.6338894034799427E+00 a       935     0    47     1    15
  1.3628040813833291E+00 a       936     0    47     1    16
 -3.0111763598300505E+00 a       937     0    47     1    17
  5.9429681166095856E+00 a       938     0    47     1    18
  3.9417820727486741E-01 a       939     0    47     1    19
  4.3694250604322971E-01 a       940     0    47     1    20
  2.0368794634823657E+00 a       941     0    48     1     1
 -2.4457876468447846E+00 a       942     0    48     1     2
  6.6808071136145208E-01 a       943     0    48     1     3
 -2.1169905485207452E+00 a       944     0    48     1     4
 -1.1897285795357990E+00 a       945     0    48     1     5
  4.8770580449160411E-01 a       946     0    48     1     6
  1.4654590946972375E+00 a       947     0    48     1     7
 -2.0509844121104726E+00 a       948     0    48     1     8
 -1.5418130927428946E+00 a       949     0    48     1     9
  4.2587630069742719E+00 a       950     0    48     1    10
 -5.4103352592639176E-01 a       951     0    48     1    11
  1.6830225663310190E+00 a       952     0    48     1    12
 -2.6917799157573370E+00 a       953     0    48     1    13
 -5.0759725237339373E+00 a       954     0    48     1    14
  6.7887356683318856E-01 a       955     0    48     1    15
  2.5394619478448033E+00 a       956     0    48     1    16
 -4.7193571915490562E+00 a       957     0    48     1    17
 -1.3051464611233408E+00 a       958     0    48     1    18
  1.0497187263046039E+00 a       959     0    48     1    19
  7.3305179159990130E-01 a       960     0    48     1    20
  2.4440077908351103E+00 a       961     0    49     1     1
  3.0328712084995581E-02 a       962     0    49     1     2
 -1.9616145944228767E+00 a       963     0    49     1     3
 -1.2098016206071782E+00 a       964     0    49     1     4
 -1.7830119552460394E-01 a       965     0    49     1     5
 -8.2934457183507282E-01 a       966     0    49     1     6
 -1.4510430132606127E+00 a       967     0    49     1     7
 -9.0383150402656331E-01 a       968     0    49     1     8
 -2.0669641373271492E+00 a       969     0    49     1     9
 -2.8236900050195932E+00 a       970     0    49     1    10
  2.9835551728989484E+00 a       971     0    49     1    11
  1.2606948251382237E+00 a       972     0    49     1    12
 -5.7930741905188698E-01 a       973     0    49     1    13
 -2.9540670825816360E+00 a       974     0    49     1    14
  2.1266439733800304E+00 a       975     0    49     1    15
  7.3182890552866942E-01 a       976     0    49     1    16
 -4.0207688524832413E-01 a       977     0    49     1    17
  1.2200588393524390E+00 a       978     0    49     1    18
  1.1687167752409702E+00 a       979     0    49     1    19
  1.9670515305115035E+00 a       980     0    49     1    20
  1.1471359246574977E+00 a       981     0    50     1     1
  2.1137992138189206E+00 a       982     0    50     1     2
 -1.8945929530568877E+00 a       983     0    50     1     3
 -6.5759073490904407E-01 a       984     0    50     1     4
 -1.9986088275473977E+00 a       985     0    50     1     5
  1.3613403898305663E+00 a       986     0    50     1     6
  1.6991431936084314E+00 a       987     0    50     1     7
  1.9114909455121072E-02 a       988     0    50     1     8
 -2.2432493258452517E+00 a       989     0    50     1     9
  5.8018779210386784E+00 a       990     0    50     1    10
 -4.0699771134794300E+00 a       991     0    50     1    11
 -7.5197527972280742E-01 a       992     0    50     1    12
  1.9912672048452755E+00 a       993     0    50     1    13
 -2.3415331696617465E+00 a       994     0    50     1    14
  9.3278703549724384E-01 a       995     0    50     1    15
  1.0448426319317954E-01 a       996     0    50     1    16
 -2.6178636971099438E+00 a       997     0    50     1    17
  3.2087871970398227E+00 a       998     0    50     1    18
 -1.9197467781036588E+00 a       999     0    50     1    19
  1.1883190576757292E+00 a      1000     0    50     1    20
 -8.4522159047654433E-01 a      1001     0    51     1     1
 -4.4202940388511031E-01 a      1002     0    51     1     2
  6.4301548493291061E-01 a      1003     0    51     1     3
 -2.5610326157575297E-01 a      1004     0    51     1     4
 -4.1231943626308060E-01 a      1005     0    51     1     5
 -1.1886461868559661E+00 a      1006     0    51     1     6
  9.4637003821279497E-01 a      1007     0    51     1     7
  1.2098417232042009E+00 a      1008     0    51     1     8
 -6.1067812626617834E-01 a      1009     0    51     1     9
 -1.7023445414894938E+00 a      1010     0    51     1    10
  8.5540458186755786E-01 a      1011     0    51     1    11
  6.3943157365783154E-01 a      1012     0    51     1    12
 -8.4347806037678208E-01 a      1013     0    51     1    13
 -6.8760317747571120E-01 a      1014     0    51     1    14
  1.5676384068044722E+00 a      1015     0    51     1    15
  5.8556833559374177E-01 a      1016     0    51     1    16
 -1.6051945420808718E+00 a      1017     0    51     1    17
  4.1133621609100786E-02 a      1018     0    51     1    18
 -5.2279116741201270E-01 a      1019     0    51     1    19
  1.3100431955882161E-01 a      1020     0    51     1    20
  4.8515504255889574E+00 a      1021     0    52     1     1
 -3.9357216582285592E+00 a      1022     0    52     1     2
  1.5625218055674812E+00 a      1023     0    52     1     3
 -2.2353044310093155E+00 a      1024     0    52     1     4
 -3.3620784478136230E+00 a      1025     0    52     1     5
  7.0651475541222164E-01 a      1026     0    52     1     6
  7.1474132632858129E+00 a      1027     0    52     1     7
  1.7668557274581096E+00 a      1028     0    52     1     8
  1.0601845681165745E+01 a      1029     0    52     1     9
 -2.5250756500411606E+00 a      1030     0    52     1    10
 -3.6564794653382410E-01 a      1031     0    52     1    11
  6.8287878402166524E-01 a      1032     0    52     1    12
  4.8418447396205604E+00 a      1033     0    52     1    13
  2.2506223713526268E+00 a      1034     0    52     1    14
 -3.3643696520663484E+00 a      1035     0    52     1    15
 -3.3111185353128496E+00 a      1036     0    52     1    16
 -4.0437465779977142E+00 a      1037     0    52     1    17
  2.5764599013223357E+00 a      1038     0    52     1    18
  3.0856345344280971E+00 a      1039     0    52     1    19
 -6.6121295045576423E+00 a      1040     0    52     1    20
  1.2014922539224975E+00 a      1041     0    53     1     1
  8.0654120080462421E-01 a      1042     0    53     1     2
 -2.2983416696472916E+00 a      1043     0    53     1     3
 -1.3236765588711583E+00 a      1044     0    53     1     4
 -6.8256325488947045E-01 a      1045     0    53     1     5
  3.4501555366727188E-01 a      1046     0    53     1     6
  7.3700554695633977E+00 a      1047     0    53     1     7
 -9.3811307345719841E-01 a      1048     0    53     1     8
 -5.7380998064489409E-02 a      1049     0    53     1     9
  3.1370675319612840E+00 a      1050     0    53     1    10
  3.1076283597406307E+00 a      1051     0    53     1    11
  2.4606200096480393E+00 a      1052     0    53     1    12
 -4.0943537810911801E+00 a      1053     0    53     1    13
 -1.3981845974467322E+00 a      1054     0    53     1    14
 -3.0109339502406360E+00 a      1055     0    53     1    15
  8.8165949919215225E-01 a      1056     0    53     1    16
  4.4286591282548582E-01 a      1057     0    53     1    17
  3.6132771710838703E+00 a      1058     0    53     1    18
 -4.7535787017189052E-01 a      1059     0    53     1    19
  3.2918192468350234E+00 a      1060     0    53     1    20
 -3.2759351259067442E+00 a      1061     0    54     1     1
 -4.3307454284471758E+00 a      1062     0    54     1     2
  3.0372690806882860E+00 a      1063     0    54     1     3
 -1.7840099659480280E+00 a      1064     0    54     1     4
  3.9227204758987697E+00 a      1065     0    54     1     5
 -6.0722139802298691E-01 a      1066     0    54     1     6
 -3.8293596087693147E+00 a      1067     0    54     1     7
  2.3306772583212929E+00 a      1068     0    54     1     8
 -3.3252501116013988E-01 a      1069     0    54     1     9
 -1.7016548423984346E+00 a      1070     0    54     1    10
 -4.3230384108860580E+00 a      1071     0    54     1    11
 -2.4704852218129352E+00 a      1072     0    54     1    12
  6.8735366132448892E+00 a      1073     0    54     1    13
  2.8356250577150788E+00 a      1074     0    54     1    14
  4.0221210511084644E+00 a      1075     0    54     1    15
  1.9704668260025278E+00 a      1076     0    54     1    16
 -1.8289771883592836E+00 a      1077     0    54     1    17
 -4.3272175812200127E+00 a      1078     0    54     1    18
  1.6084834448875194E+00 a      1079     0    54     1    19
 -1.9100632323985185E+00 a      1080     0    54     1    20
  5.7543641580226379E-01 a      1081     0    55     1     1
  2.8002615050128306E+00 a      1082     0    55     1     2
  1.0577139593827267E+00 a      1083     0    55     1     3
  3.3825830852841516E+00 a      1084     0    55     1     4
 -2.7687138537069553E+00 a      1085     0    55     1     5
  1.9064312980104574E+00 a      1086     0    55     1     6
  3.3850137501159899E-01 a      1087     0    55     1     7
 -1.1134038128537991E+00 a      1088     0    55     1     8
  2.2493449057626442E+00 a      1089     0    55     1     9
 -4.0990022577587366E+00 a      1090     0    55     1    10
  3.8577506527727728E-01 a      1091     0    55     1    11
 -6.0788632712795776E-01 a      1092     0    55     1    12
  1.6127469147398412E+00 a      1093     0    55     1    13
  1.3128811140181765E-01 a      1094     0    55     1    14
  6.6832466153273218E-01 a      1095     0    55     1    15
 -3.8013765964373616E+00 a      1096     0    55     1    16
 -1.2065956480869948E-01 a      1097     0    55     1    17
  1.1872214576636293E-01 a      1098     0    55     1    18
  1.3310334561404322E+00 a      1099     0    55     1    19
 -3.3471739465174801E+00 a      1100     0    55     1    20
  1.2910002945820462E+01 a      1101     0    56     1     1
  2.6471250439961768E+01 a      1102     0    56     1     2
  1.3977120488242834E+01 a      1103     0    56     1     3
 -4.4571757472982778E+00 a      1104     0    56     1     4
  3.7958876134778934E+00 a      1105     0    56     1     5
  6.2676315885385636E-01 a      1106     0    56     1     6
  6.7324392571398137E+00 a      1107     0    56     1     7
  1.2320757042336357E+01 a      1108     0    56     1     8
  1.2906381073618311E+01 a      1109     0    56     1     9
  2.4945226565080862E+01 a      1110     0    56     1    10
 -2.5496377105403427E+00 a      1111     0    56     1    11
  1.8644163140479939E+00 a      1112     0    56     1    12
 -3.0654852670114089E+01 a      1113     0    56     1    13
  1.2733346831286763E+01 a      1114     0    56     1    14
  3.3116154856100644E+00 a      1115     0    56     1    15
  2.8393282802426354E+00 a      1116     0    56     1    16
  1.0384212486537709E+01 a      1117     0    56     1    17
 -1.5050708054267284E+01 a      1118     0    56     1    18
  1.9449153087651759E+01 a      1119     0    56     1    19
 -8.9609995925729979E+00 a      1120     0    56     1    20
 -1.7925521156976519E+01 a      1121     0    57     1     1
 -2.4756354441809506E+01 a      1122     0    57     1     2
 -2.0380642125843391E+01 a      1123     0    57     1     3
 -2.5087504332307645E+01 a      1124     0    57     1     4
 -8.5100470613174242E+00 a      1125     0    57     1     5
  3.9184300508182131E+00 a      1126     0    57     1     6
 -9.7053993668769536E+00 a      1127     0    57     1     7
  1.8531938905865959E+00 a      1128     0    57     1     8
 -5.7295375032946696E+00 a      1129     0    57     1     9
 -1.5234344067475254E+01 a      1130     0    57     1    10
  4.1450495641654310E+00 a      1131     0    57     1    11
  6.4154191193454437E+00 a      1132     0    57     1    12
  2.4493196631850736E+01 a      1133     0    57     1    13
  1.9043699228067091E+01 a      1134     0    57     1    14
 -7.5209256248364946E+00 a      1135     0    57     1    15
 -1.1926626836190879E+00 a      1136     0    57     1    16
 -5.7583596289433086E+00 a      1137     0    57     1    17
  2.7567352702255672E+01 a      1138     0    57     1    18
 -1.6338882989968006E+01 a      1139     0    57     1    19
  6.3932128789808864E+00 a      1140     0    57     1    20
 -4.4403739174759416E+00 a      1141     0    58     1     1
  6.2871902949936176E-01 a      1142     0    58     1     2
 -3.9634218161570316E+00 a      1143     0    58     1     3
 -3.3168196039378262E+00 a      1144     0    58     1     4
  2.1443948911569115E+00 a      1145     0    58     1     5
  5.2574026550428163E+00 a      1146     0    58     1     6
 -2.4753840193659786E+00 a      1147     0    58     1     7
 -3.5524744900919019E+00 a      1148     0    58     1     8
 -3.6853820491362232E-01 a      1149     0    58     1     9
 -2.4861010212050294E+00 a      1150     0    58     1    10
  8.0676487114731660E-02 a      1151     0    58     1    11
 -3.2584216118619197E-02 a      1152     0    58     1    12
 -3.3417302139376184E+00 a      1153     0    58     1    13
 -3.1117294688569892E+00 a      1154     0    58     1    14
 -1.5270288302324102E+00 a      1155     0    58     1    15
 -3.1593872872983892E+00 a      1156     0    58     1    16
 -2.8101429440552916E-01 a      1157     0    58     1    17
 -3.7067842826579498E+00 a      1158     0    58     1    18
 -1.6612429991020423E+00 a      1159     0    58     1    19
  9.8958775074753769E-01 a      1160     0    58     1    20
 -2.9367466537326594E+00 a      1161     0    59     1     1
 -1.2863448910177362E+00 a      1162     0    59     1     2
 -1.1296128294669283E-02 a      1163     0    59     1     3
  7.9609072532588399E-01 a      1164     0    59     1     4
 -2.1196232543383162E-01 a      1165     0    59     1     5
 -1.6543101116247438E-01 a      1166     0    59     1     6
  6.3317479669133627E+00 a      1167     0    59     1     7
  7.4676660436521647E-01 a      1168     0    59     1     8
 -7.4403173072938400E-01 a      1169     0    59     1     9
  1.2348168943360986E+00 a      1170     0    59     1    10
  1.1749965720007762E+00 a      1171     0    59     1    11
  5.4418424012789024E-01 a      1172     0    59     1    12
 -4.6583071716336422E+00 a      1173     0    59     1    13
  8.7019342033581837E-01 a      1174     0    59     1    14
 -1.8998646041639615E+00 a      1175     0    59     1    15
 -6.3998620351832836E-01 a      1176     0    59     1    16
  6.6900271824973634E-01 a      1177     0    59     1    17
  4.1898473416079565E+00 a      1178     0    59     1    18
 -9.8473742719306578E-01 a      1179     0    59     1    19
  1.7751937369351560E+00 a      1180     0    59     1    20
  4.2230539758639267E+00 a      1181     0    60     1     1
  1.5076796129575159E+01 a      1182     0    60     1     2
  1.1047001796841887E+01 a      1183     0    60     1     3
  2.8854391089372364E+00 a      1184     0    60     1     4
 -2.5125356690536131E+00 a      1185     0    60     1     5
  7.0258569860921072E-01 a      1186     0    60     1     6
 -2.5247066632992105E+01 a      1187     0    60     1     7
  6.7022226332592396E+00 a      1188     0    60     1     8
  2.1039432175593362E+01 a      1189     0    60     1     9
 -2.7612839900588910E+00 a      1190     0    60     1    10
  2.7219485688524405E+00 a      1191     0    60     1    11
 -1.1247084363026907E+01 a      1192     0    60     1    12
 -2.5124764633613520E+01 a      1193     0    60     1    13
 -9.7088534471232286E+00 a      1194     0    60     1    14
  1.9156980445677700E+00 a      1195     0    60     1    15
  4.3570983820211318E+00 a      1196     0    60     1    16
  5.3350352834974428E+00 a      1197     0    60     1    17
 -1.0269805261539902E+01 a      1198     0    60     1    18
  1.1153532877849946E+01 a      1199     0    60     1    19
 -7.2195033923846486E-01 a      1200     0    60     1    20
 -3.0747691711823699E+00 a      1201     0    61     1     1
  1.0225184489175283E+00 a      1202     0    61     1     2
 -1.8997582924396985E+00 a      1203     0    61     1     3
  1.9567332781122135E-01 a      1204     0    61     1     4
 -1.9463422613639092E+00 a      1205     0    61     1     5
 -5.6536602411458912E+00 a      1206     0    61     1     6
 -8.6112505003022211E+00 a      1207     0    61     1     7
 -2.5872130753730445E+00 a      1208     0    61     1     8
 -1.5500932297613701E+00 a      1209     0    61     1     9
 -6.4185031590174386E+00 a      1210     0    61     1    10
  4.6675569174704729E-01 a      1211     0    61     1    11
 -2.1481380974282867E+00 a      1212     0    61     1    12
 -1.9439164307127184E+00 a      1213     0    61     1    13
 -9.0117434514009653E-01 a      1214     0    61     1    14
 -1.5035786372788706E+00 a      1215     0    61     1    15
 -2.9824351885651237E+00 a      1216     0    61     1    16
 -1.2646280962348144E+00 a      1217     0    61     1    17
  1.0822640712102671E+00 a      1218     0    61     1    18
 -5.3164621688468960E+00 a      1219     0    61     1    19
  4.4524718121878726E+00 a      1220     0    61     1    20
  1.6385909610738354E+00 a      1221     0    62     1     1
 -1.2303819705414345E+00 a      1222     0    62     1     2
  5.9827383486412113E+00 a      1223     0    62     1     3
 -1.5305700708905698E+00 a      1224     0    62     1     4
  4.9350850827907147E+00 a      1225     0    62     1     5
  6.6636111647431653E+00 a      1226     0    62     1     6
  3.4602077579375917E-01 a      1227     0    62     1     7
 -1.0098022939971405E+00 a      1228     0    62     1     8
  8.6380492763950762E+00 a      1229     0    62     1     9
 -1.5685167271741811E+00 a      1230     0    62     1    10
 -3.9149575768134142E+00 a      1231     0    62     1    11
  4.3682780691443872E+00 a      1232     0    62     1    12
  4.2414352800461943E+00 a      1233     0    62     1    13
 -1.1106455485630307E+00 a      1234     0    62     1    14
  2.3378673719184584E+00 a      1235     0    62     1    15
  6.0676782159715854E+00 a      1236     0    62     1    16
  2.4882763741967588E+00 a      1237     0    62     1    17
 -5.0712097006569810E+00 a      1238     0    62     1    18
  9.3189217835469473E-01 a      1239     0    62     1    19
 -8.5705404766227067E-01 a      1240     0    62     1    20
 -8.0779719469804494E+00 a      1241     0    63     1     1
 -1.5370575619033831E+01 a      1242     0    63     1     2
 -7.5529302237128642E+00 a      1243     0    63     1     3
  4.0197376690517830E+00 a      1244     0    63     1     4
  2.6258744824724798E+00 a      1245     0    63     1     5
 -4.6570398667095994E+00 a      1246     0    63     1     6
  3.7105034465957321E+00 a      1247     0    63     1     7
 -2.1151563831163607E+00 a      1248     0    63     1     8
 -1.6326582565783205E+01 a      1249     0    63     1     9
 -7.2931095971962803E+00 a      1250     0    63     1    10
 -4.6776138368415827E+00 a      1251     0    63     1    11
  3.1752687486942590E+00 a      1252     0    63     1    12
  2.0767867148263026E+01 a      1253     0    63     1    13
 -1.3579214461295065E+01 a      1254     0    63     1    14
 -1.3158783460287649E+00 a      1255     0    63     1    15
  2.5251865717537730E-01 a      1256     0    63     1    16
 -1.0653728795207249E+01 a      1257     0    63     1    17
  6.3004335964161315E+00 a      1258     0    63     1    18
 -1.5406832277737367E+01 a      1259     0    63     1    19
  4.0459524480281255E+00 a      1260     0    63     1    20
  3.6295123212065499E+00 a      1261     0    64     1     1
 -2.5249948431184088E+00 a      1262     0    64     1     2
  2.0763306059978128E+00 a      1263     0    64     1     3
  3.2605494858248028E+00 a      1264     0    64     1     4
 -1.5646430366595367E+00 a      1265     0    64     1     5
 -6.6475697469635957E+00 a      1266     0    64     1     6
  5.1249497474243073E+00 a      1267     0    64     1     7
  2.4363727686959353E+00 a      1268     0    64     1     8
  5.5397490308549124E-01 a      1269     0    64     1     9
 -1.2788022958344860E+00 a      1270     0    64     1    10
 -5.3351761767010930E-01 a      1271     0    64     1    11
  3.0208977914118051E+00 a      1272     0    64     1    12
 -3.6728581722838494E-01 a      1273     0    64     1    13
  4.1727421210728863E+00 a      1274     0    64     1    14
  3.4428774127370096E+00 a      1275     0    64     1    15
  2.2449820108666132E+00 a      1276     0    64     1    16
  4.0820739935492609E+00 a      1277     0    64     1    17
  4.3600991804451894E+00 a      1278     0    64     1    18
  2.7200025067037630E+00 a      1279     0    64     1    19
 -9.7721582819268182E-01 a      1280     0    64     1    20
  1.9203966894615093E+01 a      1281     0    65     1     1
  2.5918716609405394E+01 a      1282     0    65     1     2
  9.3842752985534794E+00 a      1283     0    65     1     3
  1.6356913218770980E+01 a      1284     0    65     1     4
  2.4268842434078244E+00 a      1285     0    65     1     5
  1.9905799977169953E+00 a      1286     0    65     1     6
  2.4911182208060229E-01 a      1287     0    65     1     7
 -8.1687182624621748E+00 a      1288     0    65     1     8
  1.5996285485334321E+01 a      1289     0    65     1     9
  7.1823291273955885E+00 a      1290     0    65     1    10
 -4.3264850077519945E+00 a      1291     0    65     1    11
 -5.7433163009652235E+00 a      1292     0    65     1    12
  4.0364878048028263E+00 a      1293     0    65     1    13
 -2.7248836312089003E-01 a      1294     0    65     1    14
  1.4414567832443439E+01 a      1295     0    65     1    15
 -6.4933777650511777E+00 a      1296     0    65     1    16
  8.5875955606835799E+00 a      1297     0    65     1    17
 -1.3305263775252408E+01 a      1298     0    65     1    18
  2.1659871623040381E+01 a      1299     0    65     1    19
 -4.9831312420909102E-01 a      1300     0    65     1    20
 -2.7165473562004774E+00 a      1301     0    66     1     1
 -9.9703656447499593E+00 a      1302     0    66     1     2
 -9.7984470433451012E+00 a      1303     0    66     1     3
 -3.8295103560360952E+00 a      1304     0    66     1     4
 -4.6855548072488162E-01 a      1305     0    66     1     5
 -8.4077310019749678E+00 a      1306     0    66     1     6
  1.5874095235080237E+00 a      1307     0    66     1     7
  4.8189419663542417E+00 a      1308     0    66     1     8
 -5.5429070635511870E+00 a      1309     0    66     1     9
  5.6337637289329734E-01 a      1310     0    66     1    10
  3.9613652486802986E-01 a      1311     0    66     1    11
 -3.2209666230377350E+00 a      1312     0    66     1    12
 -1.9851077753638272E-01 a      1313     0    66     1    13
  2.2307229302340938E+00 a      1314     0    66     1    14
  2.8746941912443975E+00 a      1315     0    66     1    15
 -8.3367032204939164E+00 a      1316     0    66     1    16
 -1.6924281705878326E+00 a      1317     0    66     1    17
  5.0468434094599237E+00 a      1318     0    66     1    18
 -2.6879813998731961E-01 a      1319     0    66     1    19
  1.3309091865655605E+00 a      1320     0    66     1    20
 -8.5639323742623610E+00 a      1321     0    67     1     1
 -1.2856627018246867E+01 a      1322     0    67     1     2
  6.8247793038818072E+00 a      1323     0    67     1     3
  1.6718523221924253E+00 a      1324     0    67     1     4
  6.0236972235578105E-02 a      1325     0    67     1     5
 -6.8204570585449806E+00 a      1326     0    67     1     6
  1.7049517014449204E+01 a      1327     0    67     1     7
 -1.5891099588823574E+00 a      1328     0    67     1     8
 -1.7546229633300197E+01 a      1329     0    67     1     9
 -2.5742510798988438E+00 a      1330     0    67     1    10
 -7.9401270004882338E+00 a      1331     0    67     1    11
  1.0356777547886200E+01 a      1332     0    67     1    12
  3.0657696772786636E+01 a      1333     0    67     1    13
  1.8970771534785358E+00 a      1334     0    67     1    14
 -9.8288699543948947E+00 a      1335     0    67     1    15
  2.5923957763196492E+00 a      1336     0    67     1    16
 -4.1890614030753683E+00 a      1337     0    67     1    17
 -2.9525246702936521E+00 a      1338     0    67     1    18
 -1.9353296662435856E+01 a      1339     0    67     1    19
 -3.6217697027073195E+00 a      1340     0    67     1    20
  9.0339437233622899E+00 a      1341     0    68     1     1
  3.2705936979593431E+00 a      1342     0    68     1     2
  2.6466241960810479E+00 a      1343     0    68     1     3
 -1.8987304001013481E+00 a      1344     0    68     1     4
  2.5315237799839490E+00 a      1345     0    68     1     5
  1.1386558109494795E+01 a      1346     0    68     1     6
  6.9595566012583507E+00 a      1347     0    68     1     7
  4.4515507665790883E+00 a      1348     0    68     1     8
  7.1382539949900368E+00 a      1349     0    68     1     9
  6.0320988519407432E+00 a      1350     0    68     1    10
  2.5523783961641913E+00 a      1351     0    68     1    11
 -2.4175796390423674E+00 a      1352     0    68     1    12
  3.0759814054274810E+00 a      1353     0    68     1    13
  1.0616003702206871E+00 a      1354     0    68     1    14
  3.7735852760371946E+00 a      1355     0    68     1    15
  7.5078960939246722E+00 a      1356     0    68     1    16
  2.7316362641711533E+00 a      1357     0    68     1    17
 -9.6626400834752832E+00 a      1358     0    68     1    18
  1.0570074329442081E+01 a      1359     0    68     1    19
 -8.8773768628874379E+00 a      1360     0    68     1    20
  4.4538644947689638E+00 a      1361     0    69     1     1
  3.6240795477187322E+00 a      1362     0    69     1     2
  1.2422835299595654E+00 a      1363     0    69     1     3
 -4.4305320014710352E+00 a      1364     0    69     1     4
  1.9810513399789358E+00 a      1365     0    69     1     5
  3.2158155329375022E+00 a      1366     0    69     1     6
 -1.3746727489263924E+00 a      1367     0    69     1     7
 -1.4677766912648096E+00 a      1368     0    69     1     8
  7.7290592278034764E-01 a      1369     0    69     1     9
 -4.5816507021630084E+00 a      1370     0    69     1    10
 -1.1239599439198975E+00 a      1371     0    69     1    11
 -1.7876557807006526E+00 a      1372     0    69     1    12
  3.4277191801522089E+00 a      1373     0    69     1    13
 -2.2762748002447188E+00 a      1374     0    69     1    14
  8.7992972230102362E-01 a      1375     0    69     1    15
  4.3131016342709810E-01 a      1376     0    69     1    16
 -6.2035536336341102E-01 a      1377     0    69     1    17
 -4.5888901075939668E+00 a      1378     0    69     1    18
 -8.9455056264061861E-01 a      1379     0    69     1    19
 -9.3696585992286219E-01 a      1380     0    69     1    20
  4.2955093377087072E+00 a      1381     0    70     1     1
 -4.5432898297384678E+00 a      1382     0    70     1     2
 -9.5911092125888142E-01 a      1383     0    70     1     3
 -4.7018291993844780E-01 a      1384     0    70     1     4
  1.2886159156058230E+00 a      1385     0    70     1     5
 -5.1689836466797932E+00 a      1386     0    70     1     6
 -1.1884824965448537E+00 a      1387     0    70     1     7
  1.2894370174424654E+00 a      1388     0    70     1     8
  3.4823337628503048E-01 a      1389     0    70     1     9
 -4.9089431536351336E-01 a      1390     0    70     1    10
  1.6882209149430729E+00 a      1391     0    70     1    11
 -1.6214634193374422E+00 a      1392     0    70     1    12
 -6.1497972448142502E-01 a      1393     0    70     1    13
  1.1146992292508369E+00 a      1394     0    70     1    14
  3.2269902356469182E-01 a      1395     0    70     1    15
 -1.9982901088157088E+00 a      1396     0    70     1    16
  7.3674248205244075E-01 a      1397     0    70     1    17
 -3.1973588512269799E+00 a      1398     0    70     1    18
  3.6080930384376924E+00 a      1399     0    70     1    19
 -6.7735135019533224E-02 a      1400     0    70     1    20
  2.4685378714175235E+00 a      1401     0    71     1     1
  1.4921247786592637E+01 a      1402     0    71     1     2
  3.2742831668812356E+00 a      1403     0    71     1     3
  9.6447532081754677E+00 a      1404     0    71     1     4
 -4.9375852431775895E+00 a      1405     0    71     1     5
  2.3874570035669880E+00 a      1406     0    71     1     6
 -5.9744862631195934E+00 a      1407     0    71     1     7
 -2.2828788020974651E+00 a      1408     0    71     1     8
 -7.9326566952448951E+00 a      1409     0    71     1     9
  2.0868573398108099E+00 a      1410     0    71     1    10
  2.2688414019028733E+00 a      1411     0    71     1    11
 -1.5186956793712503E-01 a      1412     0    71     1    12
 -5.0476417445029043E+00 a      1413     0    71     1    13
 -2.2090318685999231E+00 a      1414     0    71     1    14
 -4.6465970149283287E+00 a      1415     0    71     1    15
  4.7001092032210341E+00 a      1416     0    71     1    16
 -1.1626672059083654E-01 a      1417     0    71     1    17
  1.2214511499656382E-01 a      1418     0    71     1    18
 -2.7681601085682224E+00 a      1419     0    71     1    19
  9.8226234192025430E-01 a      1420     0    71     1    20
 -6.3540734826920842E-01 a      1421     0    72     1     1
  3.6657601466652192E+00 a      1422     0    72     1     2
  1.7889101340522440E+00 a      1423     0    72     1     3
 -3.9865430484505143E-01 a      1424     0    72     1     4
 -4.7259567275704600E-01 a      1425     0    72     1     5
  3.4368034373788530E+00 a      1426     0    72     1     6
 -2.3250609376182823E+00 a      1427     0    72     1     7
  6.2616106850564979E-01 a      1428     0    72     1     8
  8.0803626932831685E-01 a      1429     0    72     1     9
  2.2497812877731657E-01 a      1430     0    72     1    10
 -3.0400929891399824E+00 a      1431     0    72     1    11
  9.1772891086998121E-01 a      1432     0    72     1    12
  2.7999728114909943E+00 a      1433     0    72     1    13
 -1.4484805777293170E+00 a      1434     0    72     1    14
  1.0323445802370457E+00 a      1435     0    72     1    15
  3.1747213524512041E+00 a      1436     0    72     1    16
 -6.6069664535475703E-01 a      1437     0    72     1    17
 -2.3152632885738682E+00 a      1438     0    72     1    18
 -1.9467638948718857E+00 a      1439     0    72     1    19
 -9.9810440504248388E-01 a      1440     0    72     1    20
 -5.4430799522334343E+00 a      1441     0    73     1     1
 -2.6242237382603502E+01 a      1442     0    73     1     2
 -2.4087009227402046E+01 a      1443     0    73     1     3
 -1.8175834583315130E+01 a      1444     0    73     1     4
  7.7192793448717083E+00 a      1445     0    73     1     5
  6.1897775845147853E+00 a      1446     0    73     1     6
  9.7376895593581381E+00 a      1447     0    73     1     7
  1.1009926715044598E+01 a      1448     0    73     1     8
 -1.5513345604607611E+01 a      1449     0    73     1     9
  9.8841617906415413E-01 a      1450     0    73     1    10
  9.3476810838107927E+00 a      1451     0    73     1    11
  1.7943969696925088E+00 a      1452     0    73     1    12
 -1.0262058429535889E+01 a      1453     0    73     1    13
 -2.5211556754195255E+00 a      1454     0    73     1    14
  5.1558328759854213E+00 a      1455     0    73     1    15
 -4.6147011218709473E+00 a      1456     0    73     1    16
 -1.2192330046403578E+01 a      1457     0    73     1    17
  1.6368588930103900E+01 a      1458     0    73     1    18
 -1.6174169406289432E-01 a      1459     0    73     1    19
  1.5402904345007598E+00 a      1460     0    73     1    20
  2.5996201878798990E+00 a      1461     0    74     1     1
 -1.9274575733339319E+00 a      1462     0    74     1     2
 -1.4321661406111243E+00 a      1463     0    74     1     3
  4.1661603971846400E-01 a      1464     0    74     1     4
  1.8549682224393309E+00 a      1465     0    74     1     5
 -1.1964365903768384E+00 a      1466     0    74     1     6
 -1.9625154046052218E+00 a      1467     0    74     1     7
 -1.4595630703602358E+00 a      1468     0    74     1     8
 -5.9563149421292327E-01 a      1469     0    74     1     9
  1.7010148918952022E+00 a      1470     0    74     1    10
 -5.1335782854684053E-01 a      1471     0    74     1    11
  3.6473410133850215E+00 a      1472     0    74     1    12
 -1.1609097317952168E+01 a      1473     0    74     1    13
  5.5143665777503754E+00 a      1474     0    74     1    14
  1.8274722675610411E+00 a      1475     0    74     1    15
  3.3116000745205199E+00 a      1476     0    74     1    16
  9.4830507990496193E-01 a      1477     0    74     1    17
  5.8918523369244191E+00 a      1478     0    74     1    18
 -1.4545055904071713E+00 a      1479     0    74     1    19
  4.3593377991765907E+00 a      1480     0    74     1    20
 -4.1248498747066460E+00 a      1481     0    75     1     1
 -4.5859698418912451E+00 a      1482     0    75     1     2
 -1.2075862849254757E+00 a      1483     0    75     1     3
  1.1441061497903968E+00 a      1484     0    75     1     4
  1.6700821432493409E+00 a      1485     0    75     1     5
 -1.2544614028076541E+01 a      1486     0    75     1     6
  2.3974540359084284E+00 a      1487     0    75     1     7
 -1.3383955339593656E+00 a      1488     0    75     1     8
 -3.5721650298509013E+00 a      1489     0    75     1     9
 -8.7673699899831897E-02 a      1490     0    75     1    10
 -4.8209493311268492E+00 a      1491     0    75     1    11
 -2.5000655494628643E+00 a      1492     0    75     1    12
  6.2004188394108590E+00 a      1493     0    75     1    13
  5.2921015241266423E+00 a      1494     0    75     1    14
  2.1871801113296727E+00 a      1495     0    75     1    15
 -3.8726991554826857E+00 a      1496     0    75     1    16
 -7.1206383656563688E+00 a      1497     0    75     1    17
 -1.6252954598482277E+00 a      1498     0    75     1    18
 -8.9265737323019341E+00 a      1499     0    75     1    19
  2.2249472351013511E+00 a      1500     0    75     1    20
  1.3324050315368472E+00 a      1501     0    76     1     1
  6.7207294681621832E-01 a      1502     0    76     1     2
 -9.1061396671496098E-01 a      1503     0    76     1     3
  2.1594730054971703E-01 a      1504     0    76     1     4
  3.8984249293973305E-01 a      1505     0    76     1     5
 -1.2405426534788451E+00 a      1506     0    76     1     6
 -5.2334791394252154E+00 a      1507     0    76     1     7
  4.0797927291444930E-01 a      1508     0    76     1     8
 -2.3914010837384407E+00 a      1509     0    76     1     9
  3.6025709609240435E+00 a      1510     0    76     1    10
  1.4246337930864972E+00 a      1511     0    76     1    11
  1.3633926850132387E+00 a      1512     0    76     1    12
 -5.8923834814328684E+00 a      1513     0    76     1    13
 -1.4180631128452248E+00 a      1514     0    76     1    14
 -1.3352843485226613E+00 a      1515     0    76     1    15
  1.3502456076974176E+00 a      1516     0    76     1    16
  1.5865424229650200E+00 a      1517     0    76     1    17
  8.1510320440830078E-02 a      1518     0    76     1    18
 -3.0118087246993026E+00 a      1519     0    76     1    19
  2.7760501474468149E+00 a      1520     0    76     1    20
 -1.9587173004223208E+00 a      1521     0    77     1     1
 -4.3489673886127420E+00 a      1522     0    77     1     2
 -2.2947910632877018E+00 a      1523     0    77     1     3
  2.5485793827002330E+00 a      1524     0    77     1     4
  1.2756093654670160E+00 a      1525     0    77     1     5
  3.5806086754591155E+00 a      1526     0    77     1     6
  1.2168975103032230E+01 a      1527     0    77     1     7
  1.1170093417342246E+00 a      1528     0    77     1     8
 -7.0533429679704893E+00 a      1529     0    77     1     9
  2.9351596187512801E+00 a      1530     0    77     1    10
  1.6694827973683084E+00 a      1531     0    77     1    11
  3.7683989940885430E+00 a      1532     0    77     1    12
  8.3162797113104769E-01 a      1533     0    77     1    13
 -1.8741706650559049E+00 a      1534     0    77     1    14
  1.6766553603632957E+00 a      1535     0    77     1    15
  1.5057687725064270E+00 a      1536     0    77     1    16
 -6.5252764137741281E-01 a      1537     0    77     1    17
  7.8181348356974223E-01 a      1538     0    77     1    18
  1.9028520884266606E+00 a      1539     0    77     1    19
  6.6501411132068933E-01 a      1540     0    77     1    20
 -2.7501118511737372E+00 a      1541     0    78     1     1
 -1.2012409423158665E+00 a      1542     0    78     1     2
 -6.4550456870624693E+00 a      1543     0    78     1     3
 -6.3923563443209366E+00 a      1544     0    78     1     4
 -2.2340639619616138E+00 a      1545     0    78     1     5
 -4.7561317602125985E+00 a      1546     0    78     1     6
 -1.3554123142562634E+01 a      1547     0    78     1     7
  4.6826508142100582E+00 a      1548     0    78     1     8
  1.5694325801554243E+01 a      1549     0    78     1     9
 -5.2272920073703473E+00 a      1550     0    78     1    10
  4.4742123215772782E+00 a      1551     0    78     1    11
 -5.7405999047953771E-01 a      1552     0    78     1    12
 -3.2452247655446360E+00 a      1553     0    78     1    13
  2.0510284102154386E+00 a      1554     0    78     1    14
  7.9076145265540765E+00 a      1555     0    78     1    15
 -2.7414836098692072E+00 a      1556     0    78     1    16
 -4.7390289391390139E+00 a      1557     0    78     1    17
  3.6259197181318310E+00 a      1558     0    78     1    18
 -5.8908002129716719E+00 a      1559     0    78     1    19
  2.8808238522156948E+00 a      1560     0    78     1    20
 -4.3441225620045270E+00 a      1561     0    79     1     1
 -2.2650833445603986E+00 a      1562     0    79     1     2
  8.9693986763429079E-01 a      1563     0    79     1     3
  7.2241955283340928E+00 a      1564     0    79     1     4
  3.2386006004988883E+00 a      1565     0    79     1     5
  2.7842951551555823E+00 a      1566     0    79     1     6
  1.3565395966974195E+01 a      1567     0    79     1     7
 -4.8850067752348778E+00 a      1568     0    79     1     8
 -1.5009011123735319E+00 a      1569     0    79     1     9
  2.9510814025090242E+00 a      1570     0    79     1    10
  1.4401828752427490E+00 a      1571     0    79     1    11
  3.3655939116631450E+00 a      1572     0    79     1    12
 -4.2713678054150765E+00 a      1573     0    79     1    13
 -9.2219942793277498E-01 a      1574     0    79     1    14
 -4.7484381108456108E-01 a      1575     0    79     1    15
  4.8041190559484553E-01 a      1576     0    79     1    16
  1.5104893400285710E-01 a      1577     0    79     1    17
  1.6682522938932174E+00 a      1578     0    79     1    18
 -4.6467232790917384E-01 a      1579     0    79     1    19
  1.6564619313895006E+00 a      1580     0    79     1    20
  3.2232648790930520E+00 a      1581     0    80     1     1
  8.9457143414172045E+00 a      1582     0    80     1     2
  8.9650194731954915E+00 a      1583     0    80     1     3
 -3.7323366257509147E+00 a      1584     0    80     1     4
 -2.7099719199131980E+00 a      1585     0    80     1     5
 -8.8396751947840979E+00 a      1586     0    80     1     6
 -2.0620657000029411E+01 a      1587     0    80     1     7
 -3.7082264633327675E+00 a      1588     0    80     1     8
  1.5783304128779710E+01 a      1589     0    80     1     9
 -6.2483712015935273E+00 a      1590     0    80     1    10
 -3.8216830508208384E+00 a      1591     0    80     1    11
 -7.9894748995985445E+00 a      1592     0    80     1    12
 -4.3874580600437367E+00 a      1593     0    80     1    13
  2.2636450697972368E+00 a      1594     0    80     1    14
 -3.0436625212993094E+00 a      1595     0    80     1    15
 -3.9858925799732359E+00 a      1596     0    80     1    16
 -2.1360841140289119E-01 a      1597     0    80     1    17
 -1.9279577078921044E+00 a      1598     0    80     1    18
 -4.1499272025584890E+00 a      1599     0    80     1    19
 -1.4056041246745032E+00 a      1600     0    80     1    20
  4.9543069193769433E+00 a      1601     0    81     1     1
  9.3134848855898973E+00 a      1602     0    81     1     2
  1.7186849319460269E+01 a      1603     0    81     1     3
  1.2401640531488349E+01 a      1604     0    81     1     4
  4.5049592561499932E+00 a      1605     0    81     1     5
  1.0340435616497000E+01 a      1606     0    81     1     6
  1.9337415515935685E+01 a      1607     0    81     1     7
 -1.3729444511749085E+01 a      1608     0    81     1     8
 -2.8432745304410304E+01 a      1609     0    81     1     9
  1.1702135550342512E+00 a      1610     0    81     1    10
 -5.4125663120097967E+00 a      1611     0    81     1    11
  2.5494931928633684E+00 a      1612     0    81     1    12
  1.5704107878284548E+01 a      1613     0    81     1    13
 -1.9233471717777282E+00 a      1614     0    81     1    14
 -1.4658170944353587E+01 a      1615     0    81     1    15
  1.3929131022161021E+01 a      1616     0    81     1    16
  2.0871931554935522E+01 a      1617     0    81     1    17
 -5.6612752677929263E+00 a      1618     0    81     1    18
  1.7082911625966933E+01 a      1619     0    81     1    19
 -5.1661589268610069E+00 a      1620     0    81     1    20
  3.2417497018133918E+00 a      1621     0    82     1     1
 -2.4943175021899355E-01 a      1622     0    82     1     2
  3.9128852240568002E-01 a      1623     0    82     1     3
