################################################################################
# Neural network connection values (weights and biases).
################################################################################
# Col  Name       Description
################################################################################
# 1    connection Neural network connection value.
# 2    t          Connection type (a = weight, b = bias).
# 3    index      Index enumerating weights.
# 4    l_s        Starting point layer (end point layer for biases).
# 5    n_s        Starting point neuron in starting layer (end point neuron for biases).
# 6    l_e        End point layer.
# 7    n_e        End point neuron in end layer.
################################################################################
#                      1 2         3     4     5     6     7
#             connection t     index   l_s   n_s   l_e   n_e
############################################################
 -1.2816792420762722E+00 a         1     0     1     1     1
 -3.5278933432875975E-01 a         2     0     1     1     2
  4.9586432550677562E-01 a         3     0     1     1     3
  4.7714904923956386E-02 a         4     0     1     1     4
 -5.1816182240999409E-01 a         5     0     1     1     5
 -9.7434840603321152E-02 a         6     0     1     1     6
  2.6240398886452865E-01 a         7     0     1     1     7
  8.8196988839364221E-02 a         8     0     1     1     8
  5.0639053270682166E-01 a         9     0     1     1     9
 -4.7519798435374228E-01 a        10     0     1     1    10
 -1.6076795449591955E-01 a        11     0     1     1    11
 -1.0415000524884155E+00 a        12     0     1     1    12
  1.3383093700064208E-01 a        13     0     1     1    13
  6.0610256911014671E-01 a        14     0     1     1    14
 -4.7090344291200331E-01 a        15     0     1     1    15
  1.6486630221934656E-01 a        16     0     1     1    16
  2.7127625614132217E-01 a        17     0     1     1    17
  3.4871559402113295E-01 a        18     0     1     1    18
  1.0311288622936943E+00 a        19     0     1     1    19
  5.3796850322276357E-01 a        20     0     1     1    20
 -6.8360175115319533E-01 a        21     0     2     1     1
  3.2020458620477443E-01 a        22     0     2     1     2
  3.1701001959265529E-01 a        23     0     2     1     3
 -4.2185544186679153E-01 a        24     0     2     1     4
  4.8161813562803607E-02 a        25     0     2     1     5
 -9.1773601794802062E-01 a        26     0     2     1     6
 -3.2746385455627136E-01 a        27     0     2     1     7
  3.4628478292213904E-01 a        28     0     2     1     8
  6.0589833556274786E-01 a        29     0     2     1     9
  1.5699797384954123E-01 a        30     0     2     1    10
  2.7163405674641870E-03 a        31     0     2     1    11
  8.6527820656387602E-02 a        32     0     2     1    12
 -2.5894936479169217E-01 a        33     0     2     1    13
 -1.2804361413136700E+00 a        34     0     2     1    14
 -1.7110745207229625E-01 a        35     0     2     1    15
  6.2709204475243363E-02 a        36     0     2     1    16
 -4.0221232880904045E-01 a        37     0     2     1    17
  1.4162867111779204E-01 a        38     0     2     1    18
  1.6619726294724285E-01 a        39     0     2     1    19
 -2.0132386488810400E-01 a        40     0     2     1    20
 -3.3729416210075924E-01 a        41     0     3     1     1
  2.7070333064625332E+00 a        42     0     3     1     2
  6.2779207757007516E-01 a        43     0     3     1     3
 -1.2380016204387307E+00 a        44     0     3     1     4
  9.5775722218346881E-01 a        45     0     3     1     5
 -4.8546938145922587E+00 a        46     0     3     1     6
 -7.6758351710907680E-01 a        47     0     3     1     7
  4.3680059906352542E-01 a        48     0     3     1     8
  9.8223072192069327E-01 a        49     0     3     1     9
  6.2847760254301732E-01 a        50     0     3     1    10
  1.8584342940346860E-01 a        51     0     3     1    11
  1.8454680070215377E+00 a        52     0     3     1    12
 -1.7974163352406440E+00 a        53     0     3     1    13
 -3.8940949582971185E+00 a        54     0     3     1    14
 -1.7059030977949791E-01 a        55     0     3     1    15
 -3.9446231944912119E-01 a        56     0     3     1    16
 -1.5239870764222372E+00 a        57     0     3     1    17
  1.0039890582933404E+00 a        58     0     3     1    18
  1.0487726872378220E-01 a        59     0     3     1    19
 -1.6675434047316182E+00 a        60     0     3     1    20
 -3.1710725855744899E+00 a        61     0     4     1     1
  3.5804658802762592E+00 a        62     0     4     1     2
 -5.8776157576725128E+00 a        63     0     4     1     3
 -6.1748208061958119E+00 a        64     0     4     1     4
 -9.7504607092404416E-01 a        65     0     4     1     5
 -8.1564363390962633E+00 a        66     0     4     1     6
 -7.7176406280698782E+00 a        67     0     4     1     7
  5.1302693342985028E+00 a        68     0     4     1     8
  5.5953255338212804E+00 a        69     0     4     1     9
 -8.6787924802567551E-01 a        70     0     4     1    10
 -1.7508049142032611E+00 a        71     0     4     1    11
 -7.3269378922385702E+00 a        72     0     4     1    12
  3.2757132133883267E+00 a        73     0     4     1    13
 -5.9458811067389510E+00 a        74     0     4     1    14
  1.0012246391224051E+00 a        75     0     4     1    15
 -1.1107183775965539E+00 a        76     0     4     1    16
  2.7866446283980908E+00 a        77     0     4     1    17
  2.2422378120491304E+00 a        78     0     4     1    18
  2.7253294760986133E+00 a        79     0     4     1    19
 -3.4479428236809646E+00 a        80     0     4     1    20
  9.6753585237574824E-02 a        81     0     5     1     1
 -6.0294784938013535E-01 a        82     0     5     1     2
  1.8414013746901833E-01 a        83     0     5     1     3
 -5.5186148691520109E-01 a        84     0     5     1     4
 -2.2493228655639175E-01 a        85     0     5     1     5
  4.3161435713759888E-01 a        86     0     5     1     6
 -1.4106778599235572E-03 a        87     0     5     1     7
 -6.1024282606085689E-01 a        88     0     5     1     8
 -4.8636011091686394E-02 a        89     0     5     1     9
 -1.8104743485231631E-01 a        90     0     5     1    10
 -1.7331181980304708E-01 a        91     0     5     1    11
  3.8987655311047342E-01 a        92     0     5     1    12
 -3.7195130344748764E-02 a        93     0     5     1    13
  6.9788970527593822E-02 a        94     0     5     1    14
  4.5820857068989480E-02 a        95     0     5     1    15
  2.8078462670354404E-01 a        96     0     5     1    16
 -2.5222185963973187E-01 a        97     0     5     1    17
  1.7277865189999303E-01 a        98     0     5     1    18
  6.2480350077285018E-01 a        99     0     5     1    19
  3.9767983165068105E-01 a       100     0     5     1    20
 -1.3616768004236783E+00 a       101     0     6     1     1
 -4.9517549703567920E-01 a       102     0     6     1     2
  3.3758222358743728E-01 a       103     0     6     1     3
 -6.2487331581778349E-01 a       104     0     6     1     4
 -2.9493028445094072E-01 a       105     0     6     1     5
 -2.7814512074719605E-01 a       106     0     6     1     6
 -1.2126498072436591E+00 a       107     0     6     1     7
 -7.5233899916973779E-01 a       108     0     6     1     8
  3.2715742669773473E-01 a       109     0     6     1     9
 -8.3398171181655167E-01 a       110     0     6     1    10
 -2.1265580218574848E-01 a       111     0     6     1    11
  4.9180675990015893E-01 a       112     0     6     1    12
  1.0458248793194164E-01 a       113     0     6     1    13
  4.4361596310249307E-01 a       114     0     6     1    14
 -4.9143778583296740E-03 a       115     0     6     1    15
  2.1690516458262402E-01 a       116     0     6     1    16
 -1.5712775723732347E-01 a       117     0     6     1    17
  5.5708792357932013E-01 a       118     0     6     1    18
  1.4692743857574557E+00 a       119     0     6     1    19
  7.0891235188578983E-01 a       120     0     6     1    20
 -1.3708757545493748E+00 a       121     0     7     1     1
 -5.1143284818694412E-01 a       122     0     7     1     2
  2.5134361939447830E-01 a       123     0     7     1     3
 -5.5903422003182712E-01 a       124     0     7     1     4
 -3.3915728511349891E-01 a       125     0     7     1     5
 -7.6122301954501703E-01 a       126     0     7     1     6
  9.9202216244118269E-01 a       127     0     7     1     7
  3.4035268965359350E-01 a       128     0     7     1     8
  1.0824913482707255E+00 a       129     0     7     1     9
 -2.4263186484081178E-01 a       130     0     7     1    10
  6.2467686137918421E-01 a       131     0     7     1    11
  2.4068546068533583E-01 a       132     0     7     1    12
  6.1781143562915797E-01 a       133     0     7     1    13
 -8.6536524004073101E-01 a       134     0     7     1    14
 -2.7741955915719368E-01 a       135     0     7     1    15
  6.8122984176100243E-01 a       136     0     7     1    16
  3.4555077862702205E-01 a       137     0     7     1    17
  5.0055135519715199E-01 a       138     0     7     1    18
  1.2095903468874591E+00 a       139     0     7     1    19
  5.4364511172255281E-01 a       140     0     7     1    20
 -1.5867353042769063E+00 a       141     0     8     1     1
 -5.3152605098684971E+00 a       142     0     8     1     2
  4.3995162431923296E+00 a       143     0     8     1     3
 -2.7654074454597182E+00 a       144     0     8     1     4
 -8.1365884611104700E-01 a       145     0     8     1     5
  1.5476541954109897E+00 a       146     0     8     1     6
  1.1778717369109014E+01 a       147     0     8     1     7
 -4.1829150208180961E+00 a       148     0     8     1     8
  3.2788067553565865E+00 a       149     0     8     1     9
 -2.6301195474061374E+00 a       150     0     8     1    10
  2.4153176313013254E+00 a       151     0     8     1    11
  5.0604973994724025E+00 a       152     0     8     1    12
  1.1444699598835195E+00 a       153     0     8     1    13
  1.5056370643801460E+00 a       154     0     8     1    14
 -4.7061053175900023E+00 a       155     0     8     1    15
  5.6753084960153179E+00 a       156     0     8     1    16
  1.2247415354575053E+00 a       157     0     8     1    17
  2.0889350854833397E+00 a       158     0     8     1    18
  5.8651631296911981E+00 a       159     0     8     1    19
  5.3818495907701118E+00 a       160     0     8     1    20
 -2.0126659428104916E+00 a       161     0     9     1     1
  1.5279211404436766E-01 a       162     0     9     1     2
  8.2260423009376793E-01 a       163     0     9     1     3
 -2.0805140058603047E-01 a       164     0     9     1     4
 -5.4312946833548492E-01 a       165     0     9     1     5
 -9.4588479763774758E-01 a       166     0     9     1     6
 -7.8396462203456210E-02 a       167     0     9     1     7
  6.3008505219215416E-01 a       168     0     9     1     8
  1.1078379341475166E+00 a       169     0     9     1     9
 -9.4338470018501527E-02 a       170     0     9     1    10
 -1.0172187200445550E-01 a       171     0     9     1    11
 -7.7378399585425905E-01 a       172     0     9     1    12
 -2.1226721835623127E-01 a       173     0     9     1    13
 -3.4523234880362985E-01 a       174     0     9     1    14
 -7.6536155128825523E-01 a       175     0     9     1    15
  1.2182690617489959E-01 a       176     0     9     1    16
 -4.7983210343908560E-02 a       177     0     9     1    17
  4.2138953776500193E-01 a       178     0     9     1    18
  1.3529108254773121E+00 a       179     0     9     1    19
  2.3598988622117673E-01 a       180     0     9     1    20
  3.8333348216605063E-02 a       181     0    10     1     1
  3.4316282537874665E-01 a       182     0    10     1     2
 -9.3714923184451113E-02 a       183     0    10     1     3
 -5.3668232234228919E-01 a       184     0    10     1     4
  3.6889608402761470E-01 a       185     0    10     1     5
 -7.2404871048068431E-01 a       186     0    10     1     6
 -4.3575189560418831E-01 a       187     0    10     1     7
  4.6074274337737314E-01 a       188     0    10     1     8
  4.3202166657554020E-01 a       189     0    10     1     9
  1.6317226565749805E-02 a       190     0    10     1    10
 -7.5574294257912927E-02 a       191     0    10     1    11
  4.9945743494283990E-01 a       192     0    10     1    12
 -1.1352222512844554E-01 a       193     0    10     1    13
 -1.9777817390522450E+00 a       194     0    10     1    14
  2.6292988973583082E-02 a       195     0    10     1    15
 -4.2581301636045607E-02 a       196     0    10     1    16
 -3.5607470792425733E-01 a       197     0    10     1    17
  1.1355833235038983E-01 a       198     0    10     1    18
  7.6314565274659532E-02 a       199     0    10     1    19
 -4.6398860540085107E-01 a       200     0    10     1    20
 -2.8748167626154963E-01 a       201     0    11     1     1
 -1.8824180918705220E+00 a       202     0    11     1     2
 -3.5146937412121049E-01 a       203     0    11     1     3
  3.5924821571652626E-01 a       204     0    11     1     4
 -8.5274519157580997E-01 a       205     0    11     1     5
  3.0625019521556349E+00 a       206     0    11     1     6
  8.6522602011030758E-01 a       207     0    11     1     7
 -1.1937692244466062E-01 a       208     0    11     1     8
 -2.7158049552991259E-01 a       209     0    11     1     9
 -1.1959561471066709E+00 a       210     0    11     1    10
 -3.6185391999100719E-01 a       211     0    11     1    11
 -2.0257603569830058E+00 a       212     0    11     1    12
  1.3159061963425331E+00 a       213     0    11     1    13
  2.8343960797510168E+00 a       214     0    11     1    14
 -3.5538032330935443E-01 a       215     0    11     1    15
  2.4777809456021513E-01 a       216     0    11     1    16
  1.4155647406384204E+00 a       217     0    11     1    17
  1.2146105693153189E-01 a       218     0    11     1    18
  1.1363632569459146E+00 a       219     0    11     1    19
  1.8710156450498903E+00 a       220     0    11     1    20
  5.5785481557388150E-01 a       221     0    12     1     1
  8.9923651938556493E-01 a       222     0    12     1     2
 -5.2458772403919336E-02 a       223     0    12     1     3
 -1.0406957549150302E+00 a       224     0    12     1     4
 -2.9474960531264044E-01 a       225     0    12     1     5
  5.7180737380945990E-01 a       226     0    12     1     6
  3.3480059950385788E-01 a       227     0    12     1     7
 -1.1815262095466691E-01 a       228     0    12     1     8
  1.4132982261994942E-02 a       229     0    12     1     9
  1.1445875075399883E+00 a       230     0    12     1    10
 -6.6352140587602837E-01 a       231     0    12     1    11
 -3.6083476152954369E-01 a       232     0    12     1    12
  9.0818923047183941E-01 a       233     0    12     1    13
  6.3190282012121524E-01 a       234     0    12     1    14
 -2.5658861888878889E-02 a       235     0    12     1    15
  1.7268974315968610E-01 a       236     0    12     1    16
  6.7878571976663638E-01 a       237     0    12     1    17
 -2.5692162640614402E-01 a       238     0    12     1    18
  3.3248141135551790E-01 a       239     0    12     1    19
  1.1498627912420099E+00 a       240     0    12     1    20
 -1.7617468198018711E+00 a       241     0    13     1     1
 -2.4523264569638184E-01 a       242     0    13     1     2
  5.6599967311426991E-01 a       243     0    13     1     3
  9.3076205924216227E-01 a       244     0    13     1     4
 -7.6985247800477566E-02 a       245     0    13     1     5
 -1.5208033714644287E+00 a       246     0    13     1     6
 -9.4411140789352754E-01 a       247     0    13     1     7
 -9.6366083011999254E-02 a       248     0    13     1     8
  7.6052725175942371E-01 a       249     0    13     1     9
 -6.7410605995902795E-01 a       250     0    13     1    10
  2.6421492940810126E-01 a       251     0    13     1    11
 -3.1725806102188708E-01 a       252     0    13     1    12
 -6.4634645546483127E-01 a       253     0    13     1    13
 -1.1426614642182928E+00 a       254     0    13     1    14
 -6.0492433346008534E-01 a       255     0    13     1    15
 -1.1672928953542806E-01 a       256     0    13     1    16
  4.9596529278694834E-01 a       257     0    13     1    17
  4.5864548399901656E-01 a       258     0    13     1    18
 -1.9329888426895445E-01 a       259     0    13     1    19
 -1.2661251464910561E+00 a       260     0    13     1    20
 -2.3729187183837310E+00 a       261     0    14     1     1
  1.3863560301255054E-01 a       262     0    14     1     2
  3.6763465419061214E-01 a       263     0    14     1     3
  6.0331016784008362E-01 a       264     0    14     1     4
 -8.2465168796195615E-02 a       265     0    14     1     5
 -1.5601681776137029E+00 a       266     0    14     1     6
 -9.9028739754182893E-01 a       267     0    14     1     7
  2.8430912265987079E-01 a       268     0    14     1     8
  8.5856918027776064E-01 a       269     0    14     1     9
 -3.8411212972800268E-01 a       270     0    14     1    10
  2.2582498515835686E-01 a       271     0    14     1    11
 -3.3859702646799150E-01 a       272     0    14     1    12
  8.7261996170892503E-02 a       273     0    14     1    13
 -2.5009555119671301E-01 a       274     0    14     1    14
 -4.8167806030474380E-01 a       275     0    14     1    15
 -1.4210455162473179E-01 a       276     0    14     1    16
  6.0039690656048450E-01 a       277     0    14     1    17
  2.6862465132756708E-01 a       278     0    14     1    18
  1.2999356097668413E-01 a       279     0    14     1    19
 -3.5280569303231296E-01 a       280     0    14     1    20
 -3.8504575989504491E-01 a       281     0    15     1     1
  2.8036326567498043E-01 a       282     0    15     1     2
 -1.4536207569733803E-01 a       283     0    15     1     3
  4.6319517078722666E-01 a       284     0    15     1     4
 -1.7668195846485948E-01 a       285     0    15     1     5
 -8.0650338711284364E-01 a       286     0    15     1     6
  4.7519900064379866E-01 a       287     0    15     1     7
  1.1391278915650429E+00 a       288     0    15     1     8
  3.8941235919633194E-01 a       289     0    15     1     9
  7.6610865143055240E-01 a       290     0    15     1    10
  4.0516572353949942E-01 a       291     0    15     1    11
 -7.1273807391451649E-01 a       292     0    15     1    12
  3.4130397924719025E-01 a       293     0    15     1    13
 -7.4768966809205384E-01 a       294     0    15     1    14
  2.9955405500523575E-02 a       295     0    15     1    15
 -4.1459891171246065E-02 a       296     0    15     1    16
  6.4485339823215437E-01 a       297     0    15     1    17
 -4.3351843608632333E-02 a       298     0    15     1    18
 -8.8902667015357850E-01 a       299     0    15     1    19
 -3.9556451665378545E-01 a       300     0    15     1    20
 -9.2359221689611193E-01 a       301     0    16     1     1
  2.3333930915070766E-01 a       302     0    16     1     2
  1.8584776975924941E-01 a       303     0    16     1     3
  2.5856132613691546E-01 a       304     0    16     1     4
 -1.0908555005723442E-01 a       305     0    16     1     5
 -5.9578868253846062E-01 a       306     0    16     1     6
 -1.9118357995140098E-02 a       307     0    16     1     7
  4.7612809704199177E-01 a       308     0    16     1     8
  1.4187449086603404E-01 a       309     0    16     1     9
  2.4005243267111753E-01 a       310     0    16     1    10
  1.2972771518600845E-01 a       311     0    16     1    11
 -4.3181824103609051E-01 a       312     0    16     1    12
 -7.8735084256861931E-01 a       313     0    16     1    13
  5.2935409016228219E-01 a       314     0    16     1    14
 -2.9311613296595977E-02 a       315     0    16     1    15
 -2.0939988849579269E-01 a       316     0    16     1    16
 -3.1776678987492457E-01 a       317     0    16     1    17
  1.4900172191037100E-01 a       318     0    16     1    18
  4.1297042576520848E-01 a       319     0    16     1    19
  2.8122314537779428E-02 a       320     0    16     1    20
 -1.5724761538882435E+00 a       321     0    17     1     1
  4.8720379638499556E-01 a       322     0    17     1     2
  6.2380447393976157E-01 a       323     0    17     1     3
  1.7870575664278321E-01 a       324     0    17     1     4
 -4.4370771589161367E-01 a       325     0    17     1     5
 -9.4428406908472007E-01 a       326     0    17     1     6
 -4.2232083703223233E-02 a       327     0    17     1     7
  9.8694551603493141E-01 a       328     0    17     1     8
  3.8265969755878260E-01 a       329     0    17     1     9
  4.0631879769220236E-01 a       330     0    17     1    10
  1.8795090990754873E-01 a       331     0    17     1    11
 -4.8062208231985787E-01 a       332     0    17     1    12
 -9.6904472694349320E-01 a       333     0    17     1    13
  1.1506961283713670E+00 a       334     0    17     1    14
 -1.6844903076892992E-01 a       335     0    17     1    15
 -2.5831739607255821E-01 a       336     0    17     1    16
 -4.4032518826808886E-01 a       337     0    17     1    17
  5.0175498993580914E-01 a       338     0    17     1    18
  7.7611325102769402E-01 a       339     0    17     1    19
  4.7931917570897048E-01 a       340     0    17     1    20
 -1.6987355119639136E+00 a       341     0    18     1     1
  7.2620456205977257E-01 a       342     0    18     1     2
  8.5594608846516984E-01 a       343     0    18     1     3
  9.9064971023348769E-02 a       344     0    18     1     4
 -6.7015305999856412E-01 a       345     0    18     1     5
 -9.2163875981726473E-01 a       346     0    18     1     6
  2.5737073499793695E-02 a       347     0    18     1     7
  9.2536373259260241E-01 a       348     0    18     1     8
  7.5710740027949874E-01 a       349     0    18     1     9
  5.4691467272416749E-01 a       350     0    18     1    10
  2.2049445852265517E-01 a       351     0    18     1    11
 -3.8186555034802816E-01 a       352     0    18     1    12
 -9.1784686348905309E-01 a       353     0    18     1    13
  1.0690006590992978E+00 a       354     0    18     1    14
 -5.8258467909071099E-01 a       355     0    18     1    15
 -6.8227986512787039E-02 a       356     0    18     1    16
 -2.4417338390719054E-01 a       357     0    18     1    17
  4.6401635404462949E-01 a       358     0    18     1    18
  1.0386714295759158E+00 a       359     0    18     1    19
  4.2736036997727384E-01 a       360     0    18     1    20
 -4.8997913658144826E-01 a       361     0    19     1     1
 -2.6433416269306392E-01 a       362     0    19     1     2
  1.0312113860242685E-01 a       363     0    19     1     3
 -5.8604077319643705E-02 a       364     0    19     1     4
 -5.5292912251033395E-02 a       365     0    19     1     5
 -1.9587993224630552E-02 a       366     0    19     1     6
 -1.4234629961306655E-01 a       367     0    19     1     7
 -2.1613609462520408E-01 a       368     0    19     1     8
  2.7159597170002359E-01 a       369     0    19     1     9
 -8.4352505266653707E-02 a       370     0    19     1    10
 -3.6000994444356854E-01 a       371     0    19     1    11
 -2.5448389354224715E-01 a       372     0    19     1    12
  6.8174269260872489E-01 a       373     0    19     1    13
 -9.9277488998384722E-01 a       374     0    19     1    14
 -1.1952774140625186E-01 a       375     0    19     1    15
  2.6248504312741755E-01 a       376     0    19     1    16
  7.7879162064976248E-02 a       377     0    19     1    17
  2.4778913652513963E-02 a       378     0    19     1    18
  2.7866668153732771E-01 a       379     0    19     1    19
 -2.5836470528935584E-01 a       380     0    19     1    20
 -1.9729024998653630E-02 a       381     0    20     1     1
 -3.3279494817386057E-01 a       382     0    20     1     2
 -6.8632986984109842E-02 a       383     0    20     1     3
 -2.4818102118964580E-01 a       384     0    20     1     4
  3.3642652829927580E-02 a       385     0    20     1     5
  1.6655105461373668E-01 a       386     0    20     1     6
 -2.5663556844502872E-01 a       387     0    20     1     7
 -3.8790752939244388E-01 a       388     0    20     1     8
  3.3704904222832188E-01 a       389     0    20     1     9
 -2.1647003314597718E-01 a       390     0    20     1    10
 -4.0520538380793181E-01 a       391     0    20     1    11
 -2.3189878976431613E-02 a       392     0    20     1    12
  9.3808189589596824E-01 a       393     0    20     1    13
 -1.8058036128633803E+00 a       394     0    20     1    14
 -1.1586405224496828E-01 a       395     0    20     1    15
  3.7856499059451343E-01 a       396     0    20     1    16
  2.9032238297867458E-01 a       397     0    20     1    17
 -1.9512140593523009E-01 a       398     0    20     1    18
  8.1915975646711908E-02 a       399     0    20     1    19
 -4.6370783894205980E-01 a       400     0    20     1    20
  1.4113374849010105E-01 a       401     0    21     1     1
 -6.1578472390499883E-01 a       402     0    21     1     2
 -2.9218735968671228E-01 a       403     0    21     1     3
 -3.1564503964770396E-01 a       404     0    21     1     4
  3.2562183949401818E-01 a       405     0    21     1     5
  1.7041773392971543E-01 a       406     0    21     1     6
 -3.1400601312385978E-01 a       407     0    21     1     7
 -5.8713981652776925E-01 a       408     0    21     1     8
  2.6125312094426756E-01 a       409     0    21     1     9
 -5.7172636616560657E-01 a       410     0    21     1    10
 -5.0307720157039304E-01 a       411     0    21     1    11
 -9.8736949245925160E-02 a       412     0    21     1    12
  1.0356023950768793E+00 a       413     0    21     1    13
 -2.5830308906959800E+00 a       414     0    21     1    14
 -4.5723517792929609E-02 a       415     0    21     1    15
  2.9999724811101802E-01 a       416     0    21     1    16
  3.1261299630771555E-01 a       417     0    21     1    17
 -3.3160593246670356E-01 a       418     0    21     1    18
 -3.0605876686483957E-02 a       419     0    21     1    19
 -7.8425867827308704E-01 a       420     0    21     1    20
  4.7323454612337440E-01 a       421     0    22     1     1
 -4.3207139297375519E-01 a       422     0    22     1     2
 -4.3929615292528029E-01 a       423     0    22     1     3
 -3.2886665752116706E-01 a       424     0    22     1     4
  4.5387250288668862E-01 a       425     0    22     1     5
  5.8956599098300116E-02 a       426     0    22     1     6
 -3.3472512049218961E-01 a       427     0    22     1     7
 -1.4894788490672276E-01 a       428     0    22     1     8
 -9.3803525578677854E-02 a       429     0    22     1     9
 -4.5946660778616710E-01 a       430     0    22     1    10
 -2.5649511139793890E-01 a       431     0    22     1    11
  1.4565786422125412E-01 a       432     0    22     1    12
  5.8555040149617033E-01 a       433     0    22     1    13
 -1.8572888753223962E+00 a       434     0    22     1    14
  4.3957610112578832E-01 a       435     0    22     1    15
  1.9250653539782111E-02 a       436     0    22     1    16
 -8.5822391573227949E-02 a       437     0    22     1    17
 -1.0804039881453316E-01 a       438     0    22     1    18
 -2.6755359250833394E-01 a       439     0    22     1    19
 -3.4313646463951891E-01 a       440     0    22     1    20
 -3.0530016922768821E-01 a       441     0    23     1     1
 -9.6613477230772959E-01 a       442     0    23     1     2
  1.8689775299251016E-01 a       443     0    23     1     3
  2.4138419184399565E-01 a       444     0    23     1     4
  2.2608218507294689E-01 a       445     0    23     1     5
 -5.1915127246528681E-01 a       446     0    23     1     6
  1.0326460622393902E-01 a       447     0    23     1     7
 -1.2917558519384026E-01 a       448     0    23     1     8
 -1.7127259264271100E-03 a       449     0    23     1     9
 -4.6754433884548136E-01 a       450     0    23     1    10
 -3.2353401035590257E-01 a       451     0    23     1    11
 -1.8362661510794359E-01 a       452     0    23     1    12
 -1.6419903071780423E-01 a       453     0    23     1    13
 -5.2292408708483917E-01 a       454     0    23     1    14
  1.0488255479407681E-01 a       455     0    23     1    15
 -5.3618983621115550E-02 a       456     0    23     1    16
 -2.5016400956237100E-01 a       457     0    23     1    17
  1.9325839945110559E-01 a       458     0    23     1    18
  2.7832258956812783E-01 a       459     0    23     1    19
 -4.8540338509745662E-01 a       460     0    23     1    20
  4.4509596158008796E-01 a       461     0    24     1     1
  6.4755886760432235E-01 a       462     0    24     1     2
 -1.8322276727306800E-02 a       463     0    24     1     3
 -8.6722864543216671E-01 a       464     0    24     1     4
 -4.3486241199107634E-01 a       465     0    24     1     5
  4.7512538868446919E-01 a       466     0    24     1     6
 -1.2917663711678717E-01 a       467     0    24     1     7
  1.2994766463206672E-01 a       468     0    24     1     8
  1.3339424338114406E-01 a       469     0    24     1     9
  9.8819541395312616E-01 a       470     0    24     1    10
  3.1536050438276675E-02 a       471     0    24     1    11
  2.1542305643747670E-01 a       472     0    24     1    12
  1.8877846384957070E-01 a       473     0    24     1    13
  2.6058305552938976E-01 a       474     0    24     1    14
 -7.1007689264765389E-02 a       475     0    24     1    15
 -2.4332562171694494E-02 a       476     0    24     1    16
  1.5905547092000275E-01 a       477     0    24     1    17
 -1.0659087629039918E-01 a       478     0    24     1    18
  4.9675299473792234E-02 a       479     0    24     1    19
  8.7255561578485041E-01 a       480     0    24     1    20
 -2.8456754077474207E+00 a       481     0    25     1     1
 -3.9163058978962706E+00 a       482     0    25     1     2
 -1.8242844017860746E-01 a       483     0    25     1     3
  2.0970426946008760E+00 a       484     0    25     1     4
  8.8294003828194001E-01 a       485     0    25     1     5
 -9.0387217624875726E-01 a       486     0    25     1     6
 -4.4747637507237198E-01 a       487     0    25     1     7
  1.2998722316995778E-01 a       488     0    25     1     8
 -6.9498819539922541E-01 a       489     0    25     1     9
 -2.6138514244271307E+00 a       490     0    25     1    10
  6.7242436180598042E-01 a       491     0    25     1    11
  1.2696061421270405E-01 a       492     0    25     1    12
 -2.1099123559745836E+00 a       493     0    25     1    13
 -1.4851794313218796E+00 a       494     0    25     1    14
  5.9636349092350316E-01 a       495     0    25     1    15
 -5.8985527797685078E-01 a       496     0    25     1    16
 -2.3879939883631676E+00 a       497     0    25     1    17
  8.2153472726034582E-01 a       498     0    25     1    18
  2.6624551416351960E-01 a       499     0    25     1    19
 -2.7627808308815598E+00 a       500     0    25     1    20
 -2.8582988992688225E+00 a       501     0    26     1     1
 -3.2835828989780009E+00 a       502     0    26     1     2
  1.2345705902082403E-01 a       503     0    26     1     3
  2.0030729160281648E+00 a       504     0    26     1     4
  6.7415710421899755E-01 a       505     0    26     1     5
 -1.1781353230269651E+00 a       506     0    26     1     6
 -5.3559975070388310E-01 a       507     0    26     1     7
  1.5939106604233169E-01 a       508     0    26     1     8
 -3.0839733883586384E-01 a       509     0    26     1     9
 -2.1418487598304896E+00 a       510     0    26     1    10
  7.2447053829522268E-01 a       511     0    26     1    11
 -1.4426374537762696E-01 a       512     0    26     1    12
 -1.6997504634586718E+00 a       513     0    26     1    13
 -1.4950480613505839E+00 a       514     0    26     1    14
  2.2119096620743006E-01 a       515     0    26     1    15
 -4.8650471532178985E-01 a       516     0    26     1    16
 -2.0490111078450490E+00 a       517     0    26     1    17
  6.9488027117805085E-01 a       518     0    26     1    18
 -8.6010058516903812E-02 a       519     0    26     1    19
 -2.5389157333421393E+00 a       520     0    26     1    20
  1.2180698390037542E-01 a       521     0    27     1     1
 -4.9367259702299371E-01 a       522     0    27     1     2
  5.1060652246300187E-01 a       523     0    27     1     3
  4.7507901705344469E-02 a       524     0    27     1     4
  4.4305106260518701E-01 a       525     0    27     1     5
  2.6960439782165813E-01 a       526     0    27     1     6
  9.9918186455954239E-01 a       527     0    27     1     7
  6.6226163491964329E-01 a       528     0    27     1     8
  3.3968535113877285E-01 a       529     0    27     1     9
 -2.0692194831804875E-01 a       530     0    27     1    10
  4.5429634654897011E-01 a       531     0    27     1    11
  1.6483020452758235E-01 a       532     0    27     1    12
  6.3250111679190896E-02 a       533     0    27     1    13
 -4.6141158536525356E-01 a       534     0    27     1    14
  9.6376632372251123E-03 a       535     0    27     1    15
 -1.3077485699980307E-01 a       536     0    27     1    16
  1.6038294238844125E-01 a       537     0    27     1    17
 -1.8774193847478221E-02 a       538     0    27     1    18
  3.4369112552330584E-02 a       539     0    27     1    19
  4.8430328360616659E-01 a       540     0    27     1    20
 -6.1429068142185080E-02 a       541     0    28     1     1
 -8.9821109872162450E-02 a       542     0    28     1     2
 -2.0393833271746292E-01 a       543     0    28     1     3
  9.1984139902709830E-02 a       544     0    28     1     4
  9.8201976000350230E-02 a       545     0    28     1     5
  4.3690396620111371E-01 a       546     0    28     1     6
 -6.4633298481843330E-03 a       547     0    28     1     7
 -2.0292247054519791E-01 a       548     0    28     1     8
 -9.9495822841389137E-02 a       549     0    28     1     9
 -1.7426764159850208E-01 a       550     0    28     1    10
 -2.3808658120319053E-02 a       551     0    28     1    11
  4.0328194080906304E-01 a       552     0    28     1    12
  6.5142117798194388E-01 a       553     0    28     1    13
 -1.5462516575999483E-01 a       554     0    28     1    14
  2.4660585745472627E-01 a       555     0    28     1    15
  3.5504359472973634E-01 a       556     0    28     1    16
 -5.1267687551442509E-01 a       557     0    28     1    17
  2.7530434161416267E-01 a       558     0    28     1    18
  4.6409303237063110E-01 a       559     0    28     1    19
  2.8348367394261981E-01 a       560     0    28     1    20
 -4.1103111986766505E+00 a       561     0    29     1     1
 -3.6533985931019104E+00 a       562     0    29     1     2
 -1.9926039798484343E+00 a       563     0    29     1     3
  5.4000377704268865E-01 a       564     0    29     1     4
 -1.7400757500237494E+00 a       565     0    29     1     5
  3.9318591135486951E+00 a       566     0    29     1     6
  1.6340660280092583E+00 a       567     0    29     1     7
 -5.3010949358443682E-01 a       568     0    29     1     8
 -1.9541419839674137E+00 a       569     0    29     1     9
  2.2607450585572653E+00 a       570     0    29     1    10
  1.6417195209348110E+00 a       571     0    29     1    11
 -2.6659830716758943E+00 a       572     0    29     1    12
  8.8598739206516308E-01 a       573     0    29     1    13
 -1.4972504858902178E+00 a       574     0    29     1    14
  7.8218204615866510E-02 a       575     0    29     1    15
 -4.6767912537534051E-01 a       576     0    29     1    16
 -4.2298210620813181E+00 a       577     0    29     1    17
  1.2620045038020558E-01 a       578     0    29     1    18
  1.0762657795485959E+00 a       579     0    29     1    19
 -3.0184425163019607E-01 a       580     0    29     1    20
  3.0481073193804020E+00 a       581     0    30     1     1
  3.1430552199664907E+00 a       582     0    30     1     2
  1.0513404135858966E+00 a       583     0    30     1     3
  1.4652253334591885E+00 a       584     0    30     1     4
  1.6052004108705169E+00 a       585     0    30     1     5
 -3.2402259446468684E+00 a       586     0    30     1     6
 -1.7162342034386919E+00 a       587     0    30     1     7
  1.2007069372445638E+00 a       588     0    30     1     8
  5.8561103810053572E-01 a       589     0    30     1     9
  6.3611253879997354E-01 a       590     0    30     1    10
  1.1847900795289383E-01 a       591     0    30     1    11
  1.1086123449824286E+00 a       592     0    30     1    12
 -2.2486954858534389E+00 a       593     0    30     1    13
  1.7231543720306972E+00 a       594     0    30     1    14
 -2.3481328656036524E-01 a       595     0    30     1    15
 -1.2953416582345674E+00 a       596     0    30     1    16
 -2.0707992168814172E-02 a       597     0    30     1    17
  2.2722433570946771E-01 a       598     0    30     1    18
 -1.3239133365955753E+00 a       599     0    30     1    19
 -1.0474348619778009E+00 a       600     0    30     1    20
  1.7449317533129520E+00 a       601     0    31     1     1
  1.1933248306312536E+00 a       602     0    31     1     2
  5.9383694126945674E-01 a       603     0    31     1     3
  9.2153670102157303E-01 a       604     0    31     1     4
  1.8685887703950403E+00 a       605     0    31     1     5
 -2.1861724859237190E+00 a       606     0    31     1     6
 -2.9112585384187146E+00 a       607     0    31     1     7
 -1.2069924361811077E-01 a       608     0    31     1     8
  9.0542547831640441E-01 a       609     0    31     1     9
  1.7494716324434850E-01 a       610     0    31     1    10
  7.4763613617527272E-02 a       611     0    31     1    11
  8.9330071804547684E-01 a       612     0    31     1    12
  6.9138577257554834E-01 a       613     0    31     1    13
  1.2169380414155153E+00 a       614     0    31     1    14
 -9.3703383895436532E-01 a       615     0    31     1    15
 -1.1509324036370741E+00 a       616     0    31     1    16
 -1.7505371632619255E+00 a       617     0    31     1    17
  2.7825359545050204E-01 a       618     0    31     1    18
 -4.6657286629138678E-01 a       619     0    31     1    19
 -8.9694650080332713E-02 a       620     0    31     1    20
  4.9077830845283144E-01 a       621     0    32     1     1
  4.0383773772276171E-01 a       622     0    32     1     2
  1.7218047709353326E-01 a       623     0    32     1     3
  9.1830892214804116E-01 a       624     0    32     1     4
  1.1448479788588608E+00 a       625     0    32     1     5
  2.2564454715897678E-01 a       626     0    32     1     6
 -2.3177213813488824E+00 a       627     0    32     1     7
 -1.8228972562062979E+00 a       628     0    32     1     8
  9.0626052182069206E-02 a       629     0    32     1     9
 -7.9288908140407210E-01 a       630     0    32     1    10
 -1.1543882797274929E-01 a       631     0    32     1    11
  8.4162602528398012E-01 a       632     0    32     1    12
  1.2986691014857936E+00 a       633     0    32     1    13
  8.2838616722829916E-01 a       634     0    32     1    14
 -6.3835387916684894E-01 a       635     0    32     1    15
 -1.5121990959503845E-01 a       636     0    32     1    16
 -1.3359920542277863E+00 a       637     0    32     1    17
  7.5508073632623640E-01 a       638     0    32     1    18
  5.9902223148122646E-01 a       639     0    32     1    19
  2.4500455953087805E-01 a       640     0    32     1    20
  1.7893814499670627E-01 a       641     0    33     1     1
  2.3179637857644644E-01 a       642     0    33     1     2
 -1.1542195238500930E-01 a       643     0    33     1     3
  6.5263927289687373E-01 a       644     0    33     1     4
  6.0579914336748941E-01 a       645     0    33     1     5
  6.7777919237839213E-01 a       646     0    33     1     6
 -9.6967483899859352E-01 a       647     0    33     1     7
 -1.0403452112951259E+00 a       648     0    33     1     8
 -3.4695832876143506E-01 a       649     0    33     1     9
 -1.2207057986867620E+00 a       650     0    33     1    10
 -3.5412959686220918E-01 a       651     0    33     1    11
  7.1386599047246480E-01 a       652     0    33     1    12
  1.1772422688161870E+00 a       653     0    33     1    13
  5.6575298962587006E-01 a       654     0    33     1    14
 -3.8537179819732303E-01 a       655     0    33     1    15
  1.6535523632648619E-01 a       656     0    33     1    16
 -8.0715419486331408E-01 a       657     0    33     1    17
  6.8738162163511585E-01 a       658     0    33     1    18
  9.9306788864637752E-01 a       659     0    33     1    19
  1.9012945204559339E-01 a       660     0    33     1    20
  2.4343182962933221E-01 a       661     0    34     1     1
  7.3373507474494365E-02 a       662     0    34     1     2
 -5.0926176778449861E-01 a       663     0    34     1     3
  3.5892622916000139E-01 a       664     0    34     1     4
  3.8279410587805546E-01 a       665     0    34     1     5
  4.6753009200238999E-01 a       666     0    34     1     6
 -4.8229988660221268E-01 a       667     0    34     1     7
 -9.6913489798421598E-02 a       668     0    34     1     8
 -4.6311300042267317E-01 a       669     0    34     1     9
 -7.1906499080728459E-01 a       670     0    34     1    10
  3.3852894237463509E-02 a       671     0    34     1    11
  8.9258850260291367E-01 a       672     0    34     1    12
  2.9628936510074660E-01 a       673     0    34     1    13
  3.0059885640875739E-01 a       674     0    34     1    14
  3.2943192957137707E-01 a       675     0    34     1    15
  1.7158937142019143E-01 a       676     0    34     1    16
 -9.4991252238097945E-01 a       677     0    34     1    17
  6.1192310832764751E-01 a       678     0    34     1    18
  9.4504232502583230E-01 a       679     0    34     1    19
  7.0752050450919313E-01 a       680     0    34     1    20
  8.6235114766875398E-01 a       681     0    35     1     1
  3.9954179156731651E+00 a       682     0    35     1     2
 -3.7581958252210952E+00 a       683     0    35     1     3
  1.2978551864693071E+00 a       684     0    35     1     4
  3.7950590281142016E-01 a       685     0    35     1     5
 -1.6510698438875999E+00 a       686     0    35     1     6
 -7.9597731742854476E+00 a       687     0    35     1     7
  3.1515018689968812E+00 a       688     0    35     1     8
 -2.1662996273013952E+00 a       689     0    35     1     9
  2.0373134770188410E+00 a       690     0    35     1    10
 -1.8333894395620312E+00 a       691     0    35     1    11
 -3.4477068009310501E+00 a       692     0    35     1    12
 -5.9466660939521820E-01 a       693     0    35     1    13
 -1.2003414754823700E+00 a       694     0    35     1    14
  3.2605658424233708E+00 a       695     0    35     1    15
 -3.8493883816396068E+00 a       696     0    35     1    16
 -1.0063263798092379E+00 a       697     0    35     1    17
 -1.3235442844498289E+00 a       698     0    35     1    18
 -3.6318323329207356E+00 a       699     0    35     1    19
 -3.6997344097989262E+00 a       700     0    35     1    20
  1.2244342090759517E+00 a       701     0    36     1     1
  4.1415482159910013E+00 a       702     0    36     1     2
 -1.7155259981692220E-01 a       703     0    36     1     3
  7.5725595940905177E-01 a       704     0    36     1     4
  6.8504135179617898E-01 a       705     0    36     1     5
 -4.2299199690245076E-01 a       706     0    36     1     6
  3.2377503493636933E-01 a       707     0    36     1     7
 -2.8999925553999328E-01 a       708     0    36     1     8
 -2.4970822794133950E-02 a       709     0    36     1     9
  1.7012991654208329E+00 a       710     0    36     1    10
  7.3774387099244054E-01 a       711     0    36     1    11
  1.0805332813017339E+00 a       712     0    36     1    12
 -3.1849487394530276E+00 a       713     0    36     1    13
  2.4862941286497402E+00 a       714     0    36     1    14
  1.0518046637225187E+00 a       715     0    36     1    15
  7.1231582752298694E-01 a       716     0    36     1    16
  8.9938950294931586E-01 a       717     0    36     1    17
 -5.2483028844387691E-01 a       718     0    36     1    18
 -5.2120835819313505E-01 a       719     0    36     1    19
  3.8525668871658214E-01 a       720     0    36     1    20
 -2.6398208206896734E+00 a       721     0    37     1     1
 -2.4559759123296176E+00 a       722     0    37     1     2
 -5.1574094027088302E-01 a       723     0    37     1     3
 -6.9251246229226082E-01 a       724     0    37     1     4
 -6.4923458810553025E-01 a       725     0    37     1     5
  1.6153478034617836E+00 a       726     0    37     1     6
 -3.0069097931924443E-01 a       727     0    37     1     7
 -3.8436322512828947E-01 a       728     0    37     1     8
 -4.8327906163215500E-01 a       729     0    37     1     9
 -1.6643568440427645E+00 a       730     0    37     1    10
  7.7112954822127280E-02 a       731     0    37     1    11
 -1.4982146326587151E+00 a       732     0    37     1    12
  2.0209689166000784E+00 a       733     0    37     1    13
 -2.0181930699098278E+00 a       734     0    37     1    14
 -8.5211112008907042E-01 a       735     0    37     1    15
 -1.8452620050341506E-01 a       736     0    37     1    16
 -1.4659056658130827E+00 a       737     0    37     1    17
  2.0444523702791145E-01 a       738     0    37     1    18
  5.5085291683933801E-01 a       739     0    37     1    19
  1.1587983730820138E-01 a       740     0    37     1    20
  6.4184546545661822E+00 a       741     0    38     1     1
  6.5989747118472257E+00 a       742     0    38     1     2
  2.7475497642410769E+00 a       743     0    38     1     3
  3.4439188689674727E-01 a       744     0    38     1     4
  2.6482709595353677E+00 a       745     0    38     1     5
 -5.9083837645188115E+00 a       746     0    38     1     6
 -1.7125130386353988E+00 a       747     0    38     1     7
  5.7491665278190118E-01 a       748     0    38     1     8
  2.5566426374962585E+00 a       749     0    38     1     9
 -2.1403737174271700E+00 a       750     0    38     1    10
 -2.3408895395463709E+00 a       751     0    38     1    11
  3.6486004540867789E+00 a       752     0    38     1    12
 -2.2425877351820871E+00 a       753     0    38     1    13
  2.9427698066342121E+00 a       754     0    38     1    14
  6.2052654439922583E-01 a       755     0    38     1    15
  9.1019365196623603E-01 a       756     0    38     1    16
  6.5875077651450162E+00 a       757     0    38     1    17
 -1.6155498974270113E-01 a       758     0    38     1    18
 -1.5316352836537031E+00 a       759     0    38     1    19
 -1.3701129774344772E-01 a       760     0    38     1    20
 -1.4516445499962363E+00 a       761     0    39     1     1
 -1.3777766983864506E+00 a       762     0    39     1     2
 -5.1247322543845497E-01 a       763     0    39     1     3
 -8.9457608657122289E-01 a       764     0    39     1     4
 -7.3847719130992495E-01 a       765     0    39     1     5
  1.5972059593968977E+00 a       766     0    39     1     6
  4.2063868441369107E-01 a       767     0    39     1     7
  5.8219726146385251E-02 a       768     0    39     1     8
 -1.9798844486360032E-01 a       769     0    39     1     9
  2.9190029546881180E-01 a       770     0    39     1    10
  2.8607412755990635E-01 a       771     0    39     1    11
 -1.5253014874269519E-01 a       772     0    39     1    12
  1.4955107682734687E+00 a       773     0    39     1    13
 -6.7994022216246508E-01 a       774     0    39     1    14
 -1.9945261114685436E-01 a       775     0    39     1    15
  4.3428963217802846E-01 a       776     0    39     1    16
 -8.5733873577738684E-01 a       777     0    39     1    17
  1.5090880429663911E-01 a       778     0    39     1    18
  4.8905555642976167E-01 a       779     0    39     1    19
  7.1985977657433986E-01 a       780     0    39     1    20
 -3.0919262287521532E+00 a       781     0    40     1     1
 -2.0677229950175766E+00 a       782     0    40     1     2
 -1.2879029731804246E+00 a       783     0    40     1     3
 -1.3418096869426186E+00 a       784     0    40     1     4
 -1.4413282464410715E+00 a       785     0    40     1     5
  3.4191713245784077E+00 a       786     0    40     1     6
  2.2032929360506106E+00 a       787     0    40     1     7
 -1.5413679624608869E+00 a       788     0    40     1     8
 -7.4942281928889343E-01 a       789     0    40     1     9
 -7.2365061829945199E-01 a       790     0    40     1    10
  2.2412566755674099E-01 a       791     0    40     1    11
 -1.0382773897554622E+00 a       792     0    40     1    12
  9.3093199259370285E-01 a       793     0    40     1    13
 -1.2007608281259876E+00 a       794     0    40     1    14
  6.1811493357347758E-01 a       795     0    40     1    15
  1.6572304103085325E+00 a       796     0    40     1    16
  2.8260448342833161E-01 a       797     0    40     1    17
 -4.8722123185299054E-01 a       798     0    40     1    18
  1.3633282176869417E+00 a       799     0    40     1    19
  1.0336820985144957E+00 a       800     0    40     1    20
 -7.9835589372931559E-01 a       801     0    41     1     1
 -1.8748052276989696E-01 a       802     0    41     1     2
 -6.2628428204226566E-02 a       803     0    41     1     3
 -1.1888686549753575E+00 a       804     0    41     1     4
 -1.4195793284924521E+00 a       805     0    41     1     5
  8.7513243583283939E-01 a       806     0    41     1     6
  2.7510497189873084E+00 a       807     0    41     1     7
  7.8381804765717100E-01 a       808     0    41     1     8
 -3.4801021437642726E-01 a       809     0    41     1     9
  1.1473752296637976E-01 a       810     0    41     1    10
 -3.9700650082189015E-01 a       811     0    41     1    11
 -5.2115678178123337E-01 a       812     0    41     1    12
 -8.4722068149519780E-01 a       813     0    41     1    13
 -1.2496381066651834E+00 a       814     0    41     1    14
  3.4479375583650024E-01 a       815     0    41     1    15
  9.0996978201453371E-01 a       816     0    41     1    16
  2.3728000858268659E+00 a       817     0    41     1    17
 -1.8719448901487196E-01 a       818     0    41     1    18
  9.1447233832611954E-02 a       819     0    41     1    19
 -1.4477389531704832E-01 a       820     0    41     1    20
 -3.5252063978999404E-01 a       821     0    42     1     1
 -1.1602708970385647E-01 a       822     0    42     1     2
 -2.3626887027488697E-01 a       823     0    42     1     3
 -1.1207801482349535E+00 a       824     0    42     1     4
 -7.5609686212824700E-01 a       825     0    42     1     5
 -4.1796567946791663E-01 a       826     0    42     1     6
  1.5837809779610594E+00 a       827     0    42     1     7
  2.0281363013588707E+00 a       828     0    42     1     8
  1.8900689995901945E-01 a       829     0    42     1     9
  1.4294945327922921E+00 a       830     0    42     1    10
  5.3668301373206906E-01 a       831     0    42     1    11
 -4.8749468272576441E-03 a       832     0    42     1    12
 -1.4123905785974797E+00 a       833     0    42     1    13
 -5.4706776649884314E-01 a       834     0    42     1    14
  6.3532490510274919E-01 a       835     0    42     1    15
  2.4987339122334692E-01 a       836     0    42     1    16
  5.8253534099666049E-01 a       837     0    42     1    17
 -4.7703880026608880E-01 a       838     0    42     1    18
 -7.7400664334014546E-01 a       839     0    42     1    19
 -5.9006631407736751E-02 a       840     0    42     1    20
  3.0798390741169865E+00 a       841     0    43     1     1
  4.0431430197063163E+00 a       842     0    43     1     2
 -1.1241705984031602E-01 a       843     0    43     1     3
 -2.5648668790969675E+00 a       844     0    43     1     4
 -9.4928200409351526E-01 a       845     0    43     1     5
  1.2606701535144098E+00 a       846     0    43     1     6
  2.9537256196937905E-01 a       847     0    43     1     7
 -1.6129185916760808E-01 a       848     0    43     1     8
  6.8178755553575165E-01 a       849     0    43     1     9
  2.9635458205364862E+00 a       850     0    43     1    10
 -9.6054384979934782E-01 a       851     0    43     1    11
 -5.5654386282612278E-01 a       852     0    43     1    12
  2.5494234798171416E+00 a       853     0    43     1    13
  1.3540123827618000E+00 a       854     0    43     1    14
 -4.9293844343095433E-01 a       855     0    43     1    15
  6.3943929634489816E-01 a       856     0    43     1    16
  2.6415106179825516E+00 a       857     0    43     1    17
 -7.8757688397702241E-01 a       858     0    43     1    18
  2.5195914014377426E-02 a       859     0    43     1    19
  3.1367120903830217E+00 a       860     0    43     1    20
 -4.9071720360480098E-01 a       861     0    44     1     1
 -2.6119785625175407E-01 a       862     0    44     1     2
  2.1145476049497933E-01 a       863     0    44     1     3
 -5.1256593849102816E-01 a       864     0    44     1     4
 -3.6288733051076544E-01 a       865     0    44     1     5
 -3.2063929293943200E-01 a       866     0    44     1     6
  5.9287466138523437E-01 a       867     0    44     1     7
  4.6553639494809479E-01 a       868     0    44     1     8
  5.1951911294506703E-01 a       869     0    44     1     9
  1.1098281066041509E+00 a       870     0    44     1    10
  1.9343255906485515E-01 a       871     0    44     1    11
 -5.0942170580465451E-01 a       872     0    44     1    12
 -4.0437654233241849E-01 a       873     0    44     1    13
 -6.1737534483311252E-01 a       874     0    44     1    14
 -2.9998719467662933E-02 a       875     0    44     1    15
  1.6071277849116597E-01 a       876     0    44     1    16
  6.0532534098526658E-01 a       877     0    44     1    17
 -3.8419787583656012E-01 a       878     0    44     1    18
 -7.3373065680996785E-01 a       879     0    44     1    19
 -6.2081092319998832E-01 a       880     0    44     1    20
 -5.8415506572633413E-01 a       881     0    45     1     1
 -1.8812270637271927E-01 a       882     0    45     1     2
  2.1963556577522775E-01 a       883     0    45     1     3
  8.6693169294214806E-02 a       884     0    45     1     4
 -1.2915039594703986E-01 a       885     0    45     1     5
 -5.4315489560469432E-01 a       886     0    45     1     6
  7.6228761435343198E-02 a       887     0    45     1     7
 -3.8409369637626235E-02 a       888     0    45     1     8
  4.1627122632604546E-01 a       889     0    45     1     9
  5.0642788828124541E-01 a       890     0    45     1    10
 -1.4500321546733777E-01 a       891     0    45     1    11
 -1.0250201847863314E+00 a       892     0    45     1    12
 -3.1594763322320879E-01 a       893     0    45     1    13
 -5.5134250040654975E-01 a       894     0    45     1    14
 -2.6592282772019410E-01 a       895     0    45     1    15
 -1.0053908002765331E-01 a       896     0    45     1    16
  6.3317221390011702E-01 a       897     0    45     1    17
 -3.3009196177355588E-01 a       898     0    45     1    18
 -3.3277218555693305E-01 a       899     0    45     1    19
 -9.1222300563456860E-01 a       900     0    45     1    20
  5.8981934911643918E-01 a       901     0    46     1     1
 -9.1284906661574805E-01 a       902     0    46     1     2
 -2.1898451706505501E-01 a       903     0    46     1     3
 -1.2380807980582580E+00 a       904     0    46     1     4
 -2.8736134438163197E-01 a       905     0    46     1     5
  1.5797994723935216E+00 a       906     0    46     1     6
  1.0649729806666213E+00 a       907     0    46     1     7
 -2.2799939466919789E-01 a       908     0    46     1     8
 -7.6398208815926338E-01 a       909     0    46     1     9
  8.8579799299393103E-01 a       910     0    46     1    10
 -6.0348163852599590E-01 a       911     0    46     1    11
 -3.8675110199855513E-02 a       912     0    46     1    12
  6.8338325451786430E-01 a       913     0    46     1    13
  5.9136918623468537E-01 a       914     0    46     1    14
  6.4577215317837755E-01 a       915     0    46     1    15
  3.0224143972337020E-01 a       916     0    46     1    16
 -6.9616607658226892E-01 a       917     0    46     1    17
 -1.5836464297065020E-01 a       918     0    46     1    18
  4.3628367143957397E-01 a       919     0    46     1    19
  1.0513322590102330E+00 a       920     0    46     1    20
 -6.8294452431422070E-01 a       921     0    47     1     1
 -1.4034098849764774E-02 a       922     0    47     1     2
 -2.2441677978208653E-02 a       923     0    47     1     3
  2.8619805228001155E-01 a       924     0    47     1     4
 -8.8936307654621100E-03 a       925     0    47     1     5
 -4.3436226287288443E-01 a       926     0    47     1     6
 -1.7577495774478841E-01 a       927     0    47     1     7
  1.6682455842020225E-01 a       928     0    47     1     8
  1.8648359408729925E-01 a       929     0    47     1     9
  2.2833129562621080E-01 a       930     0    47     1    10
 -2.9629153852529361E-02 a       931     0    47     1    11
 -5.3536205181048691E-01 a       932     0    47     1    12
 -3.7843358296994029E-01 a       933     0    47     1    13
 -2.8502948855602633E-01 a       934     0    47     1    14
 -4.6790827877648527E-03 a       935     0    47     1    15
 -4.7424866059985277E-02 a       936     0    47     1    16
 -1.5806771056936714E-01 a       937     0    47     1    17
 -7.2262559310578942E-02 a       938     0    47     1    18
  2.3842188427893679E-01 a       939     0    47     1    19
 -3.6130503047547485E-01 a       940     0    47     1    20
 -3.7560060347500279E-01 a       941     0    48     1     1
  2.1096004424887846E+00 a       942     0    48     1     2
 -1.4447424416257684E+00 a       943     0    48     1     3
  1.1631105047030508E+00 a       944     0    48     1     4
 -2.5456343663909331E-01 a       945     0    48     1     5
 -1.2453242787695535E+00 a       946     0    48     1     6
 -6.5954844035126561E+00 a       947     0    48     1     7
  1.0164526250147252E+00 a       948     0    48     1     8
 -8.2716253699350062E-01 a       949     0    48     1     9
  6.8374943293935220E-01 a       950     0    48     1    10
 -1.1822711914702697E+00 a       951     0    48     1    11
 -2.4435947847793651E+00 a       952     0    48     1    12
 -1.0563142971143365E-01 a       953     0    48     1    13
 -6.8412822874199886E-01 a       954     0    48     1    14
  1.9008460171033568E+00 a       955     0    48     1    15
 -2.1518293330109870E+00 a       956     0    48     1    16
 -2.2857460900209736E-01 a       957     0    48     1    17
 -3.8556837923751225E-01 a       958     0    48     1    18
 -1.4885161118092292E+00 a       959     0    48     1    19
 -2.3368412104328278E+00 a       960     0    48     1    20
 -1.0782748094103249E+00 a       961     0    49     1     1
 -1.2002046197943104E+00 a       962     0    49     1     2
  1.3647314497598131E+00 a       963     0    49     1     3
 -3.7542721111207522E-01 a       964     0    49     1     4
 -5.0646726428652922E-01 a       965     0    49     1     5
  1.1879862777407835E-01 a       966     0    49     1     6
  1.7074809947706451E+00 a       967     0    49     1     7
 -1.6588010105882103E+00 a       968     0    49     1     8
  1.1933027139313395E+00 a       969     0    49     1     9
 -1.1522745584745222E+00 a       970     0    49     1    10
  6.1308991092086751E-01 a       971     0    49     1    11
  8.2073249386231484E-01 a       972     0    49     1    12
  3.7018010639929028E-01 a       973     0    49     1    13
  3.2235204218754421E-01 a       974     0    49     1    14
 -1.2077117577396088E+00 a       975     0    49     1    15
  1.6648534951739422E+00 a       976     0    49     1    16
  5.2017432638218186E-01 a       977     0    49     1    17
  7.9552523143180376E-01 a       978     0    49     1    18
  1.8063993131229608E+00 a       979     0    49     1    19
  9.4919146590249626E-01 a       980     0    49     1    20
 -7.2362540879932158E-01 a       981     0    50     1     1
 -4.8445196748085460E+00 a       982     0    50     1     2
 -5.2360604311992498E+00 a       983     0    50     1     3
  3.2592234604795136E+00 a       984     0    50     1     4
  5.6284474996081824E-01 a       985     0    50     1     5
 -7.2867902955833941E-01 a       986     0    50     1     6
  2.2928717470392526E+00 a       987     0    50     1     7
 -4.0693072021614602E+00 a       988     0    50     1     8
 -1.1301978501703791E+01 a       989     0    50     1     9
  5.2215860526643185E+00 a       990     0    50     1    10
 -2.0783823946223077E+00 a       991     0    50     1    11
 -1.5380760152380182E+00 a       992     0    50     1    12
 -7.0630115040397012E-01 a       993     0    50     1    13
 -3.0393333615207037E+00 a       994     0    50     1    14
  3.3354109762446389E+00 a       995     0    50     1    15
  3.6170105526681784E+00 a       996     0    50     1    16
 -1.8640837749246477E+00 a       997     0    50     1    17
 -1.3474681671943045E-01 a       998     0    50     1    18
 -3.6463149068896232E+00 a       999     0    50     1    19
 -4.5684843841780086E-02 a      1000     0    50     1    20
  3.7517432663716361E+00 a      1001     0    51     1     1
  5.0957358477199155E-01 a      1002     0    51     1     2
  9.3432304087221041E-01 a      1003     0    51     1     3
 -2.5202469883919565E+00 a      1004     0    51     1     4
  4.8141383222435802E-01 a      1005     0    51     1     5
  5.0144654318082056E+00 a      1006     0    51     1     6
  1.9666096139527738E+00 a      1007     0    51     1     7
  1.9820518829734841E+00 a      1008     0    51     1     8
  1.2610617570035634E+01 a      1009     0    51     1     9
 -7.6936783540254072E-01 a      1010     0    51     1    10
 -3.7290915026850184E+00 a      1011     0    51     1    11
 -5.3423423383992696E-01 a      1012     0    51     1    12
  1.5384651133718541E+00 a      1013     0    51     1    13
  1.9299947885328925E+00 a      1014     0    51     1    14
 -3.9949235174230630E-01 a      1015     0    51     1    15
 -4.2095154614873929E+00 a      1016     0    51     1    16
  4.4625451158270329E-01 a      1017     0    51     1    17
 -1.4588760967713751E-01 a      1018     0    51     1    18
 -3.6796047341242399E-01 a      1019     0    51     1    19
 -1.1033452360838107E+00 a      1020     0    51     1    20
 -1.8712710469749749E+00 a      1021     0    52     1     1
  3.6093840447826810E+00 a      1022     0    52     1     2
  4.7475303098631034E+00 a      1023     0    52     1     3
 -4.5868641420160489E-01 a      1024     0    52     1     4
 -7.5356856564993169E-01 a      1025     0    52     1     5
 -6.0608587960244726E+00 a      1026     0    52     1     6
 -3.9747656639293130E+00 a      1027     0    52     1     7
  1.3416965843599422E+00 a      1028     0    52     1     8
 -1.0836262572940198E+01 a      1029     0    52     1     9
 -2.5151047012940961E+00 a      1030     0    52     1    10
  6.4345792143103901E+00 a      1031     0    52     1    11
  8.2649698418647655E-01 a      1032     0    52     1    12
 -6.9744714043249656E-01 a      1033     0    52     1    13
  3.9824830716592152E+00 a      1034     0    52     1    14
 -1.9956565829888473E+00 a      1035     0    52     1    15
  1.8050474827839289E+00 a      1036     0    52     1    16
  8.4565256398643074E-01 a      1037     0    52     1    17
 -6.3614093814792205E-01 a      1038     0    52     1    18
  2.3427734506820075E+00 a      1039     0    52     1    19
  2.9923610853363041E+00 a      1040     0    52     1    20
  1.2595468305159663E+01 a      1041     0    53     1     1
 -5.7605551467405103E-01 a      1042     0    53     1     2
  1.0225166882846726E+00 a      1043     0    53     1     3
 -1.8948656893185849E+00 a      1044     0    53     1     4
  2.5854332564247040E-01 a      1045     0    53     1     5
  2.7531024421878056E+00 a      1046     0    53     1     6
  1.4273672097667081E+00 a      1047     0    53     1     7
  3.5495395295652381E+00 a      1048     0    53     1     8
  5.2090766173286065E+00 a      1049     0    53     1     9
  3.5106690451074205E+00 a      1050     0    53     1    10
 -8.8394612499795033E-01 a      1051     0    53     1    11
 -9.4428306441894740E+00 a      1052     0    53     1    12
  9.2264874715742040E-01 a      1053     0    53     1    13
 -2.6322702416172934E+00 a      1054     0    53     1    14
  1.9587083601970672E+00 a      1055     0    53     1    15
 -6.6711882371498890E+00 a      1056     0    53     1    16
 -4.8514439380719776E-01 a      1057     0    53     1    17
  5.8726179590162286E-01 a      1058     0    53     1    18
  2.1796203839797093E+00 a      1059     0    53     1    19
  3.6365345707916279E+00 a      1060     0    53     1    20
  2.0558276189025904E+00 a      1061     0    54     1     1
  1.3586906472488920E+00 a      1062     0    54     1     2
  1.3868094976349208E+00 a      1063     0    54     1     3
 -1.7851032723519937E+00 a      1064     0    54     1     4
  6.7546323188855828E-01 a      1065     0    54     1     5
  1.9348955980119595E+00 a      1066     0    54     1     6
  1.2919409849244243E+00 a      1067     0    54     1     7
  6.2405171656955605E-01 a      1068     0    54     1     8
 -1.7367849466481730E-01 a      1069     0    54     1     9
 -9.3146691290106820E-01 a      1070     0    54     1    10
 -3.1750740155428683E+00 a      1071     0    54     1    11
 -2.4471482490825700E+00 a      1072     0    54     1    12
  8.5973867568743179E-01 a      1073     0    54     1    13
 -6.2022744234598737E-01 a      1074     0    54     1    14
 -1.4442278922504190E-01 a      1075     0    54     1    15
 -2.5425825111154277E+00 a      1076     0    54     1    16
  1.1082379494210794E+00 a      1077     0    54     1    17
 -6.2542428314960563E-01 a      1078     0    54     1    18
 -2.2491250018149231E+00 a      1079     0    54     1    19
 -1.2400049014138499E+00 a      1080     0    54     1    20
 -2.3757634445092704E+00 a      1081     0    55     1     1
 -1.8826870233109172E+00 a      1082     0    55     1     2
 -4.0533428629700765E+00 a      1083     0    55     1     3
 -2.9320591337152671E+00 a      1084     0    55     1     4
  9.9645265224914703E-01 a      1085     0    55     1     5
  4.0469236582217940E+00 a      1086     0    55     1     6
 -1.2738755670418180E+00 a      1087     0    55     1     7
  3.0165838158881306E+00 a      1088     0    55     1     8
  2.9528034899274136E-01 a      1089     0    55     1     9
 -6.2461696593647318E+00 a      1090     0    55     1    10
  1.4688160959497516E+00 a      1091     0    55     1    11
  7.7733568651035723E-01 a      1092     0    55     1    12
  4.0805432098734418E-01 a      1093     0    55     1    13
 -1.4497101793452563E+00 a      1094     0    55     1    14
  4.6099483964477289E-01 a      1095     0    55     1    15
 -2.8094587246913925E+00 a      1096     0    55     1    16
  1.5222019847687347E+00 a      1097     0    55     1    17
 -6.8520324947242583E-01 a      1098     0    55     1    18
  4.8973448902238710E+00 a      1099     0    55     1    19
 -5.7981286574844031E+00 a      1100     0    55     1    20
 -1.3735743668856260E+00 a      1101     0    56     1     1
  1.5391603803485112E+00 a      1102     0    56     1     2
  6.4891407751727739E+00 a      1103     0    56     1     3
  1.2990630534744927E+00 a      1104     0    56     1     4
  2.3188814618605087E+00 a      1105     0    56     1     5
 -6.3352294350355809E+00 a      1106     0    56     1     6
  6.6044430505713354E+00 a      1107     0    56     1     7
 -4.1392972238749541E+00 a      1108     0    56     1     8
 -1.6845774899553565E+01 a      1109     0    56     1     9
 -1.3074085563002558E+00 a      1110     0    56     1    10
 -1.7393886970600385E+00 a      1111     0    56     1    11
  6.2426386880836624E+00 a      1112     0    56     1    12
 -3.8571994519144335E+00 a      1113     0    56     1    13
 -6.7858913338815734E+00 a      1114     0    56     1    14
  3.6686683925375814E+00 a      1115     0    56     1    15
  1.2064484344684670E+01 a      1116     0    56     1    16
 -8.3012857962348274E+00 a      1117     0    56     1    17
 -1.1838834802883633E+00 a      1118     0    56     1    18
 -2.3165493679096758E+00 a      1119     0    56     1    19
  9.2566940810480525E-01 a      1120     0    56     1    20
 -8.6958593659351369E+00 a      1121     0    57     1     1
  4.9972946116525021E+00 a      1122     0    57     1     2
  3.9689547021625105E+00 a      1123     0    57     1     3
  3.8637237495472641E+00 a      1124     0    57     1     4
 -3.1854272714337550E-01 a      1125     0    57     1     5
 -4.9869244441708682E+00 a      1126     0    57     1     6
  2.4452570282145514E+00 a      1127     0    57     1     7
 -3.6642571722741373E+00 a      1128     0    57     1     8
  1.2322669339039483E+00 a      1129     0    57     1     9
  4.3197144036738448E+00 a      1130     0    57     1    10
 -2.2950259568320490E+00 a      1131     0    57     1    11
  3.9022408107654396E+00 a      1132     0    57     1    12
 -2.6140394943969175E-01 a      1133     0    57     1    13
 -6.3629196231964773E+00 a      1134     0    57     1    14
 -2.3346714470200007E+00 a      1135     0    57     1    15
  7.2468645819027930E+00 a      1136     0    57     1    16
 -1.9074124079825616E+00 a      1137     0    57     1    17
  1.0486194453624444E+00 a      1138     0    57     1    18
 -3.4820697367468885E+00 a      1139     0    57     1    19
  3.8604330165057341E+00 a      1140     0    57     1    20
  4.6570256077259298E-01 a      1141     0    58     1     1
 -1.7237319562013822E+00 a      1142     0    58     1     2
 -2.9528723553343278E-01 a      1143     0    58     1     3
  8.4090079291957875E-01 a      1144     0    58     1     4
  1.9182620115910448E-01 a      1145     0    58     1     5
 -1.7109485317243287E+00 a      1146     0    58     1     6
 -9.6702081906842163E-01 a      1147     0    58     1     7
 -1.8288716277605601E+00 a      1148     0    58     1     8
  8.2672953537528149E-01 a      1149     0    58     1     9
  2.1044083940540586E+00 a      1150     0    58     1    10
  8.7412774732298393E-01 a      1151     0    58     1    11
 -1.8016380027948236E+00 a      1152     0    58     1    12
  1.1772699761874798E-01 a      1153     0    58     1    13
  4.6254074267917282E+00 a      1154     0    58     1    14
  6.3346693030510182E-01 a      1155     0    58     1    15
  1.7788466652059181E+00 a      1156     0    58     1    16
 -3.3720348735263994E-01 a      1157     0    58     1    17
 -1.5695813861831218E-01 a      1158     0    58     1    18
 -1.2280230039064597E+00 a      1159     0    58     1    19
  1.6913547309129604E+00 a      1160     0    58     1    20
 -6.8742450949381046E+00 a      1161     0    59     1     1
 -2.6537457681147085E+00 a      1162     0    59     1     2
 -4.1394398915746944E+00 a      1163     0    59     1     3
  3.9778161894090164E-01 a      1164     0    59     1     4
 -2.1495958927966936E+00 a      1165     0    59     1     5
  5.5744256016314797E-01 a      1166     0    59     1     6
 -4.9352637380393247E+00 a      1167     0    59     1     7
 -7.1798024570787655E-01 a      1168     0    59     1     8
  2.9061820371417726E+00 a      1169     0    59     1     9
 -3.0827983346118000E+00 a      1170     0    59     1    10
  1.4654998635175009E+00 a      1171     0    59     1    11
  4.3796047568748850E+00 a      1172     0    59     1    12
  1.2410341448436575E+00 a      1173     0    59     1    13
  5.7820616078604843E+00 a      1174     0    59     1    14
 -4.0465015536543483E+00 a      1175     0    59     1    15
 -1.8301795874919752E-01 a      1176     0    59     1    16
  4.4314324179721174E+00 a      1177     0    59     1    17
  1.6920786628011391E+00 a      1178     0    59     1    18
  8.0033333940832596E-01 a      1179     0    59     1    19
 -3.7408478779373522E+00 a      1180     0    59     1    20
  4.1573539705687494E+00 a      1181     0    60     1     1
 -5.2479042553548227E+00 a      1182     0    60     1     2
  4.1598453776362971E+00 a      1183     0    60     1     3
  3.4262383834599781E+00 a      1184     0    60     1     4
 -1.1031854024214296E+00 a      1185     0    60     1     5
 -2.8172983130167273E+00 a      1186     0    60     1     6
  7.3852858676277700E-01 a      1187     0    60     1     7
  3.2003562485881947E+00 a      1188     0    60     1     8
  7.8595981360502298E+00 a      1189     0    60     1     9
 -1.4892158065442380E+00 a      1190     0    60     1    10
  5.3955367528163363E+00 a      1191     0    60     1    11
 -4.5685617920894925E+00 a      1192     0    60     1    12
 -2.1605541101844525E+00 a      1193     0    60     1    13
  1.5452429025622050E+00 a      1194     0    60     1    14
  1.7991418268808115E-01 a      1195     0    60     1    15
  8.6121161101587909E+00 a      1196     0    60     1    16
 -5.8188819657271278E+00 a      1197     0    60     1    17
 -6.1791607929206300E+00 a      1198     0    60     1    18
  6.4803288894263655E+00 a      1199     0    60     1    19
  4.6869302118090648E+00 a      1200     0    60     1    20
 -4.5779193078279379E+00 a      1201     0    61     1     1
 -1.8907842652354525E+00 a      1202     0    61     1     2
 -2.0466244846796551E+00 a      1203     0    61     1     3
 -5.6628793087277138E+00 a      1204     0    61     1     4
 -2.2469134092108498E+00 a      1205     0    61     1     5
  3.6156300425037022E+00 a      1206     0    61     1     6
 -2.7701079689990609E+00 a      1207     0    61     1     7
  1.3104848199605181E+00 a      1208     0    61     1     8
 -5.4905921224696002E+00 a      1209     0    61     1     9
  3.2311654008706507E+00 a      1210     0    61     1    10
 -2.4447320469912248E+00 a      1211     0    61     1    11
  5.3190615487993274E+00 a      1212     0    61     1    12
 -2.4376831403788808E+00 a      1213     0    61     1    13
 -5.8859803872056355E+00 a      1214     0    61     1    14
 -2.8871308417936681E+00 a      1215     0    61     1    15
 -4.2940944148675282E+00 a      1216     0    61     1    16
  3.5463479787363990E+00 a      1217     0    61     1    17
 -1.6327450051219450E+00 a      1218     0    61     1    18
  1.2776942599645043E+00 a      1219     0    61     1    19
 -8.9874003282672543E-01 a      1220     0    61     1    20
  4.4520910541681946E+00 a      1221     0    62     1     1
  1.1862667749861611E+01 a      1222     0    62     1     2
  8.6000753063879500E+00 a      1223     0    62     1     3
 -4.4761251395941279E+00 a      1224     0    62     1     4
  7.6031718775364601E+00 a      1225     0    62     1     5
  6.9285305564886475E+00 a      1226     0    62     1     6
  5.0461533813321315E+00 a      1227     0    62     1     7
  4.2149667478490374E+00 a      1228     0    62     1     8
 -1.3177015622336159E+01 a      1229     0    62     1     9
 -1.1149761628982076E+00 a      1230     0    62     1    10
 -1.2129313486844472E+01 a      1231     0    62     1    11
  2.7106910761997258E+00 a      1232     0    62     1    12
 -2.7970555163266861E+00 a      1233     0    62     1    13
 -9.9071502297185763E+00 a      1234     0    62     1    14
  1.3509022544927520E+01 a      1235     0    62     1    15
 -3.8899972598665031E+00 a      1236     0    62     1    16
 -1.0144525661253574E+01 a      1237     0    62     1    17
 -3.9189365282197990E+00 a      1238     0    62     1    18
 -1.4466676065897245E+01 a      1239     0    62     1    19
 -2.4553380279567079E+00 a      1240     0    62     1    20
 -1.2791888360494916E+00 a      1241     0    63     1     1
 -1.2266922148464074E+00 a      1242     0    63     1     2
  1.8993387088926605E+00 a      1243     0    63     1     3
  9.9327460581371441E-01 a      1244     0    63     1     4
 -3.5782291509462918E+00 a      1245     0    63     1     5
  4.4647519290745513E-01 a      1246     0    63     1     6
 -6.7523881719495726E-01 a      1247     0    63     1     7
 -3.0129884082812830E+00 a      1248     0    63     1     8
  1.0464033786661506E-01 a      1249     0    63     1     9
  5.1323974984890375E-01 a      1250     0    63     1    10
  3.5658579706171794E+00 a      1251     0    63     1    11
  1.5734109445157616E+00 a      1252     0    63     1    12
 -2.5059934859069313E+00 a      1253     0    63     1    13
 -1.2073266043172288E+00 a      1254     0    63     1    14
 -2.1351533718408935E+00 a      1255     0    63     1    15
  1.5575990644077931E+00 a      1256     0    63     1    16
  4.4615605208134634E-01 a      1257     0    63     1    17
  1.1641262064822284E+00 a      1258     0    63     1    18
  2.3262759067092553E-01 a      1259     0    63     1    19
  9.8767762140436566E-01 a      1260     0    63     1    20
  3.4231674961322298E+00 a      1261     0    64     1     1
  1.0285159801396275E+00 a      1262     0    64     1     2
 -3.8583136306677746E-01 a      1263     0    64     1     3
  1.0112663645118801E+01 a      1264     0    64     1     4
  6.0263650021962780E+00 a      1265     0    64     1     5
 -3.1077053539002621E+00 a      1266     0    64     1     6
 -2.6171995800328069E+00 a      1267     0    64     1     7
  5.8526110201826542E+00 a      1268     0    64     1     8
  1.3236561504508966E+01 a      1269     0    64     1     9
 -7.1879888991985972E+00 a      1270     0    64     1    10
  5.5238130774503471E+00 a      1271     0    64     1    11
 -6.2322561431337027E+00 a      1272     0    64     1    12
  8.4024220860879062E+00 a      1273     0    64     1    13
  2.2491478974781289E+00 a      1274     0    64     1    14
  4.9544131201865094E+00 a      1275     0    64     1    15
  7.1691353616134545E-01 a      1276     0    64     1    16
 -1.9729996746915887E-01 a      1277     0    64     1    17
  2.9419970082668256E+00 a      1278     0    64     1    18
 -7.0723687721801953E+00 a      1279     0    64     1    19
 -2.7091130388206204E+00 a      1280     0    64     1    20
  3.1712617495896922E-01 a      1281     0    65     1     1
  1.9739335387279879E+00 a      1282     0    65     1     2
  4.5381994951517102E-01 a      1283     0    65     1     3
  3.2765316249105481E-01 a      1284     0    65     1     4
 -5.0180449951607020E-01 a      1285     0    65     1     5
 -7.8003316057266370E-01 a      1286     0    65     1     6
  1.2613506634259147E-01 a      1287     0    65     1     7
  1.4530451195539926E-01 a      1288     0    65     1     8
  1.0876914062729826E+00 a      1289     0    65     1     9
 -9.6475092140627017E-01 a      1290     0    65     1    10
 -8.8635825843729132E-01 a      1291     0    65     1    11
  1.8234013456828977E+00 a      1292     0    65     1    12
  2.1329484935810070E-01 a      1293     0    65     1    13
 -1.1344793225199004E-02 a      1294     0    65     1    14
 -1.8606989180695697E+00 a      1295     0    65     1    15
  1.3646976669616639E+00 a      1296     0    65     1    16
  7.7020705913573129E-01 a      1297     0    65     1    17
  2.6907058617793822E-01 a      1298     0    65     1    18
  2.0819943003804018E+00 a      1299     0    65     1    19
 -1.7114168312320952E+00 a      1300     0    65     1    20
 -5.1636091694180788E+00 a      1301     0    66     1     1
 -2.1506762492603313E+00 a      1302     0    66     1     2
  2.1762109381240988E-01 a      1303     0    66     1     3
 -2.7371684763092326E-02 a      1304     0    66     1     4
  1.3326629365642610E+00 a      1305     0    66     1     5
  9.0680246963059472E-02 a      1306     0    66     1     6
 -1.5833615260869498E+00 a      1307     0    66     1     7
 -1.0117182955111934E+00 a      1308     0    66     1     8
 -6.4636748630623329E+00 a      1309     0    66     1     9
 -2.2414032885158139E+00 a      1310     0    66     1    10
 -7.4647240255201608E-01 a      1311     0    66     1    11
  9.8920875613138648E-01 a      1312     0    66     1    12
 -3.1290338958626769E-02 a      1313     0    66     1    13
  1.7027271171111416E+00 a      1314     0    66     1    14
  1.4921969825970016E+00 a      1315     0    66     1    15
  2.4132784869674766E+00 a      1316     0    66     1    16
  5.3942386837583634E-01 a      1317     0    66     1    17
  3.8391415805162175E+00 a      1318     0    66     1    18
  1.1170868662395264E+00 a      1319     0    66     1    19
  1.2012530124637077E+00 a      1320     0    66     1    20
 -2.5850477391742253E+00 a      1321     0    67     1     1
  2.1949146723799808E+00 a      1322     0    67     1     2
 -7.2982291366429388E+00 a      1323     0    67     1     3
 -5.5254524927812456E+00 a      1324     0    67     1     4
  1.3927074677787756E+01 a      1325     0    67     1     5
  2.6947631168247286E+00 a      1326     0    67     1     6
  8.0606521228487749E-01 a      1327     0    67     1     7
  4.1266570625882926E+00 a      1328     0    67     1     8
 -2.7707287274606371E+00 a      1329     0    67     1     9
 -2.2425071668716017E+00 a      1330     0    67     1    10
 -8.8664477252149627E+00 a      1331     0    67     1    11
 -1.0653356280319481E+00 a      1332     0    67     1    12
  5.1964908284621041E+00 a      1333     0    67     1    13
  6.4358248065410582E+00 a      1334     0    67     1    14
  3.6756050652026464E+00 a      1335     0    67     1    15
 -1.1073383197615094E+00 a      1336     0    67     1    16
  2.4799946088103231E+00 a      1337     0    67     1    17
 -1.2367104212121773E+00 a      1338     0    67     1    18
  7.2574114467291095E-01 a      1339     0    67     1    19
 -1.2745252430211431E-02 a      1340     0    67     1    20
  4.1264038371893221E+00 a      1341     0    68     1     1
  1.9457182059742000E+00 a      1342     0    68     1     2
  3.4353146128627610E+00 a      1343     0    68     1     3
 -3.7967209003182791E+00 a      1344     0    68     1     4
 -6.2168565392871686E+00 a      1345     0    68     1     5
 -3.9968404704808331E+00 a      1346     0    68     1     6
  7.0068428699233625E+00 a      1347     0    68     1     7
 -5.6610708383966886E+00 a      1348     0    68     1     8
  1.2520689971663872E+00 a      1349     0    68     1     9
  9.0377102585497120E+00 a      1350     0    68     1    10
 -5.3882480120521405E+00 a      1351     0    68     1    11
 -5.5345947841042689E+00 a      1352     0    68     1    12
 -5.1379995394423590E+00 a      1353     0    68     1    13
  1.1233435420603732E+00 a      1354     0    68     1    14
 -2.2289103875772702E+00 a      1355     0    68     1    15
  1.2910003838748276E+00 a      1356     0    68     1    16
 -4.0698795036338602E+00 a      1357     0    68     1    17
 -4.3029701016415585E+00 a      1358     0    68     1    18
  5.3059814261351077E+00 a      1359     0    68     1    19
  1.1501787278650566E+00 a      1360     0    68     1    20
  3.8074654786320972E+00 a      1361     0    69     1     1
 -2.6108469201474471E+00 a      1362     0    69     1     2
 -3.9349908291447755E-01 a      1363     0    69     1     3
 -9.3770499138452712E-01 a      1364     0    69     1     4
  1.7716556770931832E-01 a      1365     0    69     1     5
  7.3140192785270142E-01 a      1366     0    69     1     6
 -9.0789919823170939E-01 a      1367     0    69     1     7
  4.3466228946721686E-01 a      1368     0    69     1     8
 -3.1601714131866014E+00 a      1369     0    69     1     9
  2.7311744517799972E+00 a      1370     0    69     1    10
  1.5744466764856075E+00 a      1371     0    69     1    11
 -2.8792332192728942E+00 a      1372     0    69     1    12
 -8.9550621927010265E-01 a      1373     0    69     1    13
  4.9687981812149893E+00 a      1374     0    69     1    14
  3.4954446258416909E+00 a      1375     0    69     1    15
 -3.0810480464697099E+00 a      1376     0    69     1    16
 -9.5559362210563237E-01 a      1377     0    69     1    17
 -4.4199344555424103E-01 a      1378     0    69     1    18
 -5.0711419531279507E+00 a      1379     0    69     1    19
  4.4512499467534505E+00 a      1380     0    69     1    20
  7.7607154585790178E-02 a      1381     0    70     1     1
  7.2809586089136025E-01 a      1382     0    70     1     2
  2.4429729868545535E-02 a      1383     0    70     1     3
 -1.1924432033440269E+00 a      1384     0    70     1     4
 -4.9397763034408676E-01 a      1385     0    70     1     5
  5.4764037651178228E+00 a      1386     0    70     1     6
  9.7102172215103588E-01 a      1387     0    70     1     7
  1.2951141161810189E+00 a      1388     0    70     1     8
  2.7561646269362409E+01 a      1389     0    70     1     9
 -4.4159006544122885E+00 a      1390     0    70     1    10
 -5.0803831815297116E+00 a      1391     0    70     1    11
 -4.5563112922786125E-01 a      1392     0    70     1    12
 -2.1275469924661458E-01 a      1393     0    70     1    13
 -8.0672150602704438E+00 a      1394     0    70     1    14
 -1.7259625519654418E+00 a      1395     0    70     1    15
 -3.0229303124636666E+00 a      1396     0    70     1    16
  2.4481908190628747E+00 a      1397     0    70     1    17
  1.6462687151413189E+00 a      1398     0    70     1    18
  1.7195368657969459E+00 a      1399     0    70     1    19
 -4.1844378279438788E+00 a      1400     0    70     1    20
 -9.6178612751320944E+00 a      1401     0    71     1     1
  8.8636100282515373E-01 a      1402     0    71     1     2
 -6.1912030656808137E-01 a      1403     0    71     1     3
  5.6785835824375965E+00 a      1404     0    71     1     4
 -1.9263804302941452E+00 a      1405     0    71     1     5
 -7.9914113660743062E+00 a      1406     0    71     1     6
 -1.0522497230787039E+01 a      1407     0    71     1     7
  1.8648491789876949E+00 a      1408     0    71     1     8
  8.4570348855872677E+00 a      1409     0    71     1     9
  2.7139883920540098E+00 a      1410     0    71     1    10
  3.1825873930173603E+00 a      1411     0    71     1    11
 -1.0586749256068339E+01 a      1412     0    71     1    12
 -3.0672819527859554E+00 a      1413     0    71     1    13
 -8.7366055975813737E+00 a      1414     0    71     1    14
 -3.6320973150167064E+00 a      1415     0    71     1    15
  9.3391902903578661E-01 a      1416     0    71     1    16
  3.8879366079795128E+00 a      1417     0    71     1    17
  3.0457587577479606E+00 a      1418     0    71     1    18
  5.3105026953710333E+00 a      1419     0    71     1    19
  5.4718872342301008E+00 a      1420     0    71     1    20
 -2.3233200274356037E+01 a      1421     0    72     1     1
 -7.9149723031990487E+00 a      1422     0    72     1     2
 -7.7027712729563307E+00 a      1423     0    72     1     3
 -2.5331114432997121E-01 a      1424     0    72     1     4
  2.0173368973521622E+00 a      1425     0    72     1     5
 -1.7079479511236304E+00 a      1426     0    72     1     6
  2.6810781684939653E+00 a      1427     0    72     1     7
  1.6381453377387196E+00 a      1428     0    72     1     8
  1.0683160481348855E+00 a      1429     0    72     1     9
  7.0791357564512278E+00 a      1430     0    72     1    10
  5.3692731756434808E+00 a      1431     0    72     1    11
  2.6099748209364630E+00 a      1432     0    72     1    12
 -4.0591845825202483E-01 a      1433     0    72     1    13
 -1.1882833562731632E+01 a      1434     0    72     1    14
 -6.9361774089383221E-01 a      1435     0    72     1    15
 -2.9521339344541526E+00 a      1436     0    72     1    16
  7.4725504586826663E-01 a      1437     0    72     1    17
 -5.3287055259906859E+00 a      1438     0    72     1    18
  8.9988258342063450E+00 a      1439     0    72     1    19
  4.9585583526186898E+00 a      1440     0    72     1    20
  4.5594446764502887E+00 a      1441     0    73     1     1
 -5.3294200443185735E+00 a      1442     0    73     1     2
  2.3755904748516938E+00 a      1443     0    73     1     3
 -1.7520594718581413E+00 a      1444     0    73     1     4
 -1.5702277247883762E+00 a      1445     0    73     1     5
 -4.6348812367716565E+00 a      1446     0    73     1     6
 -2.2198250822210857E+00 a      1447     0    73     1     7
 -1.4438087910221233E+00 a      1448     0    73     1     8
  6.7884809556767789E-01 a      1449     0    73     1     9
 -1.0764824377444661E+01 a      1450     0    73     1    10
 -4.0777296915873213E+00 a      1451     0    73     1    11
 -6.3637178233981473E+00 a      1452     0    73     1    12
 -6.9594818328618246E-01 a      1453     0    73     1    13
 -5.8742643822452401E+00 a      1454     0    73     1    14
  1.8564488881088854E+00 a      1455     0    73     1    15
 -3.3923245477542845E+00 a      1456     0    73     1    16
 -6.5707479664902591E-01 a      1457     0    73     1    17
 -3.0009880467269651E-01 a      1458     0    73     1    18
  2.7493233850916252E+00 a      1459     0    73     1    19
  2.6592232639914840E-02 a      1460     0    73     1    20
  4.3942097015134740E-01 a      1461     0    74     1     1
  1.8688714162072909E-01 a      1462     0    74     1     2
  7.4073821804243467E-01 a      1463     0    74     1     3
  4.6964502868601826E-01 a      1464     0    74     1     4
  4.1495641904381519E-01 a      1465     0    74     1     5
  8.8727360731936544E-02 a      1466     0    74     1     6
  1.3977878570140723E+00 a      1467     0    74     1     7
 -2.2437367762991500E+00 a      1468     0    74     1     8
 -6.3499600482858676E-01 a      1469     0    74     1     9
 -1.6016741916164023E+00 a      1470     0    74     1    10
  8.1905914535088364E-01 a      1471     0    74     1    11
 -2.0007668495961994E-01 a      1472     0    74     1    12
 -8.3762538596196778E-01 a      1473     0    74     1    13
  3.4957431298775123E+00 a      1474     0    74     1    14
  9.5797399052123630E-02 a      1475     0    74     1    15
  2.0350578922247742E+00 a      1476     0    74     1    16
 -1.8052291812777281E+00 a      1477     0    74     1    17
  3.1410827249322765E-01 a      1478     0    74     1    18
  3.6083127026342915E-01 a      1479     0    74     1    19
  1.5610353724742128E+00 a      1480     0    74     1    20
 -5.4667474965474430E+00 a      1481     0    75     1     1
  1.0020680069203378E+00 a      1482     0    75     1     2
 -1.4771677692305896E+00 a      1483     0    75     1     3
 -5.0648062596597203E-02 a      1484     0    75     1     4
 -2.1705431043194130E+00 a      1485     0    75     1     5
  4.1257879195662630E+00 a      1486     0    75     1     6
 -2.4051466531987606E+00 a      1487     0    75     1     7
 -1.1778785275565975E+00 a      1488     0    75     1     8
  2.0099007835603278E+01 a      1489     0    75     1     9
  5.1106290388373443E+00 a      1490     0    75     1    10
 -2.1184735942348278E+00 a      1491     0    75     1    11
 -7.3780646851836984E+00 a      1492     0    75     1    12
 -2.1023399844531441E+00 a      1493     0    75     1    13
 -3.9805995592629078E+00 a      1494     0    75     1    14
 -1.3127036716361482E+00 a      1495     0    75     1    15
 -5.6164334921956343E+00 a      1496     0    75     1    16
  4.2823432724973634E+00 a      1497     0    75     1    17
 -2.8273518836810632E+00 a      1498     0    75     1    18
 -4.4949432491856083E+00 a      1499     0    75     1    19
 -1.1070206306612733E+00 a      1500     0    75     1    20
 -9.9654950085161023E+00 a      1501     0    76     1     1
  3.4833271907073620E+00 a      1502     0    76     1     2
 -4.9581816312218248E+00 a      1503     0    76     1     3
 -6.4868612597270747E-01 a      1504     0    76     1     4
  1.0598419836400266E-01 a      1505     0    76     1     5
 -5.3047771349967154E-01 a      1506     0    76     1     6
 -1.7122223878566019E+00 a      1507     0    76     1     7
 -3.7082117428138215E+00 a      1508     0    76     1     8
 -8.7589537867004914E+00 a      1509     0    76     1     9
  3.4087145680021327E+00 a      1510     0    76     1    10
 -1.0672013923211237E+00 a      1511     0    76     1    11
  7.3336705847241133E+00 a      1512     0    76     1    12
  5.6650268047037888E-01 a      1513     0    76     1    13
 -3.8936938028923267E+00 a      1514     0    76     1    14
  2.3512685339773504E-01 a      1515     0    76     1    15
 -4.5859731044324983E+00 a      1516     0    76     1    16
  3.0137190597367640E+00 a      1517     0    76     1    17
  6.3269804486217360E+00 a      1518     0    76     1    18
 -4.0538338179273987E+00 a      1519     0    76     1    19
 -3.4045984654343968E+00 a      1520     0    76     1    20
  4.6697892844430999E+00 a      1521     0    77     1     1
 -9.6204727902038700E-01 a      1522     0    77     1     2
  5.4222655442527490E+00 a      1523     0    77     1     3
  4.6082114978190427E+00 a      1524     0    77     1     4
 -1.0159666238257977E+01 a      1525     0    77     1     5
 -3.2734968928651087E+00 a      1526     0    77     1     6
  2.4210701130872420E-01 a      1527     0    77     1     7
 -1.1240099202825151E+00 a      1528     0    77     1     8
  3.8070469660214892E+00 a      1529     0    77     1     9
  9.5980925685579943E-01 a      1530     0    77     1    10
  4.6516411483131064E+00 a      1531     0    77     1    11
 -9.4886523305443127E-01 a      1532     0    77     1    12
 -2.4828394921895365E+00 a      1533     0    77     1    13
 -7.1915955900678066E+00 a      1534     0    77     1    14
 -1.4635798960903921E+00 a      1535     0    77     1    15
 -1.1833302341136844E+00 a      1536     0    77     1    16
 -3.0486213748017539E+00 a      1537     0    77     1    17
 -1.6022343235266220E-01 a      1538     0    77     1    18
 -1.0196902777713799E+00 a      1539     0    77     1    19
 -1.3265692449846662E+00 a      1540     0    77     1    20
  2.2502797478268017E+00 a      1541     0    78     1     1
  1.6031268437752388E+00 a      1542     0    78     1     2
 -5.5496975304772744E-01 a      1543     0    78     1     3
 -1.1172438896520360E-03 a      1544     0    78     1     4
 -7.8322269409874268E-01 a      1545     0    78     1     5
  1.4806744028108045E+00 a      1546     0    78     1     6
  1.4390923005784440E+00 a      1547     0    78     1     7
  3.2892472081514073E+00 a      1548     0    78     1     8
 -2.2974109123329614E+00 a      1549     0    78     1     9
  9.0291599419092716E-01 a      1550     0    78     1    10
 -1.5629297107409712E+00 a      1551     0    78     1    11
  8.5015346823947668E-01 a      1552     0    78     1    12
 -2.7130957071300016E-01 a      1553     0    78     1    13
  6.0921187223316053E+00 a      1554     0    78     1    14
  2.0086005629678079E+00 a      1555     0    78     1    15
  1.0642739368408263E+00 a      1556     0    78     1    16
 -1.2996702998874945E+00 a      1557     0    78     1    17
  1.7968410382996038E+00 a      1558     0    78     1    18
  4.7445671054939753E-01 a      1559     0    78     1    19
 -1.2607603242315062E+00 a      1560     0    78     1    20
  3.0631267727430886E+00 a      1561     0    79     1     1
 -1.5849166628553926E+00 a      1562     0    79     1     2
 -2.3164875225001136E-01 a      1563     0    79     1     3
  8.1805914878270081E-01 a      1564     0    79     1     4
  1.7822307380894005E+00 a      1565     0    79     1     5
 -3.8895526778525564E+00 a      1566     0    79     1     6
 -8.0457742996024939E-01 a      1567     0    79     1     7
 -3.0246189758673978E+00 a      1568     0    79     1     8
  4.7773815807638282E+00 a      1569     0    79     1     9
  5.5900903418142889E-01 a      1570     0    79     1    10
  1.7722768733234182E-01 a      1571     0    79     1    11
 -1.3499198193196400E+00 a      1572     0    79     1    12
  2.3378802000792280E+00 a      1573     0    79     1    13
 -5.2114384550107253E+00 a      1574     0    79     1    14
 -4.4333958845363588E+00 a      1575     0    79     1    15
 -7.5396784383416193E-01 a      1576     0    79     1    16
  2.3670710777569068E+00 a      1577     0    79     1    17
 -3.7026318727876872E+00 a      1578     0    79     1    18
 -5.9256956138922005E-02 a      1579     0    79     1    19
 -2.6440889023858061E+00 a      1580     0    79     1    20
  1.3081714094445513E+00 a      1581     0    80     1     1
 -5.5687811743164217E-01 a      1582     0    80     1     2
 -1.6266337044847445E-01 a      1583     0    80     1     3
 -1.3660891062467395E-01 a      1584     0    80     1     4
  3.2140023008382551E-01 a      1585     0    80     1     5
  8.5873427034046768E-02 a      1586     0    80     1     6
 -2.7469334925658273E-01 a      1587     0    80     1     7
 -4.6026802380203851E+00 a      1588     0    80     1     8
 -4.4488592920183356E-01 a      1589     0    80     1     9
 -1.8408357208615518E+00 a      1590     0    80     1    10
  6.0238460378539027E-01 a      1591     0    80     1    11
  1.2751077300976135E-01 a      1592     0    80     1    12
 -1.5905992725614779E+00 a      1593     0    80     1    13
  1.9368680731775059E+00 a      1594     0    80     1    14
 -1.1302983387207701E+00 a      1595     0    80     1    15
  3.4686678449754579E-02 a      1596     0    80     1    16
  3.1512086150797297E-01 a      1597     0    80     1    17
  1.1850508433170470E+00 a      1598     0    80     1    18
  9.9241560860292399E-01 a      1599     0    80     1    19
  9.3539347006202911E-01 a      1600     0    80     1    20
 -1.2585149000987923E+00 a      1601     0    81     1     1
 -1.3911826319214554E-01 a      1602     0    81     1     2
  6.2128725641200289E-01 a      1603     0    81     1     3
 -1.4258797886186318E+00 a      1604     0    81     1     4
  3.0793511889088110E-01 a      1605     0    81     1     5
 -1.5518117495944732E+00 a      1606     0    81     1     6
 -2.5012735783170834E+00 a      1607     0    81     1     7
 -1.4797311011047838E+00 a      1608     0    81     1     8
  5.1070162587696011E-01 a      1609     0    81     1     9
 -2.6849533836865454E-02 a      1610     0    81     1    10
  9.7130098354150096E-01 a      1611     0    81     1    11
  2.6351067187278154E-01 a      1612     0    81     1    12
  4.7413565056984769E-01 a      1613     0    81     1    13
 -3.3475424624043719E+00 a      1614     0    81     1    14
  4.5043146773766485E-01 a      1615     0    81     1    15
 -1.7765097604143709E+00 a      1616     0    81     1    16
  9.0122679545445994E-01 a      1617     0    81     1    17
 -1.6204982986497423E+00 a      1618     0    81     1    18
 -3.5474564921183012E+00 a      1619     0    81     1    19
  3.8092072286878391E+00 a      1620     0    81     1    20
 -5.0588115806046519E-01 a      1621     0    82     1     1
 -3.1788863233170400E-01 a      1622     0    82     1     2
 -7.0012988729741377E-01 a      1623     0    82     1     3
